437 150
plane -0.244927 0.169831 0.104298 -0.030246 -0.089136 -0.245173 0.176448 -0.02369 -0.143946 0.085115 -0.131926 -0.05764 -0.491528 0.166259 -0.679535 -0.423182 0.082398 -0.065094 -0.234235 -0.382692 -0.33964 0.181302 0.256682 -0.102368 -0.086176 -0.409453 -0.061854 -0.201724 -0.389079 -0.104584 -0.17015 -0.010119 -0.072058 0.292127 0.707684 -0.307067 0.031449 -0.262429 0.297269 -0.030235 0.354912 0.25321 -0.142576 0.260566 0.165249 -0.202957 -0.261744 -0.24479 0.065362 0.195384 -0.488241 -0.111962 -0.248389 0.309241 -0.16942 0.312515 -0.426897 -0.472497 0.125366 0.010826 0.112109 -0.204113 0.200981 -0.221134 -0.083979 -0.359471 0.086354 0.152245 0.24928 0.278565 -0.125072 0.233301 0.191695 0.031668 0.267269 0.054725 -0.156171 -0.093927 -0.106412 -0.38761 0.032438 0.28004 0.216292 -0.364702 0.049374 0.012788 -0.013455 -0.192502 -0.19905 -0.18541 -0.129354 0.0292 -0.002678 0.047154 -0.05949 -0.142423 0.020402 -0.322808 0.197273 -0.031536 -0.189534 0.086611 -0.221951 -0.069932 0.24781 -0.153713 -0.088178 0.308673 -0.495845 0.122765 0.325124 -0.220556 -0.23823 0.034026 -0.295407 -0.230791 -0.204298 0.210312 -0.341536 -0.226011 0.149386 0.231986 -0.317947 -0.453938 0.306627 -0.366857 0.019365 0.339434 -0.252919 -0.447467 0.082602 -0.094616 0.140187 0.399073 -0.067523 -0.059453 -0.343106 0.03127 -0.191798 0.092825 -0.436795 -0.044063 0.368575 0.078306 0.467394 -0.011292 -0.290452 -0.167522 0.413623 0.110724
stupid -0.158522 0.093765 -0.450891 0.124253 -0.347072 0.389302 0.606046 0.098941 0.343087 0.093113 0.239834 -0.277702 -0.155089 -0.080075 -0.421464 0.052746 0.110839 0.222886 -0.189897 -0.375218 0.121686 0.055579 0.214263 -0.297061 0.312133 0.110254 -0.313605 -0.186401 -0.279109 -0.163868 0.059589 -0.039072 0.258236 0.518916 0.392872 0.068892 -0.269257 -0.128997 0.114728 0.033502 -0.035584 0.002265 0.132633 0.042865 -0.126919 -0.169563 0.097642 -0.176442 0.018893 0.025219 -0.012082 -0.020476 -0.193605 -0.05811 -0.074213 -0.225439 0.19907 0.024706 0.458946 0.016514 -0.078475 0.343013 0.10638 -0.173687 0.346487 0.06488 0.262929 0.053255 0.228072 -0.31108 -0.014411 -0.001681 0.040162 0.164638 -0.204956 -0.159744 -0.155785 0.218703 0.301689 -0.027372 -0.186226 0.095886 0.144132 -0.043901 -0.041396 -0.283906 0.001978 0.053847 0.239764 -0.429892 -0.122303 0.305168 0.055321 0.272868 0.19987 -0.130027 -0.13206 0.304084 0.076484 -0.224391 -0.179429 0.372048 -0.004723 -0.187282 0.487102 -0.046384 0.013067 -0.328285 -0.201013 -0.11637 -0.154123 -0.027525 -0.260784 -0.158865 -0.284397 -0.165834 -0.108819 -0.259522 -0.430823 0.093402 -0.1719 -0.139109 -0.036439 0.120381 0.126435 -0.018901 -0.215906 -0.048888 -0.051991 0.017133 -0.03589 -0.337516 -0.247335 0.027495 0.024585 0.432081 -0.016311 0.054922 0.247429 0.052486 0.001215 -0.014173 0.267387 0.168671 -0.004728 0.294552 0.015945 0.098768 0.279766 0.052809
egg -0.203983 0.03613 -0.131589 -0.064283 0.619755 0.107508 -0.066853 0.277234 0.148134 0.635662 0.147079 -0.072052 -0.094095 0.059209 -0.311408 0.172763 0.026572 0.016558 -0.15694 -0.013298 0.26114 -0.047145 0.25515 0.268978 0.063562 0.489553 -0.422794 -0.179901 -0.258583 0.573881 -0.161105 -0.06337 0.01886 0.469561 0.213401 0.115403 0.474369 0.106338 -0.188153 0.09181 0.251571 -0.352493 -0.46258 0.182126 -0.042636 -0.276144 0.250293 0.134504 -0.250871 -0.087876 -0.079721 -4.37E-4 0.014729 0.390463 -0.400084 0.112996 -0.099726 -0.195115 0.267354 -0.561808 -0.04257 -0.060778 -0.184633 0.291195 0.313752 -0.263418 -0.213334 0.018288 -0.006262 0.26119 0.160094 -0.089624 0.142141 -0.158281 0.313001 -0.006471 -0.57786 -0.028404 0.077915 -0.178031 -0.105409 -0.066631 0.028361 0.053308 -0.251451 -0.067699 0.075409 -0.265188 -0.07919 -0.377874 0.170659 0.127009 -0.350359 -0.431231 -0.224519 -0.011412 -0.209971 0.08228 0.510986 0.126194 -0.561477 0.174743 0.215631 0.091686 0.327262 -0.075478 -0.371172 -0.062734 -0.28797 -0.1531 0.198187 0.105623 -0.126453 -0.133827 -0.525609 -0.202633 -0.10508 -0.032188 -0.432694 0.34899 0.196338 0.162858 0.135713 0.292851 -0.208132 -0.184863 0.29204 -0.259802 0.029838 0.677888 -0.309568 -0.300957 -0.682572 0.027215 0.097899 0.057133 0.065836 -0.264011 0.309531 0.113983 -0.035287 -0.054365 0.188037 -0.066782 -0.141002 -0.024647 -0.087009 0.465353 0.217775 -0.080691
year -0.089734 0.32644 0.161992 -0.040369 -0.176636 0.03401 0.132699 0.284786 0.129572 0.178028 0.020737 -0.033175 -0.094146 0.166612 -0.241811 -0.508302 0.101472 -0.157636 -0.166004 -0.264684 -0.222332 -0.037701 0.148016 0.200465 -0.008656 0.159662 -0.273396 -0.096726 -0.039982 -0.223151 -0.102907 0.291193 -0.070103 0.046219 0.122648 3.47E-4 0.078758 0.148167 0.106288 0.096795 0.144462 -0.345954 -0.130576 -0.05443 -0.075325 -0.084432 -0.210112 0.063953 0.012588 -0.095214 -0.036428 -0.087591 -0.039856 -0.135931 0.104925 -0.315349 -0.012826 -0.055177 0.06795 -0.22082 0.132309 -0.344185 -0.089066 -0.228127 -0.083949 -0.001086 -0.010898 0.035336 0.041875 -0.067293 -0.033552 0.172156 0.353572 -0.187213 -0.003763 -0.175054 -0.145522 0.201532 -0.079841 0.16367 0.071696 -0.02662 0.150539 -0.052704 -0.063503 -0.056866 -0.127529 -0.088125 0.019124 0.206273 0.043099 -0.037605 -0.292991 0.0918 -0.198435 0.056122 0.099855 -0.050529 -0.112014 0.057275 -0.028187 0.182885 -0.010017 -0.164994 0.01192 -0.030677 -0.071561 0.212365 -0.160559 0.070663 -0.14003 0.041133 0.060249 -0.325656 -0.188802 -0.142762 0.105191 0.075275 -0.040434 -0.01559 0.178213 -0.077528 0.107383 0.133812 -0.101941 -0.002664 0.062131 -0.047129 0.261357 -0.048204 -0.015801 -0.113335 0.012342 -0.160082 -0.039342 0.092855 0.020026 -0.320711 0.055945 0.154518 -0.124161 -0.03127 0.366414 0.20103 0.057833 -0.076982 0.05931 0.050624 0.174177 0.053502
psychiatry 0.222978 0.149447 0.080644 -0.017198 -0.263916 0.110306 0.092672 0.541147 0.006322 0.0416 0.252805 -0.421944 0.175922 0.076099 -0.204181 0.083408 -0.207415 -0.185113 -0.209583 -0.083975 -0.564889 0.091768 0.375984 -0.12 -0.109741 -0.017663 -0.629135 -0.174322 -0.121814 -0.360903 -0.27522 0.579986 -0.282936 0.010682 -0.199778 0.374842 -0.433022 0.161289 0.531394 -0.015256 -0.209106 -0.041563 -0.015432 -0.164672 -0.013507 -0.012012 0.363444 -0.391848 0.076378 0.031838 -0.679052 0.009382 -0.063875 0.284175 -0.020684 0.276501 -0.43175 -0.21142 0.166076 -0.080657 0.208812 -0.384825 0.162862 -0.015347 0.064032 0.255325 -0.004181 -0.114635 0.265725 -0.001669 0.555583 -0.541123 0.199688 0.349948 -0.126393 -0.521102 0.471812 0.35665 -0.080745 -0.143058 0.539455 -0.101943 0.214138 -0.403204 -0.061356 -0.220317 -0.453711 0.279824 0.174382 -0.703855 0.187412 -0.073027 0.293724 -0.27251 0.285928 -0.240207 0.263273 0.467332 0.383905 -0.198711 -0.076742 0.060923 -0.289034 -0.111188 0.56166 -0.025948 -0.219326 -0.114695 -0.017256 0.169287 0.164645 0.049539 -0.244231 -0.520229 -0.338855 0.113195 0.029461 0.217703 0.215932 0.455993 0.236189 -0.008889 -0.141895 -0.148965 -0.342231 -0.253833 -0.484645 -0.705929 -0.422488 0.501125 -0.464207 -0.006474 0.287861 0.300328 0.255182 0.151364 -0.289409 0.224748 -0.01775 0.594162 0.364894 0.12434 0.102911 -0.003017 -0.013517 0.420007 -0.460713 -0.154601 0.023244 -0.069
asylum -0.467294 0.713768 -0.46479 -0.30372 0.059566 0.615844 -0.10424 -0.016127 0.076673 0.03802 -0.172027 0.130861 0.365095 0.271402 -0.201076 0.207706 -0.233241 -0.237427 -0.40528 0.034942 0.027991 -0.043793 -0.099866 0.468631 -0.135584 -0.472148 -0.173865 0.039391 -0.391159 -0.146156 -0.66568 -0.094749 -0.043222 0.196042 0.164124 0.24642 -0.163937 0.082413 0.208051 0.224359 -0.088682 0.001449 -0.115152 0.069196 -0.189839 -0.147389 0.126507 -0.386936 -0.124406 0.151767 -0.278717 -0.296203 -0.216935 0.425829 0.284817 -0.082201 -0.583612 -0.143224 -0.084423 -0.249983 0.407863 -0.41531 0.228652 0.134993 0.260662 -0.227882 -0.193811 -0.421272 0.050777 -0.357488 -0.047872 0.477356 -0.052464 -0.015895 -0.391519 0.09876 -0.225186 0.698897 0.12839 0.212502 -0.166769 -0.025606 0.226502 0.088757 0.079456 -0.298778 -0.137128 -0.414209 0.110938 -0.191431 0.113521 -0.531137 0.211118 0.10952 0.013211 0.190325 0.209786 0.161477 0.591481 -0.062879 -0.215053 0.336186 0.031263 -0.155451 0.100287 0.026621 -0.154979 0.563455 -0.108533 4.3E-5 -0.414806 0.2353 -0.312853 -0.560593 -0.108367 0.190517 -0.188439 -0.384588 -0.35045 -0.175541 0.062821 0.212633 -0.392977 -0.048727 0.348936 -0.318592 -0.102932 -0.271158 0.190271 -0.390545 0.454403 0.081987 -0.37307 0.092238 -0.183565 -0.164347 -0.263662 0.049258 -0.351865 0.200375 0.089924 0.154774 0.593202 0.385776 0.401315 0.281022 0.010584 -0.066885 0.308597 0.356769
manslaughter -0.060914 0.711083 -0.453019 0.381223 -0.151999 -0.029127 0.114474 -0.11292 0.303722 0.012402 -0.833561 0.480095 0.29229 -0.090034 0.160798 0.169308 -0.042078 -0.427278 -0.256496 -0.3844 0.211641 0.294215 0.099673 -0.206417 -0.185044 0.480278 -0.796755 -0.309103 -0.676861 -0.436269 -0.666464 0.092786 -0.384085 0.993247 0.182279 0.068638 -0.470675 0.058713 0.010142 -0.048333 0.388079 0.045631 -0.305804 -0.219902 0.515239 -0.136099 0.168066 0.125692 -0.298058 -0.221547 -0.240015 -0.0665 -0.295385 0.364337 -0.109146 0.394887 -0.371937 -0.142659 0.699012 -0.308213 -0.068285 -0.365726 -0.108371 0.107208 -0.479442 0.478475 0.471376 0.37688 0.179435 -0.433421 0.389454 0.15453 0.566345 -0.146893 -0.30415 0.064267 -0.106624 0.039709 0.127746 -0.134109 0.280318 0.100445 0.229574 0.082783 0.230392 0.393268 -0.35326 -0.109027 0.724235 0.044477 0.352429 -0.130028 0.033036 0.211761 0.083716 0.069397 -0.321665 0.395055 -0.225963 0.199859 0.121403 -0.054152 0.047084 -0.229599 0.674699 -0.425978 0.088099 0.280087 -0.527941 0.289574 -0.082537 -0.241371 0.078326 -0.282669 -0.181726 -0.474521 -0.105947 0.138857 0.198327 0.64196 0.550887 -0.278123 -0.435385 0.048868 -0.156324 0.659478 -0.005732 0.44221 -0.026357 -0.692953 -0.046542 -0.268098 0.340613 0.068296 0.295793 -0.363987 -0.267601 -0.59915 -0.127009 0.2676 -0.073423 -0.260978 0.892264 0.101947 -0.087971 0.298712 0.458996 -0.53248 -0.105471 0.065453
music -0.117215 0.12266 -0.112711 0.009857 -0.123632 0.102687 0.07348 0.095025 0.144886 0.240584 0.094435 0.098842 0.095579 0.178504 0.236293 -0.183398 0.218829 -0.098376 -0.231809 0.035643 0.005892 -0.184938 0.381973 0.013092 -0.052818 0.301536 0.04911 -0.039604 -0.585746 -0.255477 0.107578 0.013119 -0.084202 0.15742 -0.081562 -0.311425 -0.088843 -0.206199 0.205566 0.366473 0.277403 -0.382704 -0.339757 -0.108863 0.020429 0.238793 0.114295 0.123795 -0.191534 0.411739 -0.122783 -0.424931 -0.475229 -0.224483 0.601798 -0.319096 0.036187 0.012651 0.226712 -0.097666 0.217858 -0.053418 -0.077702 -0.244588 0.058849 -0.152373 -0.19621 -0.156728 0.091951 -0.226414 -0.002775 -0.229282 -0.328224 0.259687 -0.034976 -0.026795 0.193657 0.303425 -0.489638 0.001745 -0.113274 0.028238 0.179173 0.259627 0.028337 0.148177 -0.356848 -0.412387 0.046385 -0.031726 -0.23204 0.048966 0.373099 0.123575 0.179334 0.134481 0.090033 -0.037149 0.12153 0.173876 0.157537 -0.093755 -0.119304 -0.163162 0.016252 0.243475 -0.2447 -0.031437 -0.11374 0.398929 0.490811 0.133161 -0.061709 -0.275805 -0.229563 -0.147196 -0.0953 0.317727 -0.131577 0.113544 -0.106871 -0.273868 0.373055 0.04483 -0.147543 -0.139043 -0.25232 -0.106389 0.047259 0.00445 -0.463225 -0.623523 -0.174153 0.106748 0.080764 0.211454 -0.21217 0.057426 -0.204972 0.466852 -0.227793 -0.237725 0.088279 0.052535 -0.056755 0.212822 -0.140145 0.042436 0.405596 -0.021606
record -0.019121 0.253243 0.038682 -0.049848 -0.277049 0.283239 0.155424 0.087892 -0.150271 0.022109 -0.008889 0.065164 0.001263 0.111133 -0.095072 -0.391537 -0.060641 -0.274982 -0.220615 -0.330146 -0.185159 -0.140929 0.214166 0.056187 0.015482 0.187448 -0.176809 -0.219027 -0.04875 -0.118342 0.111502 0.144782 -0.14644 0.182411 -0.090363 0.039446 -0.04801 -0.22365 0.063907 0.242902 0.13167 -0.419975 -0.271595 0.25023 0.052548 0.143358 -0.168693 -0.082641 -0.078221 0.026439 -0.008502 0.224725 0.008357 -0.056034 0.138692 -0.536763 0.011443 0.322782 -0.084507 -0.131026 -0.085615 -0.119227 -0.154316 -0.321862 0.260609 -0.063901 -0.066249 0.193515 -0.044411 0.110955 -0.150138 0.241752 0.165246 -0.101774 0.209016 -0.086907 -0.165809 0.125351 0.010155 0.236516 -0.171177 -0.049905 0.08968 -0.078527 0.210393 -0.081779 -0.0994 -0.398973 -0.064324 -0.019219 -0.247649 0.066479 -0.172751 0.166835 -0.236303 -0.021701 -0.161269 -0.178804 0.132754 -0.09715 -0.095469 0.284042 -0.308382 -0.245654 0.058907 0.049271 -0.17777 0.20211 -0.072205 0.041996 -0.080478 -0.126147 -0.213397 -0.36929 -0.338378 -0.129754 -0.001009 0.325096 -0.036931 0.002899 0.131134 -0.222311 0.063992 0.152678 -0.269783 0.079759 -0.244542 -0.181822 0.444519 0.017738 0.033626 -0.080791 0.012566 -0.149173 -0.084557 -0.068392 -0.022883 -0.175379 -0.039158 0.13933 -0.256826 0.024604 0.197728 0.149075 -0.317105 -0.018882 -0.209373 -0.205871 0.64495 0.122527
energy -0.046579 0.411087 -0.424342 0.217237 -0.293598 0.210669 0.445825 0.203731 0.031705 -0.082968 0.40984 -0.23334 -0.221376 0.092304 0.070403 -0.247893 -0.153761 -0.195268 -0.321008 0.166516 -0.195897 0.001456 0.382865 -0.125101 0.017148 -0.027136 0.164844 -0.411386 0.139881 -0.247343 -0.362295 -0.014442 -0.054459 0.17343 0.349046 -0.283533 -0.066824 0.334443 0.013744 -0.157678 0.294951 -0.453668 -0.281709 0.072004 0.128685 0.040543 -0.087845 -0.003703 0.36875 -0.398658 -0.18115 0.247219 -0.160817 -0.224956 -0.009037 -0.19548 -0.191626 0.007261 0.167514 -0.291627 0.326535 -0.091431 -0.386263 -0.286661 -0.037084 -0.126101 -0.215673 0.198321 0.143981 0.130649 -0.07631 0.018334 0.222904 -0.020189 0.315605 0.327904 0.162405 0.32858 0.070142 -0.103861 -0.067219 0.001427 0.087396 0.228626 -0.099177 0.062735 -0.301219 0.002633 0.324757 0.267936 -0.18588 0.024056 -0.144331 -0.387105 0.080622 -0.307851 0.192173 -0.067543 0.055118 0.106905 -0.495136 -0.020329 -0.090499 -0.054873 0.234089 -0.04492 0.234549 0.21794 0.131999 -0.316789 0.373655 -0.002769 0.043141 -0.318857 0.126868 -0.083353 -0.446759 0.297733 0.026602 0.218791 -0.123182 -0.40302 0.058021 0.00898 0.27665 -0.462414 0.098082 -0.341875 0.104584 0.119561 0.005769 0.296069 -0.411523 0.008731 0.223874 -0.015468 -0.125981 -0.25641 -0.076657 0.229435 -0.068179 0.019032 -0.078574 0.018379 -0.437732 -0.243301 0.005018 -0.03553 0.311001 0.185049
announcement 0.056989 0.102703 0.069391 0.069714 -0.198809 0.108981 0.266759 0.455249 -0.120248 0.258912 0.101555 0.042353 0.080339 0.2952 -0.195459 -0.093693 -0.10478 -0.111293 -0.113205 -0.133214 -0.506235 -0.152917 0.46035 0.19395 -0.217359 0.180783 -0.118534 -0.104871 -0.213875 -0.317817 -0.307732 0.049351 -0.229601 0.302689 0.478633 0.11031 0.038577 -0.145666 0.252741 0.026028 -0.139779 -0.134362 0.137813 -0.125799 -0.107526 0.030445 -0.182331 -0.085849 -0.073397 -0.0588 -0.206892 0.156151 -0.179824 0.055604 -0.10644 -0.010625 -0.0256 -0.064438 -0.058719 0.262271 0.027172 -0.120541 -0.058066 -0.327087 0.156191 -0.053126 -0.419392 -0.215435 -0.10079 0.20008 -0.187117 -0.095827 0.098425 0.077033 -0.006875 0.24989 -0.334988 0.525855 -0.134605 -0.020253 0.178475 -0.060099 -0.206681 -0.161758 -0.053396 -0.116266 -0.006778 -0.199587 -0.061505 0.181474 0.020372 -0.138442 -0.023046 -7.9E-4 -0.209668 -0.203984 0.204627 -0.066324 -0.369075 -0.056144 -0.157185 -0.003607 0.108493 0.042376 0.1221 0.089782 -0.253225 -0.073136 -0.26051 -0.131641 0.054847 -0.205199 0.092309 -0.225245 -0.280032 -0.286421 0.098091 0.156674 -0.051547 -0.164102 -0.012748 -0.116673 0.035051 -0.064358 0.009548 -0.238938 0.152381 0.130057 0.313735 -0.063831 -0.066607 -0.117288 0.098353 0.00406 0.186823 -0.025775 0.174844 -0.090695 0.048698 0.169891 -0.28817 -0.206569 0.478397 -0.078947 -0.025092 -0.08453 0.234879 -0.110812 0.14738 0.123848
mile -0.39208 -0.058029 0.12713 -0.031015 -0.287497 0.199695 0.024597 0.153016 -0.318052 0.06938 0.137715 -0.091812 -0.272307 0.391394 -0.467322 -0.363513 -0.173264 -0.06453 -0.220937 -0.156228 -0.040249 -0.126774 0.655009 -0.058233 -0.138493 -0.187606 -0.085385 -0.137604 -0.292381 -0.224617 0.02112 0.20145 -0.161109 -0.346149 -0.039337 -0.161074 -0.026311 -0.02925 0.252278 -0.195852 0.044101 0.17925 0.133448 0.174938 -0.249573 -0.382353 -0.158719 0.281518 0.015871 0.014352 -0.251499 -0.134128 -0.106299 0.052731 -0.096158 -0.133043 0.148058 -0.338229 -0.02238 -0.345704 0.286655 -0.467278 -0.194386 0.192559 0.236894 -0.215846 -0.09719 0.225575 -0.404055 0.058853 -0.226805 0.200795 0.001922 -0.197727 0.058628 -0.20752 -0.057994 -0.28062 0.183777 0.001139 0.088754 -0.155686 0.121797 -0.228232 -0.266108 0.154494 -0.1621 -0.497722 0.298917 -0.018397 0.020746 0.507755 -0.250154 0.261726 0.121606 0.119931 -0.102543 -0.075348 0.289529 0.01597 -0.078813 0.25335 0.062924 -0.352121 0.506099 -0.274705 0.047837 0.276062 -0.088097 8.56E-4 0.017197 -0.231181 0.242929 -0.00536 0.166219 -0.342965 -0.256971 0.248947 0.151623 0.10179 -0.079774 0.277228 -0.204099 0.12363 -0.330191 -0.168584 0.276919 -0.057451 0.185775 -0.447561 0.260769 -0.267745 -0.199264 0.038701 0.001864 -0.06443 -0.177648 -0.068102 -0.231624 -0.009313 -0.089073 -0.24849 0.219101 0.283632 -0.022487 -0.129559 -0.094894 -0.351141 0.197643 0.458351
airport -0.163844 0.305151 -0.206506 0.05218 -0.226458 0.058901 0.170313 -0.213591 -0.234547 0.170645 0.119512 0.006579 -0.393226 0.059645 -0.54428 -0.254169 0.064832 -0.102975 -0.583399 -0.139107 -0.275389 -0.083689 0.146244 -0.211449 -0.076239 -0.440892 -0.086511 0.322314 -0.512737 -0.315662 -0.211566 0.192201 -0.146825 0.278128 0.525263 -0.050951 -0.045636 0.122218 0.181681 0.283198 -0.146666 0.135726 -0.169805 -0.072514 -0.085601 -0.44588 -0.170179 -0.428385 0.158073 0.654542 -0.362412 -0.063538 -0.106083 0.303807 -0.370404 0.203991 -0.473095 -0.142585 0.271732 -0.258711 0.314806 -0.589223 0.003513 -0.078911 -0.146622 -0.327888 -0.197201 0.146161 0.203229 -0.028692 0.033077 0.121783 -0.158335 0.155246 0.112614 0.147909 -0.360277 0.051413 -0.177092 -0.247876 -0.116425 -0.016123 0.335214 -0.588446 0.085357 -0.029102 -0.132118 -0.045898 -0.095429 0.013264 -0.114611 -0.239705 -0.031896 0.134848 -0.228307 -0.063268 0.016772 -0.104884 0.155869 -0.06216 -0.268134 -0.005365 -0.116965 -0.00874 0.157233 -0.203815 0.094421 0.407284 -0.303284 0.266621 0.186297 -0.09128 -0.01436 0.031005 -0.133738 -0.386279 -0.122871 0.135029 0.280252 -0.108738 0.173725 0.266534 -0.141279 -0.350871 0.269493 -0.157431 0.088731 0.190731 -0.118969 -0.280041 -0.015519 -0.070259 0.017538 0.238175 0.077583 -0.250932 -0.041574 -0.171876 0.115411 -0.075409 -0.517368 -0.238689 0.311321 -0.018945 0.162503 0.110555 -0.299181 -0.034346 0.282135 0.333584
population -0.076589 0.013822 0.064751 -0.343638 -0.045297 0.360618 0.045368 0.254845 0.284707 -0.349739 0.225316 -0.038158 -0.203409 0.056796 -0.197673 -0.484633 0.108843 -0.111319 -0.112496 0.006338 0.200352 0.006587 0.068889 0.080394 0.03389 -0.282731 -0.196779 -0.185168 -0.180181 -0.188315 -0.378681 0.247272 -0.254758 0.087876 -0.193274 -0.159193 -0.067963 0.014855 -0.095633 -0.152204 0.14377 -0.138554 -0.079999 0.076541 0.044204 -0.174914 -0.22397 -0.001017 -0.140846 0.035448 -0.155859 -0.373288 -0.101555 0.128332 -0.340464 -0.0737 -0.158688 -0.200822 -0.148658 -0.379538 0.182963 -0.413769 -0.02744 0.02571 -0.044874 -0.001136 -0.121264 0.070077 -0.202476 -0.002675 0.079453 0.299285 0.199586 -0.029791 -0.006383 0.343047 0.161087 0.224 0.090048 -0.094647 0.291946 -0.20575 0.361805 0.106011 -0.172648 -0.120879 -0.376352 -0.418973 0.278379 -0.099744 -0.191845 -0.186631 -0.074723 -0.083501 -0.122616 0.03244 0.187304 0.263216 -0.260579 0.175585 -0.456659 0.279927 -0.131178 -0.060736 0.536367 -0.23494 -0.255778 -0.087951 0.069519 0.070142 -0.215048 0.190474 0.314203 -0.396041 -0.440266 -0.124019 -0.083139 -0.192443 -0.523186 -0.003259 0.002147 -0.078937 -0.354358 0.266159 0.066193 -0.349591 -0.112435 -0.316165 0.066046 -0.034226 -0.176549 0.177033 -0.259513 -0.275559 0.252013 0.092826 -0.21872 -0.069746 0.061342 0.274126 -0.180515 -0.181142 0.255438 0.155443 0.099669 0.280531 -0.142983 0.255321 0.231301 0.359737
planning -0.205388 0.26879 -0.268478 0.046167 -0.195318 0.174767 -0.14001 0.214828 0.022054 0.172616 0.125206 -0.115633 -0.149482 0.262153 -0.169345 -0.056131 -0.161465 0.058431 -0.397892 -0.198115 -0.361069 -0.076654 0.318442 -0.048552 -0.014877 -0.002527 -0.314284 -0.101041 -0.258816 -0.419266 -0.278913 0.137872 -0.048967 0.171067 0.340187 -0.068119 -0.0607 0.309193 0.060714 0.093079 -0.008284 -0.02755 -0.164217 -0.03947 -0.247832 -0.065108 0.033853 0.20146 -0.12905 0.093237 -0.3671 0.057193 0.044869 0.044847 0.124484 -0.252469 -0.251352 0.013188 0.091181 0.049546 0.060684 -0.151207 -0.023263 -0.370593 -0.00788 -0.048519 -0.220159 0.172903 0.236876 -0.044269 -0.123399 -0.092222 -0.093447 -0.208982 0.033193 0.294048 0.104712 0.289855 0.007516 0.024469 -0.091022 -0.002176 0.028039 -0.035042 -0.179425 -0.044054 0.091721 -0.138418 0.114557 0.129342 -0.017476 -0.059683 -0.17997 0.09102 -0.044565 -0.150187 -0.068641 0.079713 -0.119187 -0.055519 0.078636 0.03536 0.114978 -0.151422 0.200491 -0.269781 0.125439 0.294782 -0.098618 0.100628 -0.058401 0.161655 -0.182078 0.022082 -0.338064 -0.191289 0.040703 0.095098 0.151533 0.023083 -0.182961 -0.008308 0.099988 -0.033859 0.003073 -0.27476 0.02828 -0.010842 0.15465 -5.6E-5 0.100509 0.159358 -0.017871 -0.227855 0.150976 -0.051781 0.058182 0.002296 -0.070924 0.310388 -0.327788 -0.018878 0.386047 -0.129104 -0.069992 0.030425 0.208257 0.030189 -0.053986 0.004437
canyon -0.335692 -0.147474 -0.005694 -0.144017 -0.178252 0.15981 0.070587 0.393907 -0.196566 0.409189 0.143651 0.345554 -0.200221 0.100437 0.033317 -0.260943 -0.293835 0.010459 -0.280436 -0.174867 0.115424 0.116504 0.992529 -0.262372 -0.508005 -0.042248 0.116233 0.038659 -0.224536 -0.287121 -0.016494 0.313232 -0.119699 -0.305815 0.446567 -0.113205 -0.062372 -0.379818 -0.041046 0.060865 0.28312 0.125961 -0.240677 0.261521 0.010117 0.158522 0.01315 0.137134 -0.149633 -0.275519 -0.02184 0.013644 -0.235504 0.338623 0.121548 0.298784 0.126755 -0.330588 -0.584334 -0.157104 0.22237 -0.34143 -0.124069 0.249319 0.295688 -0.431316 -0.145857 0.335511 -0.144985 -0.182004 -0.229599 -0.053024 0.047551 -0.325082 0.200327 -0.388435 -0.279723 -0.133127 0.07815 -0.053733 0.198789 0.476461 0.255627 -0.265534 0.068122 0.413033 0.050959 -0.338514 0.35967 -0.221574 -0.324945 0.571945 0.367032 0.492125 0.263043 0.191658 -0.26182 0.083521 0.190323 -0.089529 -0.04935 0.117444 -0.097733 -0.333685 0.686165 -0.151575 -0.004139 0.282249 -0.066173 0.058706 0.202771 -0.166899 0.094377 -0.049829 0.077099 -0.460591 -0.213563 0.017626 -0.352336 0.511713 -0.025396 0.00426 -0.066824 -0.353437 0.006547 -0.292083 0.362742 0.090609 0.062011 -0.201781 0.104613 -0.183497 -0.420729 0.064829 -0.015215 -0.078572 -0.21318 -0.119078 -0.413386 -0.07933 -0.123761 0.060151 -0.101195 0.025975 0.406562 0.249646 -0.388787 -0.129458 0.057272 0.3004
delay 0.063171 0.297588 0.148183 0.00292 0.042955 0.176772 0.130641 0.305657 0.002505 0.161837 0.087527 -0.078324 0.027978 0.101519 -0.051 -0.058405 -0.409761 -0.210976 -0.416353 -0.185506 -0.323117 0.089715 0.28933 -0.121602 -0.091495 0.153636 -0.322339 -0.104073 -0.214342 -0.335514 -0.057756 -0.118921 -0.235948 0.253398 0.375314 -0.027217 -0.112735 0.059211 0.075802 0.024125 0.051376 0.117098 -0.10353 -0.394349 -0.117199 -0.244797 0.037664 -0.048625 0.2662 0.027486 -0.166189 0.362152 -0.076273 0.177654 -0.011135 0.144614 -0.26613 -0.058518 0.121126 0.013448 0.140819 -0.163455 -0.121337 -0.391394 -0.045145 -0.273276 -0.172806 0.243537 0.067425 0.242593 -0.221853 0.097234 0.022791 0.050323 0.24239 0.105453 -0.019606 0.47733 0.077522 0.071166 -0.013294 0.077557 0.168135 -0.169215 0.212207 -0.266279 0.042677 -0.202847 -0.155311 0.047882 9.6E-5 0.048792 -0.016866 0.035395 -0.01806 -0.176122 0.173438 0.040348 -0.156498 0.219308 -0.170589 0.28565 0.264968 -0.140859 -0.16213 -0.19249 -0.034691 0.328144 -0.112248 -0.329962 -0.325633 -0.054181 0.09722 -0.180146 -0.317733 -0.278708 0.255698 0.102217 0.039524 -0.029222 -0.128698 0.152571 0.258184 -0.126015 0.340565 -0.185386 -0.027 -0.126899 0.201442 -0.040181 -0.221511 -0.00867 -0.203002 0.094526 0.224302 0.129042 0.080393 -0.18665 0.118547 0.095721 -0.083337 -0.207831 0.448457 0.020821 0.039863 -0.187627 0.216023 -0.140457 0.28727 0.113256
size -0.192367 -0.251391 -0.077373 -0.145544 0.137527 0.059565 0.281241 0.342515 0.198375 0.35887 0.079416 0.108474 -0.347387 0.022256 -0.302263 -0.23725 0.071432 -0.143198 -0.05955 -0.033622 0.238367 -0.197421 0.454083 0.114376 -0.087143 -0.005278 -0.152681 -0.082005 -0.165593 0.023094 0.121194 0.053367 -0.184726 0.149016 0.177354 -0.265302 0.204528 0.151062 -0.010215 0.048999 0.029182 -0.198601 -0.240343 0.263839 0.07054 -0.153289 -0.22612 0.172338 0.1239 -0.154201 -0.244218 0.164506 -0.07617 -0.152268 -0.125614 -0.208329 -0.113154 -0.087776 0.145703 -0.151111 0.262143 -0.308413 -0.211166 -0.21949 0.222826 -0.091418 0.058707 0.311936 -0.099221 0.263009 0.077735 0.121298 0.051098 -0.22107 -0.013792 0.124596 -0.014071 -0.038602 0.066989 0.065148 0.133784 -0.150851 0.144837 -0.119054 0.084662 0.087976 -0.152302 0.046628 0.250272 -0.089152 0.104529 0.160819 -0.348198 -0.171424 -0.353113 -0.089748 0.029531 -0.064387 -0.054627 0.27242 -0.152134 0.028243 0.04075 -0.103331 0.144105 -0.110013 -0.096007 -0.125495 0.003583 -0.055521 0.027588 -0.16911 -0.014112 -0.228443 -0.299536 0.008492 -0.089552 -0.022078 -0.243071 0.227379 -0.115313 0.025165 -0.174921 0.030719 -0.040508 -0.189256 0.025996 0.021991 -0.060412 -0.147729 0.020844 -0.260072 -0.044343 -0.164469 0.262611 0.057184 -0.104734 -0.014832 -0.025954 0.080177 -0.302649 -0.263071 0.126532 -0.109314 0.03047 0.044426 0.022496 0.225629 0.093335 0.286214
peace -0.110699 0.617664 0.129136 -0.030778 -0.134779 0.227333 0.459359 0.448624 -0.043397 0.129888 0.053416 0.128814 0.047444 0.174787 0.140433 0.179074 0.113052 0.163015 -0.113605 -0.329747 -0.368119 -0.106831 0.652282 -0.154001 0.310378 0.355247 0.161787 -0.237078 -0.254414 -0.212564 -0.502283 0.364951 -0.729382 0.065439 0.441577 0.072078 -0.553716 0.201859 -0.079792 -0.144477 -0.512619 -0.132765 -0.099471 0.25529 0.244321 0.065424 0.077793 -0.104337 -0.081784 0.233623 0.122271 -0.35292 -0.050751 0.270698 -0.314083 0.041942 0.0727 -0.427143 -0.220493 -0.101447 0.156466 -0.28746 -0.299027 -0.003407 -0.116373 -0.037077 -0.123975 0.012662 0.41526 0.292312 -0.323655 -0.246413 -0.253098 0.393586 -0.144859 0.055473 0.057766 0.204241 -0.327107 -0.262507 0.137299 0.136858 0.541331 -0.049091 -0.064648 -0.571073 0.200303 -0.200267 -0.052529 0.177297 0.045173 -0.064003 0.049744 -0.18358 0.149262 0.031508 0.165605 -0.118552 0.218569 0.063287 -0.230147 0.337577 -0.210192 0.077118 0.436101 -0.001801 -0.343783 0.092704 0.187665 -0.212446 -0.166589 -0.105306 0.315334 -0.654073 -0.096337 -0.354277 -0.334258 -0.300697 0.098677 -0.095222 -0.203818 -0.108469 0.164041 0.043621 0.264815 -0.011882 0.109047 0.36173 0.321017 -0.259684 -0.084173 0.050958 -0.488698 -0.233406 0.004221 0.124157 0.317678 -0.442177 0.007892 0.583645 -0.154822 0.177707 0.505511 0.513326 0.123157 -0.167218 -0.24095 0.196173 0.148999 0.028853
science -0.121708 0.448665 -0.177868 -0.275049 -0.035896 0.285382 0.158535 0.395894 0.296487 -0.028091 0.05155 -0.270305 -0.273881 0.171924 -0.158239 0.026138 0.011876 -0.011267 -0.398061 -0.21491 -0.160044 0.045711 0.358378 0.010269 -0.100654 0.131506 -0.373528 -0.295513 0.061555 -0.140437 -0.047765 0.290782 -0.091028 -0.076487 0.188969 0.147105 -0.006237 -0.032874 0.237509 0.156577 -0.344822 -0.17213 -0.330106 -0.156449 0.225432 -0.196686 0.624553 -0.078577 0.455658 -0.100166 -0.058738 0.276145 -0.002558 -0.074131 0.027808 -0.093827 -0.124616 -0.038457 -0.194833 -0.196552 -0.081837 -0.317629 0.187913 -0.351414 0.120877 0.005726 -0.017874 0.068085 0.39591 -0.10018 -0.147766 -0.257734 0.10631 0.11474 0.018779 0.18554 0.148161 0.074718 0.400983 -0.335426 0.095138 0.126672 0.442513 0.196392 0.053565 -0.025982 -0.573161 -0.081041 0.231542 -0.522774 0.150509 0.204782 -0.074571 -0.235093 0.0416 2.14E-4 0.154695 0.202741 0.039861 0.080696 0.109087 0.247969 0.092535 -0.152826 0.47953 0.135578 0.024728 -0.111918 0.085354 0.08581 0.65615 -0.174521 -0.155611 -0.300115 -0.273707 -0.121584 0.132396 0.178694 0.138469 0.07285 0.105979 0.074687 -0.15278 0.041009 0.201589 -0.36755 -0.02926 -0.233284 0.002697 0.156683 -0.361825 -0.211345 -0.132882 0.100409 -0.105946 0.025009 -0.130958 0.318866 -0.095576 0.422732 0.008111 0.080943 -0.051172 0.194201 -0.026312 0.083673 0.052988 0.193121 -0.008585 -0.094809
dawn -0.370752 0.094365 0.012647 -0.278367 -0.252856 -0.278962 0.056522 -0.023707 0.089915 0.35261 0.185238 0.198086 -0.434704 0.297197 0.005854 -0.072172 0.257483 -0.374205 -0.381785 -0.310747 -0.339934 0.051114 0.340402 -0.071329 -0.387443 0.036924 0.020648 0.073156 -0.502528 -0.373161 -0.611364 0.263567 -0.011322 0.382402 0.308078 0.063003 -0.178931 -0.024067 0.358151 0.102793 0.044667 -0.06388 0.068623 0.058032 -0.111249 0.041356 -0.034079 0.018181 0.178955 0.191034 0.113931 -0.249463 -0.171397 -0.228411 -0.389394 -0.05987 0.28767 -0.372888 -0.295047 -0.282489 -0.153457 -0.486674 -0.088779 0.22715 0.083791 -0.235443 -0.368304 0.083005 0.047851 0.010807 -0.161711 -0.045265 0.182756 0.056302 0.066041 -0.026397 -0.069314 0.327808 0.120805 0.182701 0.088279 0.218654 0.399886 -0.480162 -0.182949 0.060909 0.046856 -0.254131 0.023307 0.076099 -0.164157 0.124575 -0.023272 -0.19877 0.237529 0.116793 -0.179057 0.141331 -0.106631 -0.133583 -0.356451 -0.101083 0.1949 -0.278593 0.054481 -0.339768 -0.116607 0.061925 -0.075422 -0.081064 0.047996 -0.2004 0.012289 0.003472 0.007679 -0.270591 0.137087 0.066175 -0.036821 -0.01477 -0.014273 0.064742 -0.127564 0.07829 0.059245 -0.180211 0.09607 -0.09242 -0.005287 -0.213354 -0.166833 -0.157257 -0.198416 0.157431 -0.208243 -0.063793 -0.276936 -0.071303 -0.157857 0.187802 -0.323083 -0.224146 0.16527 -0.083829 -0.218036 0.245562 -0.455803 -0.139718 -0.211573 -0.096972
brother -0.048553 0.242539 -0.165568 -0.006529 -0.125719 -0.099187 0.085036 0.186666 0.434759 0.357074 0.116178 0.224274 -0.080081 0.027443 0.011654 -0.259573 -0.069941 -0.065346 -0.176728 -0.152916 -0.182867 0.086224 0.100295 -0.013996 0.409258 0.23178 -0.473814 -0.045103 -0.286834 -0.204406 -0.61419 -0.013467 -0.122799 0.047612 0.115908 -0.141532 0.084404 -0.107197 0.394513 -0.064886 0.273964 -0.122422 -0.414645 0.026937 -0.212306 -0.295472 -0.198832 0.032545 -0.291967 0.153218 -0.046848 -0.309411 0.129394 0.184455 0.096432 0.123299 -0.105827 -0.172787 0.051104 0.034914 0.205485 -0.010695 -0.109748 -0.171648 0.073649 -0.222474 0.12089 -0.06102 0.18114 -0.078765 0.083495 -0.025711 0.569824 0.042796 -0.211906 -0.311973 -0.220932 -0.164312 0.216627 0.025679 0.113849 0.13794 -0.211649 -0.249156 -0.155802 -0.059633 -0.169052 0.151448 -0.207313 0.32487 0.048025 0.058094 -0.05568 0.109115 0.294696 -0.035944 -0.067416 0.073096 -0.115398 -0.182141 0.103566 0.120752 -0.037751 0.131657 0.278739 -0.432514 -0.131576 0.088706 -0.26351 0.037265 -0.148767 -0.139975 -0.087959 -0.468588 0.03944 0.145815 -0.180472 0.140204 0.235117 -0.085807 0.231358 0.009905 -0.06421 0.020053 0.07003 -0.321665 -0.04778 0.2103 -0.087506 -0.297252 -0.073014 -0.364349 0.294446 0.112532 0.136462 0.150351 -0.271272 -0.177405 -0.242583 0.188189 -0.214144 0.143902 0.300067 0.270076 -0.090627 0.230383 -0.022983 0.280089 0.25203 -0.306692
wine 0.03883 0.298513 -0.085162 0.06612 0.462548 -0.044278 0.331211 0.237845 0.207962 0.288614 0.27716 -0.057166 -0.313029 -0.379507 0.06941 -0.221453 0.619734 0.119423 -0.259973 0.248571 0.058597 0.152645 0.26853 0.495315 -0.47655 0.173734 -0.184016 -0.136796 -0.091061 0.040247 0.011526 0.00223 0.105314 0.482662 0.203856 0.149199 -0.217165 -0.138834 0.042898 0.30357 0.178668 -0.170572 -0.544492 0.271463 0.008329 0.090761 0.144975 0.045291 -0.117795 0.030323 -0.265765 -0.119083 -0.19796 -0.273981 0.09164 -0.321019 -0.1453 0.01297 0.173909 -0.381042 0.232267 -0.207149 -0.160665 -0.065866 0.096635 -0.136476 -0.403264 -0.163477 -0.118692 0.410805 0.28401 0.066552 0.061617 0.052705 0.054871 -0.115765 -0.514637 0.067674 -0.141916 -0.18658 0.198084 -0.157712 0.027491 0.253317 -0.140091 0.112251 -0.243163 0.208856 -0.244588 -0.259637 -0.166148 0.323249 0.124005 0.037179 0.010278 -0.072692 0.199195 0.268546 0.497813 0.324847 -0.171085 -0.051176 0.20659 -0.281127 0.344896 -0.156262 -0.359108 0.174 -0.087317 0.35629 0.198143 -8.07E-4 -0.059351 0.23188 0.023203 -0.024963 -0.616695 0.35021 0.002086 0.268656 -0.332185 0.191538 0.266709 0.106283 0.09528 -0.040166 0.181097 0.06733 -0.296454 0.035189 0.255244 -0.116325 -0.368647 -0.200909 0.435137 0.00169 -0.168063 -0.247764 -0.04748 0.421633 0.278173 0.19527 0.243312 0.323544 -0.360223 -0.05917 -0.452905 0.128636 0.003685 0.360737
object -0.230112 -0.054651 -0.197128 -0.060316 0.200015 0.344563 0.189695 0.270058 0.17572 0.279293 0.127214 -0.089639 -0.243593 0.125923 -0.227459 0.147549 0.13716 -0.301333 -0.174693 -0.323009 -0.038507 -0.111279 0.490821 0.068147 -0.234321 -0.123285 -0.263138 -0.108797 -0.170813 0.089338 -0.023961 0.060642 -0.159951 0.406775 0.337926 -0.234005 0.025638 -0.107525 0.004285 0.037066 0.056374 -0.043749 -0.227796 0.070569 0.162863 -0.211229 0.004005 -0.174863 0.098986 -0.327229 -0.127892 -0.046847 -0.122893 0.013731 0.015286 -0.118873 -0.042258 -0.016255 0.178409 0.014622 0.323646 0.142647 0.213443 -0.154375 0.16432 -0.092471 0.068669 0.34083 0.124933 0.322895 -0.126787 0.013579 0.102917 -0.086713 -0.041449 0.043635 -0.155394 -0.269185 0.071922 -0.264513 -0.086012 0.039612 0.347252 -0.180839 0.087709 0.077967 -0.047487 -0.056223 0.154823 -0.258914 0.097665 0.264982 -0.078096 0.11355 0.108463 0.01514 -0.052629 0.090499 -0.277214 -0.056361 -0.264043 0.08965 0.106154 -0.071114 0.327809 -0.200154 -0.035662 0.11626 0.159224 -0.233316 0.089194 0.182624 -0.068261 -0.341128 -0.210325 0.135148 -0.004088 0.025465 -0.213512 0.15119 -0.014714 0.141376 0.240492 0.042813 0.192239 -0.032541 0.018375 0.068903 -4.93E-4 -0.262963 -0.235184 -0.28286 0.013038 0.159463 -0.008625 0.026781 0.086759 -0.023766 -0.123278 0.324374 -0.07382 -0.099261 0.055862 -0.051231 0.249001 0.102499 -0.04694 0.119117 0.18709 -0.162522
attitude -0.148651 0.166593 -0.249001 -0.235976 -0.063036 0.218836 0.550527 0.057073 0.267633 0.057167 0.369032 0.117658 -0.115828 -0.025717 -0.088945 0.10723 0.0239 -0.157128 -0.16926 -0.265766 0.004345 -0.099579 0.287502 -0.225187 0.002286 -0.198711 -0.157471 -0.214601 -0.251769 -0.249763 -0.063726 0.045882 -0.148683 0.347177 0.188557 0.146565 -0.028214 -0.122627 -0.021296 -0.038074 -0.059842 -0.077936 -0.17735 0.058755 -0.003515 -0.114546 0.146309 -0.038129 -0.201543 -0.090811 -0.088384 -0.157399 -0.249703 -0.032599 -0.042975 -0.407619 -0.072221 0.23439 0.107926 -0.054792 0.088302 0.097006 0.153073 -0.389685 0.235464 0.045662 -0.210787 5.72E-4 0.254887 0.176147 -0.212287 -0.388068 0.11928 0.367495 -0.160284 -0.131237 -0.008514 0.301203 0.319919 -0.034335 0.158177 0.060562 0.066059 -0.198308 0.132033 -0.175044 -0.135303 0.107687 0.19341 -0.073277 -0.010157 -0.056715 -0.210986 0.205671 0.030571 -0.092458 -0.091477 0.087067 0.010307 0.067417 -0.242556 0.279303 0.099924 0.08084 0.259608 0.025366 -0.197009 -0.137573 0.018612 0.012273 -0.052299 0.017649 -0.127331 -0.315228 0.062874 -0.187002 -0.168487 -0.200459 -0.12475 0.246288 -0.042385 -0.16424 -0.11673 0.114949 0.165814 -0.015088 -0.218451 0.024843 0.157505 0.154099 -0.149326 -0.212467 -0.137768 0.297299 0.061235 0.305212 -0.13501 -0.020589 0.103336 0.155605 -0.067722 0.166145 0.278031 0.092127 0.20029 0.036313 -0.259507 0.103508 0.094425 0.310388
treatment 0.003371 -4.49E-4 -0.248522 -0.183071 -0.09395 0.099484 0.077356 -0.072902 -0.063538 0.167858 0.14639 0.021211 0.216109 -0.117125 -0.194879 -0.036762 -0.151499 0.001031 -0.59942 0.014263 -0.249775 0.086557 0.401013 0.160858 -0.176497 -0.04265 -0.442817 -0.154851 0.041097 -0.328472 -0.217873 0.501005 -0.159042 0.260683 0.127695 0.627392 -0.063364 0.150859 0.019036 -0.432311 0.179785 0.267757 -0.214028 0.052829 -0.134031 -0.124012 0.073189 -0.025057 -0.035527 0.041223 -0.379925 -0.141728 -0.101174 0.23454 0.179244 -0.24807 -0.194241 -0.074348 0.26367 -0.288658 0.334847 -0.227879 0.130696 0.070656 -0.049613 0.24599 -0.034914 -0.009207 -0.030209 -0.040251 0.293947 -0.140502 0.378913 0.084747 0.010443 -0.065196 0.135327 0.239085 0.119476 0.056014 0.028458 -0.336884 0.208078 -0.110603 0.137753 -0.138819 -0.023183 -0.101711 -0.155776 -0.134635 0.272618 0.103083 0.044794 -0.259358 -0.071666 -0.108847 0.265569 -0.08059 -0.006444 0.170493 -0.149709 0.353156 0.156356 -0.084839 0.224463 0.108805 -0.079807 -0.114674 0.151136 -0.068499 -0.46136 0.334931 -0.05891 -0.358759 -0.089865 -0.239108 -0.045433 -0.172974 0.0385 0.160445 0.039706 0.131337 0.020177 -0.032577 -0.12378 -0.510164 -0.201639 -0.315781 -0.078786 -0.069095 -0.13968 0.338597 -0.050967 0.273969 0.132715 -0.024731 -0.111532 -0.282172 -0.204458 0.175804 -0.15371 0.039831 0.156486 -0.278595 -0.24816 0.309027 0.199732 0.148739 0.493606 0.26789
flight -0.220939 0.31745 0.304235 -0.031189 -0.100151 -0.260231 0.094147 -0.109323 -0.149401 0.084509 -0.050844 -0.185462 -0.325077 0.220082 -0.588839 -0.298476 0.175614 -0.119422 -0.504689 -0.357504 -0.371691 0.148247 0.353651 -0.113785 0.062939 -0.43877 -0.013921 -8.23E-4 -0.270893 -0.139022 0.035724 0.124052 -0.097875 0.379919 0.502199 -0.105322 0.110194 -0.051005 0.163926 0.173664 0.105965 0.229692 -0.323104 0.037732 0.209969 -0.424418 -0.088467 -0.26933 0.225898 0.364099 -0.390641 0.118905 -0.418482 0.048579 -0.060305 -0.029934 -0.593711 -0.149426 0.153766 -0.165692 0.035277 -0.208406 0.150535 -0.177384 -0.274146 -0.2916 -0.124434 0.053895 0.228219 0.226432 -0.209265 0.028262 -0.03451 -0.074722 0.168122 0.074018 -0.187064 -0.096691 -0.227119 -0.329307 -0.105982 0.252027 0.06868 -0.325497 0.264341 0.094342 -0.122874 -0.124311 -0.38077 -0.220081 -0.024994 -0.007896 -0.177147 0.06337 0.092281 -0.029871 -0.105456 -0.244001 0.043355 0.234104 -0.379735 0.267791 -0.015416 -0.112935 0.045362 0.028227 -0.18492 0.258323 -0.505018 0.066895 0.219432 -0.243319 -0.05847 -0.054781 -0.429813 -0.434339 -0.18278 0.138237 0.059656 -0.335424 0.087974 0.246437 -0.383308 -0.361958 0.395439 -0.133114 -0.066965 0.071624 -0.084503 -0.457752 -0.250832 -0.041241 0.116269 0.281082 0.018785 -0.12987 -0.175084 0.091775 -0.091389 0.094341 -0.271549 -0.0935 0.407937 0.22592 0.086803 -0.066508 -0.275772 -0.021726 0.37075 -0.047733
forest -0.439103 0.208255 -0.056457 3.44E-4 -0.116383 -0.048202 0.157681 0.391671 -0.136969 0.076271 0.410137 0.214966 -0.251967 0.058918 -0.135939 -0.603909 -0.245646 -0.072821 -0.621051 -0.207403 0.332534 -0.020066 0.380411 -0.14211 -0.338542 0.053806 -0.140776 0.193674 -0.174535 -0.232117 -0.254526 0.400122 0.109078 -0.062106 0.14686 -0.132098 -0.025554 -0.312628 0.010589 -0.204243 0.24628 0.16059 0.113154 0.255416 0.241646 0.219677 0.024167 0.244004 0.387601 -0.110254 -0.24024 -0.181726 -0.40842 -0.110372 -0.409531 0.204781 0.132426 -0.140891 -0.198299 0.043515 0.124032 -0.313719 -0.125827 0.043733 -0.076072 -0.35459 0.092581 0.394081 0.197083 -0.233385 -0.332894 0.056397 -0.251373 -0.356608 0.097808 0.002957 -0.072027 0.247229 0.184898 -0.193962 0.350001 0.12935 -0.031182 0.441429 -0.28094 0.317118 -0.129438 -0.279465 0.104927 -0.153576 -0.077279 0.171155 -0.127922 0.012003 0.01612 0.197137 0.234252 0.033574 -0.069512 -0.108753 -0.370387 0.228131 -0.394889 -0.220362 0.354726 -0.346666 -0.188303 0.230058 0.091561 0.144308 0.272808 0.191635 0.29708 -0.27932 -0.040645 -0.073931 0.194479 -0.082205 -0.370658 0.632351 -0.273159 0.082714 0.054893 -0.067078 0.207602 -0.296053 0.074228 -0.016937 0.054882 -0.153178 0.074569 -0.143067 -0.399837 0.137034 0.347992 -0.246919 -0.369461 -0.42447 -0.605101 0.129118 -0.065731 0.187043 -0.025007 0.164274 0.057632 0.470553 -0.36842 0.200372 -0.022913 0.238872
abuse -0.027379 0.161912 -0.24244 0.054188 0.190264 0.153398 0.440533 0.070103 0.170216 -0.105424 -0.125704 -0.08416 0.063337 0.076785 -0.29298 -0.250247 0.15332 -0.412372 -0.299006 -0.126702 0.171255 0.220481 0.557658 0.046268 -0.128205 0.268116 -0.038523 -0.152436 -0.07497 -0.378394 -0.519526 0.025009 -0.277197 0.361894 -0.346475 0.153518 -0.185575 0.167442 -0.048779 -0.216061 0.105275 -0.37758 -0.192973 -0.193927 0.162447 -0.171777 0.138968 -0.155317 -0.277393 -0.006105 -0.253852 -0.339025 0.238713 0.384043 0.083983 -0.103351 -0.312652 0.088302 0.30129 -0.04222 0.144692 -0.1734 0.176205 0.027775 0.065582 0.299228 -0.021466 -0.147019 0.103707 -0.158077 -0.189489 -0.370685 0.31871 0.232823 -0.379121 -0.316508 -0.363528 0.216077 0.258198 0.140987 0.149542 -0.202755 0.387161 -0.160247 0.077248 -0.222598 -0.179574 -0.114209 -0.120863 -0.582089 0.065215 -0.135057 0.129812 -0.07647 0.203867 -0.241283 0.217746 0.461835 -0.237685 0.077195 -0.454341 -0.063021 -0.274721 -0.212158 0.242195 -0.069596 0.187206 0.30608 -0.337697 -0.282656 -0.36038 0.129077 -0.014841 -0.370324 -0.357577 -0.191992 0.35592 0.06918 0.127205 0.080014 -0.342657 0.056789 0.025188 0.247137 0.263967 -0.195056 -0.219625 -0.055694 0.178144 0.130896 -0.185414 0.063911 -0.028424 0.079242 0.345001 0.246127 0.077465 -0.257427 -0.356633 0.358347 -0.436804 0.318647 0.351905 -0.11234 0.066589 0.558725 0.065157 -0.184383 0.514712 0.103987
criterion -0.245828 0.051313 -0.369221 -0.420156 -0.121132 0.264478 0.340981 0.16498 0.104059 -0.04547 0.031847 0.005006 -0.070042 -0.220066 0.107734 -0.077581 -0.068328 -0.015835 -0.061253 -0.361049 -0.031874 -0.007565 0.535951 0.212943 0.074847 -0.017516 -0.488125 -0.289156 -0.091128 -0.067594 -0.217117 0.159706 0.120648 0.232559 0.477005 0.145154 -0.001143 -0.066749 -0.279466 0.017641 -0.243761 -0.009345 -0.567272 -0.166628 0.236341 -0.09698 -0.031485 -0.196497 -0.009247 0.040905 -0.234902 0.086336 -0.155915 -0.258621 0.029906 -0.103827 -0.10786 0.253791 -0.021151 -0.228658 0.124848 -0.009519 -0.023755 -0.515022 -0.004841 0.402677 0.052311 0.104607 -0.10622 0.253438 0.104179 0.003198 -0.076422 -0.029335 -0.11848 0.009773 0.248814 0.060326 0.08056 0.008994 0.13831 -0.229718 0.236064 0.116979 0.256894 -0.445165 -0.166314 -0.204567 0.195341 -0.589808 0.25597 -0.094555 -0.468414 0.271705 0.083755 0.088776 -0.191289 -0.091487 0.091355 0.216772 -0.060431 0.278646 0.234819 -0.170382 0.118545 0.14328 -0.050441 -0.095832 0.386652 -0.215801 -0.071279 -0.105488 -0.033184 -0.215252 -0.433975 -0.244134 -0.126137 -0.196073 -0.020427 -0.013833 0.109876 0.068475 0.162082 -0.223519 -0.154929 -0.120645 -0.355959 -0.018085 0.06862 -0.063576 -0.054329 -0.078794 -0.142531 -0.193291 -0.060108 -0.081535 -0.19195 0.171148 -0.019067 0.086527 -0.04552 -0.025986 0.200839 0.02362 -0.031734 -0.084334 0.053712 0.105455 0.092847 0.20743
sea -0.384492 0.154947 0.13478 -0.391623 0.172715 -0.090914 -0.091278 0.10598 0.072282 0.205092 0.213775 0.317661 -0.217719 -0.018498 -0.031753 -0.038215 0.362779 -0.021926 -0.326267 0.082556 0.290235 0.01769 0.591938 -0.088177 -0.308 -0.27696 -0.064413 -0.081641 -0.244648 0.063067 -0.081911 -0.008781 -0.289432 0.040816 0.460186 0.019937 -0.150022 0.206267 0.00913 0.015117 0.088422 -0.070433 8.6E-4 0.051992 0.117069 0.127368 -0.1012 0.255778 -0.052108 -0.240246 -0.159179 -0.09878 -0.329076 0.047002 -0.094613 -0.3297 -0.231791 -0.420528 -0.411302 -0.306909 -0.022115 -0.212448 -0.334575 -0.070383 0.28582 -0.496169 0.08946 0.307 0.10834 -0.125109 -0.201785 0.17054 0.24033 0.026666 0.25613 0.14183 -0.077533 0.128506 0.399 -0.074886 0.191231 0.00201 0.159312 -0.018657 -0.141314 0.204821 -0.131458 -0.380001 0.086587 -0.011574 -0.011023 0.331336 -0.227608 0.058025 -0.14749 0.081419 -0.262805 -0.020736 0.323976 -0.405257 -0.204769 0.273319 -0.289876 -0.111749 0.345311 -0.398631 -0.18918 0.227457 -0.140205 -0.151514 0.143558 -0.065759 -0.030277 -0.296016 -0.427392 -0.102842 0.021599 -0.023181 -0.359182 0.242493 0.086879 0.236741 -0.09484 -0.027476 0.003938 -0.172793 0.235171 -0.119513 -0.193383 -0.208756 -0.106284 -0.10237 -0.450861 -0.001391 0.164876 -0.220245 0.245912 0.088087 -0.299656 0.221203 -0.00778 0.04016 0.054834 0.343524 -0.031358 0.202778 -0.092236 -0.197788 0.223452 0.627188
dollar 0.347443 0.176753 -0.153464 0.136793 -0.347551 0.326965 0.301069 0.32119 -0.004511 0.001031 0.326675 0.245037 -0.308964 0.53538 -0.097581 -0.609701 -0.267326 -0.025 0.04161 -0.05536 -0.161329 -0.117301 0.482366 -0.071141 -0.244157 0.003725 2.28E-4 0.124807 -0.146396 0.009159 -0.147668 0.314058 -0.153063 0.408974 0.333593 0.207977 -0.256151 -0.299443 0.168934 0.015768 0.34184 -0.445918 -0.244731 0.296792 0.08208 0.374978 -0.099475 -0.481507 0.46061 -0.237142 0.186902 0.1934 0.112077 0.03422 -0.046224 -0.194563 -0.07813 -0.203908 -0.103179 -0.377477 0.094666 0.082702 -0.545075 -0.855961 0.155852 0.032179 -0.004845 -0.172038 0.019282 0.11055 0.394199 0.253931 0.312087 -0.36315 0.018266 -0.274548 -0.059873 0.03134 -0.222229 -0.110411 -0.105741 -0.056439 -0.25769 -0.167287 0.338602 -0.35316 -0.091428 -0.071971 -0.233026 0.037616 -0.466536 0.319545 -0.296822 0.106914 -0.549343 0.221888 -0.223189 -0.24607 -0.138165 0.026803 -0.175843 0.330952 -0.196648 -0.181052 0.095391 0.425261 -0.315011 0.174179 -0.475236 -0.200966 0.152334 0.037082 -0.281962 -0.25355 -0.006949 -0.082306 -0.143411 0.214845 0.057472 0.096188 -0.134752 0.1152 -0.059065 0.255713 0.124149 0.140853 -0.260514 -0.201595 0.073526 0.147887 -0.080463 0.201362 -0.389777 -0.30644 0.2655 0.210502 0.148411 -0.172938 0.048321 0.13909 -0.174625 0.010397 0.369445 0.145267 0.095847 -0.071692 -0.048897 0.190399 0.278676 0.072051
example -0.099834 0.096885 -0.269076 0.005814 -0.112312 0.134004 0.140847 0.228057 0.12416 0.164494 0.305225 0.052253 -0.109363 0.031047 -0.211418 -0.145391 -0.009059 -0.065745 -0.066077 -0.142139 -0.071291 -0.147273 0.361382 0.035763 0.05779 0.007581 -0.075048 -0.119029 -0.119016 -0.16305 -0.023154 0.07459 0.043627 0.160159 0.298925 0.063067 -0.00981 0.156647 -0.030766 -0.003917 0.078304 -0.042904 -0.222882 0.044789 0.10131 -0.133188 0.070626 0.018295 -0.036402 -0.005437 -0.131218 -0.153758 -0.057299 -0.149837 0.051894 -0.225143 -0.014095 0.142783 0.234355 -0.057631 0.02582 -0.106932 0.084304 -0.214953 0.053129 -0.078899 0.01467 0.189069 -0.10036 0.148954 0.116101 0.009914 0.059843 0.067686 -0.021313 -0.040745 -0.022494 0.211602 0.092417 0.036189 -0.012432 -0.168718 0.15935 0.054766 -0.006584 0.036313 -0.124087 -0.044156 0.067908 -0.140037 0.055002 0.131593 -0.291549 -0.153771 -0.132468 -0.082503 0.050481 0.030756 -0.102428 0.124216 -0.101729 0.113748 0.01791 -0.075063 0.199087 0.004835 -0.091663 0.02094 0.021018 -0.103374 -0.024668 -0.067328 -0.071834 -0.096292 -0.348811 -0.001726 -0.14612 -0.074449 -0.044854 0.041274 -0.022361 0.018144 0.046725 0.001167 0.048577 -0.263207 -0.099073 -0.16348 0.072864 -0.039246 0.056784 -0.065614 -0.185665 -0.045138 0.185671 -0.027969 -0.099917 0.004972 0.056992 0.139401 -0.002307 -0.055318 0.217596 0.0171 -0.015042 0.095348 -0.088358 0.201823 0.121925 -0.013266
journal 0.427075 -0.154074 0.030899 -0.253557 -0.166709 0.04764 0.075425 0.881835 -0.11479 0.021194 -0.05967 -0.511897 0.138344 0.061363 -0.05958 -0.035493 -0.223384 -0.217197 -0.289827 0.187074 -0.383099 0.035604 0.456785 -0.278621 0.173877 0.199035 -0.137509 -0.410845 -0.326124 0.020099 -0.201306 0.5527 -0.084171 0.263119 0.123385 0.873682 0.221493 0.195498 -0.073041 -0.246347 0.176931 -0.025274 0.091045 -0.622789 -0.023892 0.026504 0.383041 -0.51377 -0.040198 -0.189457 -0.190513 -0.063097 -0.738746 0.140751 -0.264093 0.02737 -0.051735 0.067797 0.153739 0.198349 0.074094 -0.349723 -0.278068 0.239361 -0.040308 -0.19335 0.492026 0.382624 0.045043 -0.089148 -0.31494 0.265398 0.083007 0.295724 0.08383 -0.46966 0.0419 0.071671 0.239196 -0.309692 0.549343 -0.303278 0.262853 0.085423 -0.247259 -0.026586 -0.897372 -0.094431 -0.242264 -0.402929 0.173557 0.11075 0.015323 -0.599446 0.117749 0.164382 0.399098 -0.025563 -0.003013 -0.050243 -0.383447 -0.13895 0.403415 0.087625 0.506134 0.033218 -0.486755 0.429256 0.277998 0.348558 0.104337 -0.261244 -0.039211 -0.178452 -0.367046 0.07787 0.067719 0.559014 -0.301665 0.251874 0.020449 0.022511 -0.685726 -0.191754 0.237474 -0.112304 0.045676 -0.325406 -0.339385 0.397247 -0.598707 0.18406 0.182279 0.031643 0.159445 0.147463 -0.008007 0.88484 -0.179882 0.780523 0.209849 -0.127859 0.147799 0.330358 -0.259189 0.452843 -0.014084 0.401556 0.121385 0.114945
laundering 0.481674 0.929634 -0.711629 0.449262 -0.419901 0.193922 0.734363 -0.088274 -0.106447 -0.170734 -0.425401 0.570266 0.083704 0.328738 -0.197269 0.015433 -0.209502 -0.300399 -0.097661 -0.360277 0.191883 0.053846 0.220325 -0.346363 -0.093641 0.077693 -0.177054 -0.263846 -0.153984 -0.198787 -0.423188 0.15814 -0.506605 0.66166 0.088789 0.433549 -0.270062 0.11469 -0.047746 -0.125635 0.418793 -0.044153 -0.102838 0.571233 0.336939 0.157071 0.080821 -0.356682 0.073833 0.26757 -0.347573 -0.141292 0.372657 -0.013601 0.289278 -0.147932 -0.358291 -0.276325 0.61859 0.005576 -0.023419 -0.757979 -0.286689 -0.191327 -0.025406 0.215832 0.220662 0.156894 -0.145723 -0.220438 0.120394 0.195778 -0.096306 -0.133793 -0.115545 0.252241 -0.225205 -0.144065 -0.122817 0.380096 0.051166 -0.541569 -0.082969 -0.181645 -0.790019 -0.063384 -0.087231 0.207299 0.098392 0.187048 -0.150926 -0.241525 0.266313 0.096247 -0.035522 0.031047 -0.343709 -0.036141 -0.46438 -0.223405 -0.296504 -0.259392 -0.195251 -0.256733 0.483073 -0.048922 0.339137 0.348483 -0.849105 0.01321 -0.424861 -0.579606 -0.120767 -0.321745 -0.380015 0.174412 -0.238878 0.141602 0.752645 0.458396 0.268529 0.581026 -0.309953 0.461949 0.517041 0.031343 0.371856 0.281146 0.089044 0.385806 0.275726 -0.066664 -0.337079 0.234462 -0.294486 0.580681 -0.212302 -0.274285 -0.080366 0.614261 0.017729 -0.408234 0.736862 0.056161 -0.573288 0.306054 0.297927 -0.230556 0.173003 -0.442556
hotel 0.007352 0.305861 -0.365346 0.335725 -0.238629 0.251595 -0.119601 -0.223557 -0.1165 0.467603 0.273432 0.011539 -0.338992 -0.256294 -0.010215 0.067813 0.408811 -0.010191 -0.371884 -0.235901 -0.202507 -0.142007 0.573613 -0.092105 -0.164674 -0.243525 -0.245164 0.311331 -0.327191 -0.185085 -0.304843 0.138689 0.09393 0.174605 0.250726 0.016319 -0.209742 -0.072663 0.19591 0.186118 0.055895 -0.198766 -0.596045 0.216917 -0.06648 -0.134905 -0.01632 0.145439 -0.139539 0.517451 -0.291071 0.003582 -0.227277 0.053269 -0.067633 -0.191884 -0.050785 -0.108629 -0.247617 -0.027575 0.210152 -0.184647 -0.102962 -0.147511 -0.130894 0.09955 -0.146146 -0.028012 -0.031852 -0.074737 -0.012521 0.275462 0.073747 -0.319552 -0.184868 0.130336 -0.33655 0.242712 -0.215853 -0.445788 0.076999 -0.161158 0.234688 -0.615107 0.07888 0.100508 0.107617 0.166769 -0.043361 0.12058 0.132068 0.227134 -0.084395 -0.025567 -0.213903 -0.093575 -0.024178 -0.121128 0.100567 -0.091509 -0.048467 -0.071025 -0.006276 -0.330133 0.133495 0.011587 0.020248 0.325898 -0.20513 0.34832 -0.055279 0.024407 0.038659 0.142761 0.064653 -0.391173 -0.198215 0.109503 0.099101 0.095027 0.240569 0.115789 -0.091546 -0.145703 0.228759 -0.136193 -0.089757 0.238662 -0.389551 -0.241794 -0.113828 -0.089161 -0.177293 -0.198306 0.081888 0.057513 0.116359 -0.009779 -0.031531 0.043769 -0.093025 0.070294 0.309043 0.021777 -0.147765 0.384689 -0.28999 0.15111 -0.089827 0.337001
term 0.036915 0.332728 -0.213592 -0.061393 -0.172837 0.009062 0.27857 0.140342 0.268507 0.171453 -0.045682 0.090773 -0.014975 0.105198 -0.17061 -0.219578 -0.158013 -0.119998 -0.205462 0.182811 -0.158876 -0.080769 0.291574 -0.150431 0.160973 0.086769 -0.349604 -0.062736 0.18549 -0.224018 -0.250036 0.149723 -0.134953 0.259639 0.260205 -0.045174 -0.222175 0.105857 -0.06132 -0.025138 -0.008142 -0.037491 -0.337088 0.041758 -0.263066 -0.060712 -0.03923 -0.380828 0.104927 -0.089443 -0.173271 -0.070345 -0.192564 -0.016544 0.135379 -0.115607 -0.093265 0.1756 0.244377 -0.172841 -0.084781 -0.276571 -0.185222 -0.391197 -0.194721 -0.164598 -0.09961 0.09991 -0.219798 0.241401 -0.169223 0.306051 0.096486 -0.015025 0.139556 -0.057032 0.122282 0.134892 0.126087 0.05365 0.22786 -0.04877 -7.14E-4 0.157636 0.052149 -0.291002 -0.049411 0.039688 0.018822 0.165677 -0.12676 -0.011866 -0.136645 0.040823 0.073227 0.047379 -0.112526 -0.03642 -0.239076 0.260874 0.089702 0.208595 0.120478 -0.083362 0.276754 0.125747 -0.103412 -0.09894 -0.027682 -0.170452 -0.189609 -0.338308 0.04942 -0.598452 -0.300648 -0.323914 -0.03252 -0.107765 0.129417 0.064129 -0.102722 -0.153619 -0.018746 0.00171 -0.086404 -0.206569 0.042961 -0.142469 0.141921 0.105773 -0.169696 -0.001713 -0.255986 -0.176532 0.224075 -0.02279 0.169685 -0.279683 0.092795 0.068858 -0.148678 -0.136983 0.29626 0.035264 -0.016098 0.040397 -0.103929 0.078253 0.086089 0.079158
listing 0.044537 -0.033685 -0.691698 -0.19592 0.091635 0.024772 -0.048544 0.552369 -0.044182 0.257146 0.062557 0.043115 -0.087595 -0.353089 0.02003 -0.192792 -0.07242 0.176994 0.282574 -0.122738 0.026666 -0.275465 0.575853 0.174417 -0.182711 -0.060168 -0.118942 0.039436 -0.309458 -0.26401 -0.277002 0.013457 0.080569 0.238419 0.392199 0.166686 -0.183284 -0.145157 -0.074486 0.441071 0.035184 -0.10949 -0.052839 -0.167296 0.081925 0.073426 0.122824 -0.168839 0.035186 -0.014659 -0.328592 -0.029636 0.097179 0.065709 0.105177 -0.102724 0.05665 0.3144 -0.125641 0.021718 0.137093 -0.431837 -0.243149 -0.307731 -0.101537 -0.070122 -0.041247 -0.23479 -0.044053 0.500935 -0.069457 0.073409 -0.113476 -0.422123 0.08097 0.302491 -0.077571 0.101771 -0.043236 -0.287751 -0.094803 -0.137676 0.062498 0.0179 -0.163692 0.136065 -0.144084 -0.198151 -0.13738 0.038562 0.034407 0.083097 -0.43154 0.013408 -0.148393 -0.045268 0.132487 -0.239364 0.052149 -0.061252 -0.158989 -0.120739 -0.041984 -0.336331 0.177398 -0.101761 -0.201149 0.37649 -0.201476 0.071413 0.045144 0.022024 0.244429 -0.370643 -0.704309 0.206982 0.089324 -0.236929 0.064849 -0.269029 0.060065 -0.103466 0.062237 -0.174493 0.066732 0.038973 -0.044002 -0.108792 0.208899 -0.171826 0.061837 0.135568 0.123288 -0.209071 0.015367 -0.267792 -0.14442 -0.175101 -0.04521 0.038742 0.178189 -0.413126 0.493872 0.05136 -0.225482 0.185346 0.179684 0.003757 0.244188 0.165619
chemistry -0.009642 0.3711 0.176314 -0.427312 0.009115 0.120931 0.255719 0.113864 0.019198 0.466445 0.326264 -0.067576 0.038245 0.282181 0.123568 0.194102 0.013236 0.021151 -0.386279 -0.179302 0.018357 0.128326 0.165032 -0.023855 -0.166026 -0.083716 -0.517004 -0.51209 -0.232094 0.08806 -0.211667 0.321445 0.01633 -0.205509 0.517508 0.02305 0.283147 -0.171102 0.201013 -0.033023 -0.053966 -0.299153 -0.362496 0.152824 0.337713 -0.23916 0.443579 -0.205703 0.204312 0.020433 -0.078122 0.295006 -0.011685 -0.146712 0.248351 -0.292414 -0.003619 -0.072645 0.004181 -0.148528 0.03026 -0.018308 -0.078879 -0.101904 0.068168 0.133811 0.054257 0.12397 0.354162 0.042298 0.343641 -0.411316 0.07579 0.05864 0.131441 0.018723 -0.114519 0.104135 0.14014 -0.040834 0.101366 -0.263937 0.190445 0.207015 0.068093 0.05337 -0.557934 0.167909 0.272259 -0.259586 -0.084953 -0.008365 -0.116968 -0.272033 0.301087 -0.053539 0.294019 0.205235 0.382062 -0.22877 -0.121675 -0.023142 0.108162 -0.288141 0.393891 0.063276 -4.36E-4 -0.046886 0.157366 0.007548 0.341448 -0.21398 -0.130227 -0.660397 -0.418108 -0.201571 0.051075 0.247659 0.344202 0.119987 0.136158 0.104392 0.0303 -0.118957 0.011015 -0.378206 0.291025 0.011129 -0.253853 0.05324 -0.456272 -0.166023 0.203597 0.330032 -0.202866 -0.026899 -0.21724 0.327149 0.019817 0.450639 -0.006126 -0.037974 -0.037973 0.191788 -0.019221 -0.096373 -0.253777 0.247673 0.071554 0.015346
seafood -0.082243 0.28899 -0.207237 0.140575 0.301838 0.31256 0.137742 0.322967 -0.144109 -0.025215 0.198473 0.107821 -0.057862 -0.021888 -0.180978 -0.437988 0.548884 0.344907 -0.240458 0.248849 0.316278 0.176047 0.563288 0.202984 -0.380333 0.253331 -0.223233 0.057909 -0.259272 0.502008 -0.071444 -0.481025 -0.098841 0.095039 0.269695 0.506773 -0.098035 -0.052957 -0.154641 0.040668 0.374681 -0.207951 -0.555322 -0.019038 0.095663 -4.06E-4 0.324495 0.284006 -0.173337 0.261199 -0.014505 -0.169866 -0.116547 -0.199437 0.398034 -0.163702 -0.155494 -0.102065 -0.151781 -0.432438 0.190371 0.103075 -0.441233 -0.236225 0.24415 -0.00828 -0.372074 0.023408 -0.17659 0.176483 0.133301 -0.125271 0.077941 -0.092306 0.077371 0.105627 -0.271402 0.091476 0.342063 -0.294908 -0.025894 -0.162717 0.128892 -0.096703 -0.326187 0.191106 -0.083904 -0.183777 -0.505325 -0.146092 0.073687 0.172676 -0.355468 -0.221046 -0.220196 -0.058024 -0.066406 0.125394 0.635959 -0.145648 -0.365065 -0.015663 0.097524 -0.047476 0.242794 -0.058326 -0.137087 -0.27934 -0.150915 0.675682 0.334071 0.003457 0.278339 -0.046978 -0.424244 -0.048206 -0.487741 0.248605 -0.018349 0.494748 0.121604 0.159847 -0.029777 0.377641 0.255368 -0.157023 0.097023 -0.171196 -0.612217 0.345482 0.081838 -0.338552 -0.898309 -0.002606 0.389092 -0.414236 0.149169 -0.289843 0.007423 0.029375 -0.001402 0.023991 0.546737 0.339256 -0.461397 0.037103 -0.27982 -0.162702 -0.20745 0.513924
CD -0.072801 0.010021 -0.053577 -0.064774 0.017059 0.084967 0.188781 0.164573 0.15768 0.547199 -0.083437 -0.118114 -0.32434 0.389971 0.40452 -0.373001 0.089019 -0.347044 -0.017034 -0.03201 -0.250627 -0.294412 0.304293 -0.009513 0.133741 0.624643 0.201193 -0.222437 -0.346404 0.106481 0.194528 0.077336 -0.114972 0.215155 0.215908 -0.278326 -0.149172 -0.049304 0.047408 0.394616 -0.03139 -0.32572 -0.125218 -0.242909 0.083285 0.2105 0.034582 0.233311 -0.014703 0.596962 -0.286546 -0.305952 -0.609396 -0.021867 0.287942 -0.505651 0.225859 0.11545 0.195451 -0.091461 0.385521 0.01656 -0.126159 -0.319571 -0.110753 -0.203467 0.541453 -0.114145 -0.020528 -0.016625 -0.012138 -0.148808 -0.31649 0.008419 -0.283336 -0.070989 -0.016144 0.060682 -0.629332 0.366374 -0.331833 0.065024 -0.103422 0.43014 0.006131 0.133981 -0.444224 -0.306748 -0.10571 -0.114448 -0.113368 -0.047166 0.361794 0.045155 -0.036723 0.237494 0.11412 -0.252112 0.046831 0.325569 0.246115 -0.12638 -0.275586 -0.213421 -0.029811 0.525657 -0.37753 0.291099 -0.148413 0.093243 0.084414 0.037999 -0.159753 -0.672965 -0.281834 -0.182671 -0.316934 0.500579 -0.294377 0.187624 -0.174822 0.110005 0.168312 0.152606 0.054932 -0.14334 -0.190837 -0.236487 -0.07554 0.145145 -0.131783 -0.368686 -0.10885 0.359164 0.081426 -0.100706 -0.064125 -0.087112 -0.083712 -0.084456 -0.288735 -0.260337 0.323182 0.001049 -0.431859 0.224417 -0.105666 -0.057611 0.532568 0.074517
mind -0.07127 0.052003 -0.209824 -0.131823 -0.025008 0.140038 0.254128 0.13477 0.100722 0.382186 0.262425 -0.005035 -0.222699 -0.184838 7.24E-4 -0.006638 0.052086 -0.045719 -0.245434 -0.175216 -0.097798 -0.142533 0.411793 -0.146281 0.102487 0.142007 -0.191796 -0.164713 -0.239332 -0.401336 -0.234905 0.135501 -0.153802 0.326051 0.252118 -0.093204 0.036475 -0.1538 0.092253 0.132096 0.030298 -0.174356 -0.183832 -0.00698 -0.088123 0.013761 0.101194 -0.084988 -0.21475 -0.106543 -0.091513 0.198363 -0.139532 -0.180492 -0.091325 -0.161341 0.073219 0.140032 0.099022 -0.148921 -0.007557 0.158371 0.090898 -0.352588 0.192036 -0.074678 0.047842 0.153331 0.103247 0.08413 -0.040872 -0.136886 -0.046885 0.148627 -0.062482 -0.12022 -0.071994 -0.068545 0.052898 -0.019575 0.110409 -0.007736 0.104322 -0.015796 0.148519 -0.162079 -0.033553 0.048906 0.118547 -0.114671 0.023099 0.108261 0.006204 0.184887 0.133511 -0.15881 -0.080296 -0.055822 0.145446 -0.086986 -0.061303 0.198799 0.084448 -0.066638 0.29994 -0.051742 -0.059174 -0.072257 -0.112014 -0.094786 -0.007428 -0.063432 -0.161203 -0.189096 -0.251349 -0.146403 0.029693 -0.144252 -0.089661 0.314575 -0.125428 -0.045586 -0.011418 -0.151221 0.048701 -0.149721 -0.101948 -0.060802 -0.012972 -0.074838 -0.015361 -0.226201 -0.1132 0.105498 -0.014182 0.167477 -0.056372 -0.022134 0.085092 0.034339 0.103709 -0.012922 0.259649 0.153687 -0.057391 0.19819 -0.288619 0.03754 0.193616 -0.103114
sex -0.13717 0.22054 -0.259701 -0.057159 0.078748 0.292119 0.268889 0.254028 0.262627 0.02828 0.050956 -0.136751 0.02161 0.081584 -0.195301 -0.032418 0.16436 -0.276517 -0.401318 -0.239374 0.159907 0.243254 0.234638 -0.04859 -0.158217 -0.108328 -0.189053 -0.028316 0.157796 -0.321484 -0.200142 0.169734 0.010961 0.623647 -0.076013 -0.089412 0.041822 0.040255 -0.00315 -0.038905 0.202296 -0.310604 -0.556356 -0.205909 -0.070074 -0.182917 0.180967 0.049434 -0.124278 -0.020791 0.005784 -0.262319 0.131366 -0.004145 0.3108 -0.02858 -0.097136 -0.254167 0.121227 -0.004418 0.11164 0.005424 -0.009665 0.03486 -0.07798 0.242202 0.120944 -0.250708 -0.193512 0.067206 -0.253913 -0.197657 0.42165 0.203877 -0.350341 -0.241837 -0.293505 0.302145 0.096208 0.17657 -0.20484 -0.279206 0.286473 -0.019718 -0.056828 0.020353 0.069672 -0.06557 -0.014623 -0.701669 0.172286 0.019718 -0.005901 0.287541 0.032695 0.051199 -0.116387 0.075864 -0.149475 -0.016681 -0.10503 -0.297196 0.077148 -0.427212 0.694086 -0.067392 0.011203 0.032141 0.103941 0.055577 -0.308279 0.02229 0.035648 -0.062654 -0.390628 -0.526471 0.125913 -0.045758 -0.01917 -0.02101 -0.451091 -0.053565 0.14669 0.266274 0.271159 -0.188047 -0.210302 -0.050967 0.111343 0.289742 -0.006718 0.031497 -0.088444 0.025049 0.340793 0.133394 0.368259 -0.215246 -0.37046 0.406425 -0.321851 0.182063 0.513102 -0.180857 0.424364 0.398032 -0.483154 0.322417 0.402425 -0.062007
food -0.039023 0.349026 -0.145051 0.145443 0.027184 0.197959 0.090272 -0.127527 0.028622 0.090644 0.280554 -0.109232 -0.209292 -0.030504 -0.308519 -0.465752 0.110484 -0.014615 -0.325841 0.258233 -0.005933 0.197046 0.415728 0.084649 -0.312668 0.209899 -0.19841 -0.011245 -0.332814 0.085701 -0.08578 0.096674 -0.113784 0.163816 0.253978 0.19231 -0.021391 0.398206 -0.119496 -0.062678 0.394149 -0.071381 -0.485813 -0.096717 0.20376 0.182907 0.303803 0.258106 0.184117 0.10518 -0.177749 -0.035336 -0.116702 -0.048781 -0.038839 -0.002746 0.125943 0.012313 -0.028605 -0.277053 0.048021 -0.075867 -0.082822 -0.310902 0.262564 -0.335692 -0.138161 -0.16817 -0.213115 -0.040679 -0.082473 -0.006567 0.163791 -0.070684 0.059614 0.104918 -0.335196 0.141589 0.01861 -0.078624 -0.067907 -0.112778 0.326473 -0.067436 -0.128675 0.007562 -0.43873 -0.016107 -0.156703 -0.137297 -0.289249 -0.335326 -0.232777 -0.379891 0.013166 -0.171565 0.186628 -0.024407 0.474043 -0.009977 -0.490785 0.224347 0.120034 0.08102 0.161189 -0.107047 0.067827 -0.196378 0.066856 -0.004662 -0.013103 0.044046 0.319015 -0.152857 -0.389598 0.025331 -0.542904 0.087213 -0.23383 0.359375 -0.022696 0.150388 -0.168084 0.184202 0.152534 -0.26242 -0.185049 -0.25897 -0.253591 0.220648 0.056243 -0.055102 -0.24298 -0.305883 0.302084 0.050763 -0.137904 -0.262085 0.127145 0.288079 -0.24774 0.034444 0.228543 0.162537 -0.171693 -0.010348 -0.118875 -0.155745 -0.116466 0.298772
precedent -0.032113 0.18676 -0.631291 -0.147389 -0.098213 0.442394 0.298726 0.449001 0.119693 -0.041182 0.100433 0.016071 0.049825 0.132247 -0.282637 0.112196 0.138424 -0.384197 -0.127589 -0.170133 -0.102111 -0.02511 0.258831 0.024573 0.02773 0.215245 -0.468514 -0.141322 -0.54701 0.017861 -0.341188 0.125414 -0.196823 0.376582 0.048223 -0.138249 -0.477341 -0.157403 0.445577 0.123484 0.010473 0.199235 -0.157945 -0.004811 0.052288 0.005035 0.165393 -0.217862 -0.079363 0.164448 -0.02812 -0.045898 -0.197494 -0.201472 0.206869 0.082552 -0.34367 0.007379 0.113813 0.183657 -0.118622 0.081677 0.026009 -0.232561 -0.071756 0.121733 -0.230518 0.259769 0.052649 0.155188 -0.126482 -0.08015 -0.086571 0.205053 -0.14771 0.158123 0.119426 0.31414 0.085243 0.005744 0.205124 -0.174921 0.013989 0.199367 0.255504 -0.403251 0.095514 -0.365918 -0.147474 -0.125209 0.201496 0.090932 -0.156254 0.178726 -0.139359 -0.025137 -0.073074 0.271739 -0.121587 0.020351 -0.089134 0.235314 0.044277 0.125101 0.186103 -0.189971 -0.144964 0.424018 0.220499 -0.25513 -0.076885 -0.065716 0.002924 -0.300462 -0.24898 0.059776 -0.170197 -0.112836 -0.045776 0.396495 -0.313858 -0.07214 0.153075 -0.240729 -0.0057 -0.061688 -0.29784 -0.147855 0.154976 -0.149934 -0.138589 -0.144897 -0.419547 -0.022621 -0.007883 0.081411 0.008809 -0.021854 0.070266 0.124318 -0.098826 0.009682 0.237201 -0.027223 0.084958 -0.129306 -0.23609 -0.035297 0.174838 0.051481
series -0.068746 0.122767 -0.059915 -0.096891 0.091069 -0.055424 -0.056561 0.096978 0.027178 0.366739 -0.119102 0.246072 0.149665 0.373463 -0.117923 -0.13474 0.078412 -0.095262 -0.468709 -0.358985 -0.393611 -0.061606 0.41849 -0.203274 -0.023278 0.311515 -0.106671 -0.382939 0.09654 -0.306917 -0.295611 0.074853 -0.14134 0.210532 -0.222994 0.163243 0.455913 -0.165507 0.301235 0.138317 0.014881 -0.162765 0.043009 -0.016643 -0.038435 -0.193776 -0.068625 0.081756 0.060314 0.0258 -0.181124 0.124769 -0.096265 -0.153664 -0.091674 -0.574113 -0.013029 -0.046788 -0.224147 0.456861 -0.094674 0.129282 -0.083007 -0.215915 0.144302 0.027816 0.12592 -0.001769 0.102173 0.130682 -0.106903 -0.049542 0.123329 -0.182418 0.121562 -0.162638 -0.022385 0.183826 0.111653 0.102583 -0.030902 0.137964 0.129072 -0.192679 -0.050959 -0.023778 -0.322696 -0.228047 -0.061112 -0.046398 0.222318 -0.087272 0.033622 0.067568 -0.174742 0.161984 0.150248 9.46E-4 -0.018182 0.168399 -0.056606 0.176337 -0.305101 -0.146681 0.065242 -0.033119 0.0656 0.069057 -0.165127 0.216886 -0.076414 -0.029546 -0.075541 -0.200827 -0.244439 -0.155139 -0.100108 0.149319 0.185612 -0.044847 -0.145505 -0.054848 0.295413 -0.013042 0.191193 -0.118403 -0.013411 -0.205058 0.186866 -0.11436 0.045439 -0.140907 -0.361947 -0.17768 0.160333 -0.090283 -0.237901 0.014817 0.127522 0.17991 -0.187468 -0.016591 0.217972 -0.056969 0.087851 0.043273 -0.065936 0.110367 0.115724 -0.145378
kilometer -0.434543 -0.008034 0.234846 -0.240995 -0.331476 0.353098 0.04335 0.279413 -0.358361 0.00337 -0.360522 -0.194062 -0.539381 0.626752 -0.417703 -0.234498 -0.401058 -0.145741 -0.16903 -0.240119 0.150699 -0.213637 0.504158 0.121044 -0.081541 -0.058121 -0.157427 -0.282409 -0.27659 -0.29853 0.016128 0.012107 -0.334041 -0.02616 0.058966 -0.337256 0.151427 -0.022233 0.399121 -0.404922 -0.013446 0.044655 0.182925 0.272755 -0.250471 -0.427876 -0.27053 -0.115467 0.173038 0.178037 -0.403238 -0.016805 -0.065588 -0.237935 -0.1239 -0.234387 0.123363 -0.45752 -0.098048 -0.18049 -0.065345 -0.508837 -0.43233 0.438486 0.431075 -0.307393 -0.178787 -0.088991 -0.463399 -0.029546 -0.125153 0.524191 -0.206865 -0.198376 0.293212 -0.239219 0.024313 -0.088663 0.306063 -0.120415 0.13319 -0.158049 0.204411 -0.199107 -0.181586 0.128495 -0.087517 -0.735985 0.353739 0.137393 -0.046591 0.410431 -0.433334 0.330947 0.143429 -0.062508 0.021978 -0.249965 0.400382 0.050558 0.009165 0.366872 0.099267 -0.552166 0.669771 -0.697193 0.22246 0.132638 0.130376 -0.002908 -0.109263 -0.247017 0.16124 -0.204734 0.322925 -0.073088 -0.147215 0.446048 0.078963 0.04758 0.056171 0.36026 -0.245565 0.32194 -0.266555 -0.166116 0.28477 0.001348 0.0205 -0.662833 0.202092 -0.346241 -0.412176 -0.119923 -0.178671 0.142041 -0.094839 0.076991 -0.767766 0.014341 -0.315571 -0.209718 1.88E-4 0.549426 -0.165289 -0.295969 -0.104541 -0.291178 0.101737 0.779129
grocery -0.252815 0.381105 -0.451161 0.183884 -0.188391 0.376715 -0.032649 0.296486 0.03469 0.43104 0.267122 -0.234212 -0.846911 0.3909 -0.356097 -0.216082 0.316211 0.053906 -0.092289 0.041106 -0.192671 0.151453 0.407168 0.259609 -0.396138 0.384972 -0.341606 0.074166 -0.579576 -0.245264 -0.023859 -0.050807 -0.01187 0.105827 -0.197063 -0.090214 0.030214 0.38312 -0.242583 0.167519 0.300293 -0.233299 -0.373458 -0.079682 0.335653 0.13153 0.096103 0.31414 0.085768 0.15232 -0.08952 0.024045 0.060397 -0.03315 0.1076 0.027522 0.318745 0.040316 0.174851 -0.029673 0.157604 -0.228216 -0.158766 -0.373026 0.340823 -0.185321 -0.080524 -0.202786 -0.334726 -0.272938 0.327914 -0.001287 -0.078894 -0.189678 0.240934 -0.281592 -0.307071 -0.144191 0.067392 0.040329 -0.125029 -0.06484 0.229435 -0.261539 -0.067581 0.179289 0.186671 0.091243 -0.289528 0.006611 -0.038037 -0.224919 -0.125966 -0.463488 0.32923 0.087228 0.268462 0.04197 0.213395 -0.044105 -0.238765 -0.009922 0.089195 0.150232 0.098828 -0.203744 -0.309746 -0.091946 0.078116 0.299572 0.175212 0.225013 0.360546 -0.327357 -0.214978 -0.282875 -0.890109 -0.039556 -0.231791 0.287599 -0.001096 0.032191 -0.259588 0.188578 0.04603 -0.017285 0.09817 -0.280848 -0.296917 0.236628 -0.005737 -0.247212 0.131936 -0.173851 0.317077 0.031823 -0.346215 -0.274103 0.167898 -0.06843 -0.141743 -0.108788 0.347053 0.227049 -0.129688 -0.100607 -0.131983 -0.070227 0.037939 0.142777
wizard -0.188103 0.233689 -0.669121 -0.431234 0.273707 0.023536 0.188147 0.075292 0.488472 0.141517 0.22262 0.292512 0.379911 0.124644 0.08804 0.061343 0.094929 0.084888 -0.209712 -0.189772 0.066655 -0.130785 0.168135 0.107761 0.258147 -0.302503 -0.171382 -0.632562 0.042654 -0.456533 -0.415324 0.629035 0.00567 0.38314 -0.378386 -0.212266 -0.00725 -0.253079 0.230284 0.356292 -0.017014 -0.100841 -0.271751 0.101767 0.211575 -0.01486 -0.06043 -0.063703 0.35049 0.318804 -0.202917 -0.149279 -0.34762 0.100227 -0.230934 -0.328395 0.100082 0.067923 -0.219461 0.156326 0.024677 0.149675 0.131107 -0.093848 0.431672 0.024324 0.012366 0.100168 -0.067226 -0.194088 0.360352 0.08568 0.097273 -0.092822 -0.004475 -0.445414 0.181762 -0.353042 0.070638 0.080951 -0.090781 0.303812 0.365717 -0.108189 0.022549 -0.175653 -0.610384 0.352639 0.273612 -0.073338 -0.010927 0.163406 0.176588 0.029881 -0.318052 -0.268994 0.011182 -0.1872 0.156467 -0.046943 0.442156 -0.16324 -0.050318 -0.117674 0.271589 -0.282004 -0.251424 0.02946 -0.616705 -0.170642 0.423113 -0.090167 -0.198422 -0.121513 -0.299793 0.004461 0.255339 0.259296 -0.400516 -0.241921 0.521381 0.074484 0.198821 -0.145459 0.275227 -0.582347 0.090037 -0.075358 0.240933 0.022708 -0.186621 -0.696355 -0.098311 -0.10598 -0.017887 0.156682 -0.329093 -0.15949 -0.175224 0.220865 -0.200502 0.365479 0.120983 0.104975 -0.062846 0.033547 -0.096695 0.242048 0.324485 -0.182517
information 0.140299 -0.18723 -0.465286 0.069676 -0.283356 -0.039051 -0.199895 -0.033204 -0.167831 0.126822 0.075278 0.014315 -0.077995 0.160615 -0.175208 -0.12177 -0.195579 -0.08312 0.061395 -0.252451 -0.017385 -0.0557 0.642752 0.107322 -0.098603 0.189054 -0.290457 -0.026514 -0.31227 -0.154139 -0.259118 -0.021826 -0.146351 0.250998 0.414213 -0.041345 -0.094068 0.013693 -0.23754 0.116615 -0.00598 0.122299 -0.09736 0.033912 -0.025246 0.043111 0.099639 -0.220841 -0.086395 0.052494 -0.028442 0.051342 0.086822 -0.047561 0.125778 -0.281477 -0.135729 0.201499 0.166132 0.06548 0.138258 -0.016533 0.13785 -0.186204 0.02731 0.124354 -0.065196 -0.04921 -0.083641 -0.168636 -0.376963 -0.083181 0.209682 0.051057 0.032308 0.404174 0.132046 0.085771 0.326275 -0.315913 -0.233673 -0.599358 0.300788 0.041414 -0.22548 0.249291 0.165987 -0.071652 0.090222 -0.229461 -0.143007 -0.011818 0.057373 -0.041454 -0.275118 -0.234308 0.20578 -0.095011 -4.83E-4 0.204764 -0.253076 0.009846 0.053787 0.141649 0.438851 0.159393 -0.141356 0.303284 -0.267855 -0.072334 -0.010723 0.028004 -0.028834 -0.249629 -0.611175 0.027845 -0.045539 0.141939 0.126719 0.059349 -0.19693 -0.13817 0.293104 -0.303455 0.223806 -0.38515 0.178658 -0.193231 0.192641 0.052307 0.020518 0.153989 0.212051 8.74E-4 -0.264026 -0.079074 -0.175666 0.116209 -0.245651 0.044808 -0.064288 0.087833 0.563992 0.095388 -0.167099 0.110946 0.028409 0.178941 0.374583 -0.064606
Israel 0.400933 0.200723 0.006699 -0.018902 -0.370435 0.461957 0.12586 0.376303 -0.199618 -0.287687 -0.076205 0.014655 -0.201686 0.18598 0.319644 0.373787 0.023262 0.086245 -0.202384 0.129842 -0.327767 0.165445 0.470229 -0.196923 -0.367628 0.41388 -0.031399 -0.477658 -0.50732 -0.413563 -0.454146 0.34316 -0.610864 0.485023 0.415266 -0.177687 -0.223611 0.269409 -0.138255 0.247071 -0.657004 -0.23741 -0.011368 0.169534 0.491912 -0.038784 -0.260376 -0.473207 0.186258 0.070137 0.103356 -0.483879 -0.469356 0.405076 -0.15121 -0.190527 0.072362 -0.204765 0.112297 -0.115736 0.13056 -0.056743 -0.203451 -0.130957 0.069977 -0.041738 -0.086821 8.47E-4 0.373009 0.285745 -0.247298 -0.165471 -8.16E-4 0.144449 0.133113 0.312879 0.024497 0.018887 -0.231965 -0.122878 0.304485 0.128191 0.478131 -0.117979 -0.393277 -0.395654 0.190966 -0.182903 -0.025169 -0.102854 -0.075261 0.271058 -0.30903 -0.134123 -0.224424 -0.320934 -0.034375 0.32548 0.424461 0.064576 -0.016069 0.312288 -0.265312 0.254381 0.130784 -0.272898 -0.305278 -0.171419 0.126348 -0.150078 -0.532133 0.31114 -0.02248 -0.33693 0.240157 -0.105932 -0.431984 -0.3436 -0.153706 -0.294015 -0.201306 0.085591 0.095979 0.278839 0.166527 -0.261966 0.191679 0.169413 0.122723 -0.324277 0.2177 -0.033755 -0.707314 -0.191229 -0.110305 0.106235 0.318569 -0.17505 -0.163548 0.45149 -0.343109 0.172946 0.297723 0.182964 0.513247 -0.17226 -0.348871 0.192654 0.47821 -0.250142
brandy -0.275117 0.428502 -0.117537 0.130933 0.419853 -0.241338 0.580803 0.216462 0.162844 0.581379 0.354421 0.010583 -0.180249 -0.351923 -0.341365 -0.036878 0.534558 -0.327446 -0.267464 -0.031304 0.055218 -0.009834 0.122991 0.531625 -0.371361 0.306296 -0.179048 -0.421364 -0.089645 0.015617 -0.125771 0.107642 0.240994 0.356006 0.183224 0.243915 -0.068115 0.014285 -0.005296 0.069876 0.104615 -0.291613 -0.421976 0.37877 -0.067488 0.030799 0.073615 -0.059927 0.09422 -0.010413 -0.245528 -0.255259 -0.479368 0.012452 0.139953 0.007572 0.035966 -0.204228 0.130948 -0.581761 0.338996 -0.112447 -0.085037 0.197771 0.194642 -0.378677 -0.276184 -0.172225 -0.162677 0.198765 0.148829 -0.081559 0.272518 0.247085 0.378945 -0.132384 -0.690062 -0.053926 -0.143649 0.071133 0.247652 0.035638 0.035966 0.075294 -0.158783 -0.227392 0.010233 0.125341 -0.21947 -0.183158 -0.113436 0.246714 0.246972 0.116989 0.01464 0.027401 0.114814 0.215267 0.858954 0.24323 -0.276156 0.190124 0.461344 -0.21493 0.199884 -0.287548 -0.689179 -0.138775 -0.464571 0.407084 0.268464 -0.01424 0.013428 0.293983 -0.228596 0.093694 -0.432396 0.293235 -0.151436 0.421617 -0.366675 0.224242 0.316207 -0.207387 -0.410442 0.179148 0.542844 0.196791 -0.315869 -0.061166 0.012048 -0.192704 -0.495755 0.058329 0.557897 0.12587 -0.06825 -0.53895 -0.115537 0.43999 0.314351 0.283191 0.15314 0.390517 -0.367763 -0.087004 -0.368252 -0.161595 -0.102443 0.050777
interview 0.169708 0.193143 0.003996 0.054966 -0.173979 -0.202252 -0.244355 0.410401 0.048612 0.175719 0.188097 -0.050995 -0.001213 0.097832 0.052005 0.062183 0.022462 -0.037392 -0.269026 0.023775 -0.439174 0.019141 0.230506 0.033055 -0.077266 0.297131 -0.012265 -0.293748 -0.32235 -0.271194 -0.316392 -0.070544 -0.059901 0.29982 0.34244 0.208048 0.104544 -0.159258 0.285228 0.052338 -0.300789 -0.047137 -0.510303 0.144532 -0.309118 -0.185931 -0.205887 -0.129376 -0.029307 -0.063439 -0.316502 -0.107413 -0.009974 -0.043864 0.036575 -0.06874 0.02442 -0.13207 0.19912 0.217775 -0.116746 -0.051003 0.002954 -0.244461 0.152983 -0.053195 -0.027961 -0.026711 0.098027 -0.06274 -0.40911 -0.141701 0.041602 0.027942 -0.285651 -0.22706 -0.004915 0.426413 0.007789 -0.274484 0.153587 -0.368495 -0.122733 -0.22288 -0.136228 -0.117182 -0.09938 -0.10588 -0.049587 -0.089879 0.10338 -0.135029 0.128471 -0.026157 0.163763 -0.150781 0.115014 0.159704 -0.283362 -0.247035 -0.219161 -0.017138 -0.073853 -0.195632 0.343076 0.035502 -0.254266 -0.076152 -0.425628 0.052293 -0.166135 -0.129382 -0.249134 -0.222425 -0.166265 0.073753 -0.078463 -0.01979 -0.046845 -0.177579 0.099954 -0.158059 -0.175936 -0.064909 0.122524 -0.266725 -0.089471 0.098227 0.267951 -0.02218 0.060138 -0.124258 0.097241 0.121439 -0.062624 -0.046542 -0.185915 0.044727 0.144323 0.169983 -0.159735 -0.126282 0.233166 0.119524 -0.036886 0.303239 -0.055471 0.012101 0.212299 0.23807
prominence 0.040246 0.243673 -0.121528 -0.069922 -0.021331 0.124897 -0.016898 0.250705 0.054235 0.338932 -0.058642 0.299897 0.114086 -0.016483 -0.212519 -0.095488 -0.006501 -0.134241 0.038311 -0.211542 -0.434887 -0.329435 0.278371 0.220114 -0.124112 0.130053 0.095547 -0.142396 -0.236742 -0.271685 -0.501142 0.137805 -0.015785 -0.034002 0.135663 0.013983 0.122693 -4.33E-4 0.15027 -0.094065 -0.074723 -0.378826 -0.346089 0.304841 -0.111077 -0.170113 -0.131325 -0.122554 -0.065762 -0.005669 -0.056334 0.065168 -0.090191 -0.100326 0.195286 -0.123994 -0.025942 0.276986 -0.136544 0.026366 0.060801 -0.1013 0.075583 -0.396036 0.102112 -0.043915 -0.172095 0.096442 0.167126 0.263973 -0.051909 0.079631 0.301408 0.234956 -0.096584 0.049837 -0.114319 0.36992 0.090139 0.029166 -0.165882 -0.023152 -0.138804 0.156082 -0.074128 -0.00495 -0.144818 -0.083485 0.086841 0.167806 -0.025735 0.095401 -0.01531 0.003095 0.032436 0.169527 -0.385048 -0.019471 -0.046392 -0.010988 -0.135782 0.279813 -0.295556 -0.170277 0.100671 0.090071 -0.231197 0.103876 0.204146 0.136649 0.107228 -0.327951 0.084827 -0.355751 -0.292691 0.135513 -0.11007 -0.183594 -8.26E-4 -0.137485 0.055398 -0.113091 -0.202217 0.153687 -0.036946 0.010137 -0.070692 -0.117237 0.293867 0.050317 -0.321868 -0.429578 -0.044853 0.005797 0.130242 0.012075 -0.235708 0.006259 0.069858 0.495922 -0.27371 0.062968 0.231 -0.062856 0.023615 0.050864 -0.371087 -0.102924 0.242662 -0.156251
bed -0.203865 0.289757 -0.133863 -0.052303 0.004252 -0.219228 0.320662 -0.081615 0.068738 0.522225 0.423308 -0.150929 -0.370172 -0.344927 0.078173 0.057589 0.118789 -0.028583 -0.39301 0.101661 -0.259853 -0.111472 0.58215 0.128535 0.079431 0.134697 -0.269269 0.067067 -0.155769 -0.0191 -0.140117 0.273294 -0.168935 0.100734 0.062696 -0.009667 0.041882 0.109516 -0.076854 0.22301 0.255934 -0.207014 -0.284748 -0.007634 -0.042408 0.024519 -0.008567 0.289988 0.030985 -0.121706 -0.298857 -0.238361 -0.307082 0.014559 -0.188782 0.170327 0.06901 -0.541606 -0.126532 -0.325684 0.044779 -0.029396 -0.004825 0.085048 0.108731 0.014892 0.127831 0.04351 -0.004384 -0.002432 -0.020478 -0.028029 0.369875 -0.250763 -0.25159 -0.343366 -0.237028 0.06853 -0.137924 -0.003261 0.153406 -0.154006 0.33799 -0.224695 0.205384 0.142638 -0.066329 0.141437 0.178046 -0.182164 0.149323 0.276146 0.132043 -0.027936 0.054294 0.065842 -0.272496 -0.061494 0.157579 -0.04733 -0.106725 0.077867 -0.122369 -0.151586 0.211792 -0.147491 -0.090634 0.187737 -0.403166 0.074973 -0.231192 -0.059847 -0.195742 -0.290481 0.031406 -0.185989 0.104616 -0.045547 -0.135883 0.35045 0.043491 0.032412 -0.140447 -0.362972 0.11847 -0.253472 -0.015145 -0.111514 -0.340352 -0.210166 -0.078382 -0.105971 -0.070807 -0.057062 0.176264 -0.02357 0.103031 -0.143224 0.015031 0.153766 -0.336177 0.110606 0.024164 0.034892 -0.259758 0.299217 -0.057708 0.33001 0.235287 0.136977
furnace -0.048609 0.480753 -0.082995 -0.198989 0.030797 -0.546602 0.539037 0.160796 0.22806 0.388256 0.387808 -0.204884 -0.27389 0.128128 -0.080109 0.223144 -0.269445 -0.240152 -0.163938 0.235496 -0.092815 -0.013584 0.238156 0.089778 -0.038795 0.064494 -0.298571 0.004909 -0.049156 -0.024591 -0.284484 0.024902 -0.023321 0.371839 0.266078 -0.643329 0.013949 0.138372 -0.103967 0.209985 0.639784 -0.466617 0.023527 -0.104653 0.528676 -0.423285 -0.010437 0.049553 0.139913 0.090481 0.011121 0.149252 -0.216482 0.061665 -0.047331 -0.12726 0.213203 -0.107756 -0.4312 -0.277744 0.599953 -0.087901 -0.129373 0.086087 0.168218 0.243429 0.101838 0.294818 0.164488 -0.116684 -0.030865 -0.084289 0.407319 -0.40028 0.307065 0.028722 -0.361077 0.214937 0.038854 -0.142449 -0.25451 0.008602 0.198603 0.151855 0.148895 0.01496 -0.008934 0.076288 0.07061 -0.326598 -0.29965 0.242338 -0.32266 -0.286145 0.132028 0.093389 0.138606 0.237673 0.209637 -0.137329 -0.485609 -0.057958 -0.498684 -0.390331 0.270534 -0.18943 -0.038463 0.313271 -0.120013 -0.144816 0.018262 0.012803 0.047881 -0.360062 0.444767 0.190818 -0.152141 0.122097 -0.101325 0.398137 -0.222286 -0.04588 0.021961 -0.363312 0.157577 -0.523241 0.338594 -0.281911 -0.067073 -0.228366 -0.1654 -0.347184 -0.414146 0.0243 0.080606 -0.135438 -0.162162 -0.288044 -0.002658 0.216184 -0.3554 0.405224 0.182898 -0.321465 -0.403246 -0.159791 0.063121 -0.082882 0.181602 0.541991
evidence 0.001481 0.043723 -0.164136 0.008302 -0.124497 0.172901 0.230766 0.095703 0.267119 0.114567 0.118715 0.023081 -0.10768 0.066481 0.120139 -0.170264 -0.289548 -0.465446 -0.386605 -0.194187 -0.114825 0.122226 0.326273 0.176336 -0.236599 0.479465 -0.464818 -0.155729 -0.317434 -0.44324 -0.410595 0.028368 -0.369624 0.387192 0.293272 0.238613 -0.198319 0.06221 -0.062277 -0.188063 0.036586 -0.025631 -0.328271 0.06012 0.107881 -0.040079 0.244491 -0.176607 -0.204886 -0.267332 -0.091394 0.043877 -0.109155 0.16643 0.14807 -0.062423 -0.122815 0.071794 0.119324 0.167949 -0.121188 -0.060036 -0.145747 -0.236889 0.17146 0.2094 0.077759 0.475193 -0.11601 0.077951 -0.21714 -0.040266 0.229312 -0.030326 -0.063929 0.204147 -0.066351 0.057948 0.057553 -0.162218 0.047428 -0.498305 0.17057 -0.048584 0.265034 0.065351 -0.154262 -0.211252 0.093356 -0.275383 0.19071 -0.212977 0.267478 0.144115 0.041697 0.091676 -0.151541 0.244511 0.047058 0.088594 -0.111513 0.060202 -0.025913 0.141382 0.013911 0.112253 -0.180482 0.075141 -0.090323 0.010174 -0.193083 -0.026547 -0.13928 -0.144462 -0.328681 0.039949 0.149505 0.277462 0.070924 0.23454 0.003712 0.124073 -0.212293 -0.216024 0.289331 -0.146688 0.009525 -0.016732 -0.032848 0.288621 -0.279695 0.165097 -0.161149 0.036492 0.025713 -0.224144 -0.054883 0.27473 -0.229518 0.251156 -0.1438 -0.160418 0.215612 0.288206 0.056533 0.253283 0.201613 -0.075268 0.260676 0.079304
sprint -0.548087 0.002694 -0.023086 -0.424595 -0.431996 0.550874 0.160895 -0.271429 -0.26967 0.123086 -0.493581 -0.124685 -0.135944 0.085413 -0.456397 -0.130392 -0.654879 -0.109862 -0.103953 -0.241581 -0.145431 0.400804 0.534299 -0.173481 0.317831 0.156279 -0.295714 -0.671382 -0.329874 -0.451977 -0.324216 0.187678 0.046072 0.420227 -0.48526 -0.19054 0.164686 -0.054858 0.39371 -0.311015 -0.06316 -0.38406 -0.232804 0.238976 -0.313581 -0.127996 0.005538 0.353509 0.16839 -0.033773 -0.64144 -0.076492 -0.095834 -0.285946 0.250801 0.07445 -0.170004 -0.16954 0.103368 -0.21955 -0.390892 -0.522077 -0.66346 0.579385 0.919988 -0.106164 -0.078565 -0.016651 -0.102283 0.169102 -0.003146 0.07932 -0.270355 -0.20986 0.290563 -0.537273 -0.137024 0.068347 0.233166 -0.325146 -0.08227 0.107972 -0.1054 -0.228035 -0.14644 -0.209858 0.008368 -0.320997 0.224514 0.132858 -0.069354 0.404273 -0.16316 0.20559 0.297929 -0.280484 0.075586 -0.567125 0.273362 0.246828 -0.380636 0.200574 0.074272 -0.448354 -0.023191 -0.060596 -0.380732 0.249008 0.456491 -0.113358 0.093345 -0.288195 -0.144411 -0.076033 0.127924 -0.312818 -0.11588 0.176797 0.150274 0.104944 -0.04578 -0.024526 -0.082819 0.209944 -0.568198 0.314152 -0.121592 -0.107409 0.277468 -0.097382 0.250867 -0.558888 -0.09843 0.038719 -0.275211 0.062044 0.039836 0.184586 -0.338467 0.14491 -0.31742 0.215982 -0.04197 0.386441 -0.504448 -0.172238 -0.099784 -0.361918 0.613726 0.406562
emergency 0.177029 0.272739 -0.056748 -0.134258 -0.233122 -0.01707 0.030789 0.272395 0.026887 0.362441 -0.135273 0.247158 0.165549 -0.194015 -0.631249 -0.426456 -0.062553 -0.283755 -0.348292 -0.059158 -0.517982 0.065677 0.534635 0.096703 -0.079361 -0.189512 -0.239369 -0.200187 -0.152865 0.058342 -0.344458 -0.037308 0.086011 0.352904 0.274483 -0.158301 -0.312337 0.073393 0.027641 0.141895 0.109204 0.457003 -0.255287 -0.387448 -0.382057 0.076468 0.066721 -0.014221 0.230605 0.202629 -0.169862 0.001485 -0.104892 0.090628 0.147379 0.079077 -0.199106 -0.208875 -0.004324 -0.391745 -0.104308 -0.314881 0.05135 -0.208452 -0.112345 -0.177094 -0.223876 0.027554 -0.090359 -0.021526 -0.048113 0.114345 0.14947 -0.185033 0.214317 -0.085909 -0.00671 0.206864 -0.248668 0.018633 -0.118788 -0.001026 0.205366 -0.424805 -0.031633 0.02136 -0.177811 -0.239039 -0.013708 -0.083798 -0.105092 -0.070151 0.283393 -0.253038 -0.247314 -0.178137 0.174088 -0.129579 -0.184551 0.057539 -0.285288 0.423652 -0.177746 -0.122859 0.072631 -0.223513 0.040288 -0.050269 -0.192441 -0.247963 -0.349512 0.074731 -0.078782 -0.191635 -0.058516 -0.465382 -0.35677 -0.202177 -0.264768 0.323422 0.165044 -0.011037 0.201097 -0.456826 0.029515 -0.25974 -0.113144 -0.197156 -0.170107 -0.176588 0.142364 0.352304 0.206145 0.03273 0.019758 -0.233862 0.022309 -0.085195 -0.090449 0.402283 -0.500847 -0.00655 0.044411 -0.167852 0.233819 0.103602 0.164158 0.036089 -0.054852 0.136873
Jackson 0.200358 -0.063135 0.072332 0.057165 -0.105722 0.185011 -0.266739 0.246085 0.144123 0.756647 -0.040024 0.10078 0.179101 -0.127379 0.359759 -0.409604 -0.179283 0.085285 -0.224519 0.02107 -0.032096 0.333243 0.568105 -0.193831 0.041433 0.374999 -0.360537 -0.191428 -0.122651 -0.490157 -0.093701 0.336861 0.004922 0.314711 -0.050666 -0.070229 -0.245957 -0.330708 0.199665 0.3731 0.126932 0.025277 -0.443534 -0.125 0.273014 -0.107843 -0.228281 0.016866 -0.205629 -0.044601 -0.13399 -0.033201 -0.271217 0.186483 0.128315 -0.130454 0.196866 0.197029 0.019956 0.011725 -0.007694 -0.140921 0.071093 -0.245373 0.011942 -0.098246 0.264346 0.013471 -0.017713 0.041334 -0.033589 -0.248919 0.086832 -0.030793 0.042332 0.226386 0.006704 0.17848 -0.463344 0.166323 -0.030108 0.048305 -0.321445 -0.449639 0.201397 0.043818 -0.290356 -0.41774 0.327078 0.259561 -0.045035 -0.063236 0.27341 0.036664 0.098099 0.094498 -0.117285 0.114135 0.128833 0.047042 0.00237 0.144979 0.093967 -0.027772 -0.039686 -0.320631 0.110159 0.095383 -0.154192 0.126503 0.138188 0.232517 -0.309931 -0.388072 -0.191834 -0.065987 -0.26899 0.262541 0.12661 -0.086273 0.206051 0.092783 -0.059256 0.015618 -0.25187 0.203683 -0.041246 -0.004321 -0.098832 -0.319739 0.084012 -0.359311 0.034749 -0.167652 0.179843 0.048121 -0.50712 -0.131395 -0.067992 -0.012518 -0.675822 -0.034282 0.116581 -0.07765 0.090667 0.256265 0.070498 0.134753 0.762293 -0.066354
institution 0.149153 0.363457 -0.324181 -0.112433 -0.163814 0.322498 0.292937 0.223343 0.228227 0.218257 0.153618 0.170977 -0.028689 0.198103 -0.353764 -0.144344 0.102823 -0.200447 -0.020124 0.056674 0.153405 -0.328819 0.452554 0.241416 0.009338 0.119298 -0.142792 -0.080399 -0.075052 0.128757 -0.455222 0.113917 0.162701 -0.004584 0.042342 -0.14234 -0.202932 -0.01578 0.001044 0.174381 -0.224102 -0.267953 -0.070221 -0.185659 0.05336 -0.249898 0.040708 -0.234776 -0.203683 0.200181 -0.425227 0.030529 0.18061 -0.023095 0.269297 -0.377758 -0.230981 0.146375 0.088212 -0.111401 -0.028289 -0.313372 0.005649 -0.494078 -0.328623 0.218927 -0.078471 -0.107819 0.091856 -0.022563 0.024438 -0.146064 -0.042374 0.080859 0.111798 -0.022334 0.010005 -0.07704 -0.110168 -0.376357 0.367649 -0.067166 0.100569 -0.238297 -0.073542 -0.090349 -0.120441 -0.050381 -0.176324 -0.269225 0.056424 0.20769 -0.077322 -0.011387 -0.048213 -0.168851 -0.229838 0.107787 -0.243916 0.021112 -0.095226 0.338142 -0.154237 -0.228436 0.437344 0.305194 -0.032311 -0.148772 0.130979 -0.101452 0.111591 -0.123646 -0.027495 -0.231433 -0.225668 -0.018109 0.064686 -0.088133 -0.234104 0.317991 -0.04759 -0.058938 0.090014 0.014672 -0.035546 -0.189587 0.075672 -0.231627 0.08285 0.168586 0.036576 0.002339 -0.03165 -0.053064 0.305282 0.223221 -0.087815 0.118934 -0.133841 0.477456 -0.31161 0.03239 0.202549 0.17434 0.358163 0.09397 0.002232 0.14373 0.095832 0.087073
bird -0.03559 0.163058 -0.016293 0.004128 0.200394 -0.175047 -0.197074 0.302154 0.051998 -0.154324 0.222169 0.099749 -0.373131 0.023443 -0.30548 -0.594173 0.015623 0.067232 -0.482685 -0.100267 0.436866 0.173946 0.70675 0.139691 -0.054529 -0.085958 -0.468114 -0.166339 -0.277856 0.076958 -0.142394 0.347407 0.006426 0.265726 0.368184 -0.206286 0.493023 -0.326244 0.032834 -0.193851 0.150949 0.073177 0.101425 -0.053161 0.107733 -0.149725 0.168904 0.34873 0.134838 -0.188176 -0.218552 -0.29585 -0.439385 0.134421 -0.247748 0.156985 -0.154024 0.012298 -0.17363 -0.464793 -0.200748 0.187523 -0.06174 0.077787 -0.075241 -0.15431 0.116244 0.542833 0.107273 0.181802 -0.319963 0.138309 0.096472 -0.191409 0.178021 0.133839 -0.112289 -0.079487 -0.147611 0.01731 0.121948 -0.121809 0.063697 0.054661 -0.389069 -0.159408 -0.046341 -0.350615 -0.086795 -0.040496 -0.050157 0.091802 -0.106861 0.12276 -0.373895 -0.130963 -0.275487 -0.360885 0.336517 -0.27431 -0.607141 -0.148679 -0.362214 -0.031908 0.333431 0.167386 -0.463533 0.029388 -0.075098 0.136575 0.309318 0.373377 0.053239 0.001475 -0.34836 -0.149788 -0.12823 0.023046 -0.512003 0.253255 -0.020632 0.449777 -0.166754 0.248532 0.36153 0.062106 -0.271944 -0.106582 0.152644 -0.288328 -0.330772 -0.129618 -0.426553 0.057458 -0.045561 0.076457 0.212753 -0.074451 0.125827 0.287701 0.123415 -0.186033 0.286837 -0.037803 0.028676 0.618206 -0.093706 0.359122 0.144356 0.097578
Brazil -0.222132 -0.005324 -0.146626 0.345627 -0.18708 -0.035313 0.487028 0.662889 -0.253022 -0.095445 -0.23621 0.2435 -0.087374 0.119459 -0.187886 -0.377986 -0.299822 -0.248629 -0.058967 -0.190431 -0.430238 0.159181 0.110527 0.051954 -0.345138 -0.401909 -0.245605 0.120489 -0.149768 -0.104029 -0.313515 0.0822 0.406043 0.590458 -0.102603 -0.107482 0.026487 0.107427 0.086036 -0.160032 -0.150408 -0.071856 -0.059416 0.062459 0.133061 -0.01728 -0.233062 0.113906 -0.08854 -0.135432 -0.091428 -0.583489 -0.723857 -0.590748 0.095694 0.098622 -0.220702 0.131903 -0.01815 -0.169595 -0.169669 -0.1595 -0.426446 0.023289 0.406529 -0.677077 -0.214877 0.089922 0.256853 0.079717 -0.217201 0.254085 0.257175 -0.264318 -0.05099 0.27169 -0.151086 0.411927 -0.098745 0.074573 -0.011371 -0.076303 -0.128249 0.168603 0.161524 -0.079645 -0.147192 -0.086771 0.153448 0.212648 -0.157036 -0.037892 -0.571124 -0.242799 -0.176268 0.412743 0.217594 0.057334 0.206392 0.40017 0.068613 0.43128 -0.455594 -0.311515 0.352355 0.154487 0.220887 0.131765 -0.05025 -0.047468 -0.065314 0.012114 -0.074824 -0.224293 -0.40658 0.262612 -0.182489 0.007153 0.006154 -0.052401 -0.082172 0.136528 0.102784 0.072751 0.533838 -0.017811 -0.025931 0.059207 -0.024164 0.097336 0.15043 -0.055699 -0.125051 0.050142 -0.034846 0.011158 -0.673157 -0.277826 -0.256033 0.274313 -0.292433 0.190893 -0.15915 0.244705 0.113452 -0.064204 -0.06902 -0.063344 0.213019 0.124875
warning -0.103341 -3.91E-4 -0.148888 0.126576 0.052493 0.236603 0.18401 0.058914 0.024473 0.043919 0.248855 0.050095 -0.106939 0.228716 -0.214427 -0.200286 0.009121 -0.367507 -0.173593 -0.163409 -0.328403 -0.179812 0.560553 -0.016568 -0.239687 0.18581 -0.353166 -0.203205 -0.25144 -0.218918 -0.19446 0.099441 -0.20289 0.357371 0.415718 0.204041 -0.112741 0.112067 -0.186439 -0.071342 -0.105272 0.388988 0.10293 -0.228974 -0.200034 0.220367 -0.052943 -0.241613 -0.105681 -0.018719 -0.034448 -0.074388 -0.036102 0.018008 0.147841 -0.330338 -0.023734 0.140797 0.012712 0.017231 -0.357958 -0.068201 0.092393 -0.394074 0.152179 -0.277083 -0.157482 0.014383 -0.219512 -0.218559 -0.160098 -0.16511 0.068235 0.012849 0.104949 -0.127526 -0.087571 0.353015 0.020655 0.119377 -0.068415 0.185699 0.23796 -0.197108 -0.100948 -0.085601 -0.027975 -0.251929 -0.022944 0.012283 -0.424023 0.169634 -0.145744 -0.195974 -0.207747 -0.026628 0.011693 -0.116447 -0.241844 -0.179928 -0.278873 0.002573 -0.086449 -0.105999 0.067992 -0.448005 -0.389369 0.184937 -0.098168 -0.306958 -0.113734 -0.104526 -0.223753 -0.275132 -0.272503 -0.073528 -0.013918 0.085427 -0.144843 0.043979 -0.014892 0.042688 0.039984 -0.00182 0.174848 -0.03587 -0.165236 0.01412 -0.05712 -0.310838 -0.102019 0.078049 -0.207399 0.150802 0.224445 -0.237041 0.153617 -0.054146 -0.077707 0.285127 -0.060829 -0.176135 0.1445 0.059673 0.05069 -0.006865 0.09331 -0.174391 0.068774 0.19401
implement -0.075695 0.206005 -0.315293 0.072377 -0.186034 0.069094 0.437873 0.481325 0.158983 0.133428 -8.2E-4 0.063762 0.03437 0.057287 -0.374237 -0.253864 -0.175904 -0.108818 -0.026885 -0.004282 -0.111425 -0.062086 0.612965 -0.350489 0.18697 0.020992 -0.323962 -0.23289 -0.309209 0.064102 0.023376 0.026064 -0.140701 0.145701 0.427893 0.103707 -0.223729 -0.105376 -0.184078 -0.066859 -0.066454 0.12561 -0.456406 -0.056419 -0.229657 0.091263 0.19016 0.126269 0.179787 0.15391 -0.168373 0.047711 0.137213 0.05948 0.055861 -0.245325 -0.219797 0.269355 -0.024336 -0.08145 0.141063 -0.182548 0.043861 -0.135652 -0.094909 -0.099245 -0.305135 -0.025707 0.333153 0.12608 -0.021358 -0.108226 -0.034574 0.005811 0.460367 0.257777 0.427221 0.12014 0.227421 -0.122967 0.052493 -0.110096 0.254818 -0.043315 -0.20981 -0.42122 -0.141194 -0.20371 0.239565 -0.142726 0.051165 -0.280081 -0.075269 -0.037578 -0.069697 -0.115391 0.143614 -0.031886 -0.327446 0.172764 -0.021082 0.028847 0.11574 0.026824 0.111088 0.008853 -0.002354 0.32057 -0.09274 -0.331413 -0.249149 -0.105966 0.118102 -0.35574 -0.226003 -0.180704 -0.040372 -0.157849 0.322757 0.084752 -0.277293 -0.115148 0.181544 0.020446 0.333165 -0.349586 -0.081183 -0.127035 0.062033 0.001998 0.314823 0.143282 -0.028505 0.070108 0.326868 -0.247229 0.132228 -0.166633 -0.018662 0.269258 -0.279863 -0.162386 0.466333 0.088664 0.03332 -0.118877 0.139114 0.074583 -0.154919 0.085892
train -0.347576 0.19874 -0.087617 0.154089 -0.220303 -0.074743 -0.121604 0.043314 0.225991 0.228236 -0.099593 -0.044615 -0.268488 0.186288 -0.734103 -0.108478 -0.073788 0.003911 -0.357731 -0.185617 -0.186301 -0.129582 0.217028 -0.316482 -0.017231 -0.5305 -0.057413 0.070359 -0.309555 -0.498568 -0.307352 0.115834 -0.185419 0.085777 0.275675 -0.238161 -0.2554 -0.134667 -0.046799 0.24807 0.094531 -0.031853 -0.029176 -0.2001 -0.049287 -0.233882 0.033864 0.15478 -0.144793 0.234147 -0.432695 -0.017033 0.07884 -0.118706 0.155284 -0.178918 -0.05694 -0.412969 0.093398 -0.291505 -0.019069 -0.238993 0.096497 0.006054 0.125438 -0.266611 -0.017205 0.116301 0.022656 -0.318285 4.87E-4 -0.121223 0.098819 -0.232901 0.081223 -0.212163 -0.052155 -0.265402 -0.019577 -0.330907 -0.220332 0.260008 0.438864 -0.278025 -0.030023 -0.145281 -0.327841 -0.232659 0.148767 0.069776 0.026973 0.331063 -0.267448 0.025067 0.12814 0.035143 0.056607 0.159163 0.403076 0.197541 -0.022219 0.073978 -0.015351 0.146704 0.357455 0.03444 -0.080434 0.26782 -0.162542 -0.046256 0.090293 0.010183 -0.192214 0.021959 0.223296 -0.207112 -0.129722 0.085909 -0.080437 -0.002447 0.236248 0.244995 0.227682 -0.185166 0.04769 -0.049762 -0.080486 0.003565 0.027116 -0.041687 0.026301 0.043299 -0.219713 0.016651 -0.150786 -0.324007 -0.098249 -0.196792 0.096662 0.40573 -0.074539 -0.199572 0.547415 -0.122292 0.043111 -0.206843 -0.175789 -0.328139 0.352312 0.216283
area -0.116893 -0.001917 -0.00827 -0.15827 -0.143706 0.137211 -0.13036 0.111293 -0.068894 0.176584 0.326715 0.245429 -0.238913 0.186578 -0.239129 -0.279098 0.1215 -0.114249 -0.389559 -0.226554 -0.136778 -0.069209 0.496643 -0.073591 -0.240968 0.042605 -0.373368 0.126532 -0.481502 -0.017544 -0.28146 0.059225 -0.035334 -0.249021 0.115672 -0.108991 -0.175011 -0.005159 0.07724 0.060772 0.134097 0.153404 0.129823 0.113775 0.124401 -0.173442 -0.064816 -0.020145 -0.084077 0.124055 -0.275107 -0.167295 0.106453 -0.090152 0.006345 -0.1876 -0.070721 -0.052019 -0.09903 0.00712 0.036062 -0.319812 -0.160964 -0.077817 0.060114 -0.166825 -0.25714 0.348634 -0.129313 -0.031926 -0.116557 0.126371 0.020695 -0.007007 -0.070964 0.18387 0.04656 -0.015853 0.108609 -0.023488 0.03859 0.07623 0.283206 -0.173272 -0.026828 0.300132 -0.03202 -0.080866 0.228314 -0.05177 -0.104349 -0.015116 -0.070451 0.029389 0.091101 -0.004125 0.105657 0.128496 -0.076876 0.018755 -0.216459 0.061026 -0.208005 -0.182139 0.387436 -0.173082 -0.172575 0.122019 -0.048614 0.258842 -0.106654 0.007869 0.078482 -0.053481 -0.006022 -0.230122 -0.095738 -0.064912 -0.081576 0.25417 -0.062265 0.031903 -0.162028 -0.038422 0.122873 -0.201818 0.157712 0.135305 0.024978 -0.116913 -0.100369 0.118066 -0.10373 -0.049188 0.089248 -0.235044 -0.061153 -0.305616 -0.025772 0.23483 -0.190118 -0.03468 0.122849 -0.067744 -0.032419 0.123375 -0.152554 0.106605 0.07309 0.283751
image -0.024755 -0.090477 -0.017821 -0.11579 0.060275 0.227611 0.154238 0.042542 0.337469 0.202224 0.153454 0.121052 -0.11122 0.098484 -0.168956 -0.002176 0.074626 -0.073728 -0.034277 -0.37018 -0.138506 -0.394817 0.358243 0.066689 -0.16322 0.086158 -0.10291 -0.144263 -0.131481 -0.278292 -0.336181 -0.009634 -0.267971 0.239047 0.130317 0.047503 0.072928 -0.009765 -0.120704 0.272499 0.007557 -0.216966 -0.286231 0.155461 -0.060195 -0.126332 0.094654 -0.142502 0.053477 -0.097589 -0.117749 -0.101794 -0.223322 -0.193825 0.010733 -0.20022 0.025038 0.316267 0.108574 -0.147593 0.472816 0.0068 0.168474 -0.298735 0.310216 0.132571 0.128506 0.214555 0.134171 0.099492 -0.167458 0.090872 0.051671 0.187932 -0.207749 -0.091152 -0.155855 -0.059315 0.263259 -0.386969 -0.056883 -0.006072 0.102164 -0.072838 0.02255 -0.268658 -0.090703 0.153372 0.139452 -0.014522 -0.050789 0.0233 0.095593 0.033924 0.067679 -0.120836 -0.018912 -0.323902 -0.211743 0.095447 -0.014248 0.104136 -0.120575 0.060085 0.234865 -0.105233 -0.078505 0.144867 0.115099 0.07676 0.179948 0.235981 -0.100836 -0.358514 -0.237553 0.063565 -0.219609 0.137517 -0.146862 0.091011 -0.112353 0.004251 -0.041586 0.063699 0.217612 -0.097173 -0.062852 -0.119251 0.073728 0.086182 -0.041472 -0.377557 -0.177815 0.30299 0.220506 0.099925 0.100769 -0.167938 -0.304521 0.179845 -0.401722 -0.103633 0.070301 -0.063268 0.139445 0.26156 -0.183038 0.190858 0.110175 -0.085933
murder 0.024611 0.558191 -0.344697 0.418013 -0.330104 0.021062 -0.026977 0.012042 0.341975 0.057699 -0.23389 0.437816 0.152136 -0.012835 -0.176416 0.15319 0.172248 -0.27089 -0.296214 -0.442294 0.122347 0.297571 0.00568 0.071358 -0.100543 0.544563 -0.695203 -0.176052 -0.520995 -0.301401 -0.797078 0.246989 -0.466147 0.501065 0.032235 0.015571 -0.174401 0.042506 0.212724 -0.367588 0.458897 -0.592603 -0.069182 0.044746 0.192208 -0.421133 -0.117866 -0.139577 -0.13976 -0.006685 -0.275111 -0.161459 -0.063762 0.320812 0.195419 0.14878 -0.348614 -0.177351 0.289422 -0.016613 0.044329 -0.225383 -0.161509 0.091352 8.58E-4 0.059324 0.25168 0.385174 0.040019 -0.536642 0.105689 -0.104299 0.554808 -0.148754 -0.322017 -0.003024 -0.079969 0.060052 0.098115 -0.097558 -0.228911 -0.163098 0.443829 0.142829 0.035267 0.118776 0.106689 -0.016557 0.420827 -0.177235 0.33891 -0.129999 0.222459 0.288818 0.318613 0.10693 -0.178608 0.486354 -0.436315 0.054663 0.040702 0.012303 -0.172477 -0.201636 0.413456 -0.130011 0.032871 0.278944 -0.360503 0.143111 0.196137 -0.151433 0.143681 -0.114734 -0.116227 -0.170379 -0.107208 -0.058126 0.20383 0.169524 0.425081 -0.020916 -0.282677 0.064233 0.146379 0.269165 0.173977 0.439772 0.0635 -0.558425 0.049725 -0.218748 0.120591 -0.066243 0.279514 -0.190003 0.099859 -0.202545 -0.308914 0.457965 0.0413 -0.100387 0.757827 0.297428 -0.055677 0.146682 0.123791 -0.027839 -0.050824 -0.299187
journey -0.507846 0.339064 0.136784 -0.221949 -0.069468 -0.162336 -0.136606 0.078128 -0.058461 0.129922 -0.020717 0.078438 -0.048541 0.394998 -0.315932 -0.109372 0.169281 -0.016566 -0.461449 -0.08894 -0.160088 -0.084782 0.533426 -0.107614 0.141867 -0.240429 0.156336 -0.207163 -0.261434 -0.475905 -0.106897 0.352358 -0.230574 0.177722 0.173206 -0.031848 -0.121433 0.073552 0.347661 0.121926 0.129511 -0.071644 0.054758 -0.128209 0.013391 -0.512165 -0.033933 0.221525 -0.178374 0.200149 -0.194735 -0.160114 -0.235474 -0.039461 -0.199174 -0.191825 -0.155152 -0.213718 0.03969 -0.169305 0.350675 -0.270592 -0.028826 0.146481 0.227827 -0.35193 -0.18174 -0.019124 -0.094733 0.072834 -0.061526 0.037428 -0.101904 -0.077291 -0.138934 -0.214879 -0.163196 -0.247303 0.282569 -0.303714 0.033987 0.068473 0.098791 -0.159382 0.193768 -0.162328 -0.201293 -0.363975 0.119043 0.042373 0.065015 0.129395 -0.157004 0.145073 0.338803 0.108202 -0.246583 -0.237988 0.27709 -0.00569 0.028295 0.38039 0.304831 0.047289 0.432611 0.008536 -0.049669 0.185239 -0.172488 -0.146444 0.207721 0.053399 0.020596 -0.244908 -0.214436 -0.126056 -0.052531 0.102603 0.150647 0.119572 0.066706 0.304114 -0.038717 -0.016052 0.131247 -0.192766 -0.021513 -0.136122 0.184798 -0.197389 0.15511 -0.104309 -0.05288 0.005698 -0.021348 -0.102947 -0.264264 0.017674 -0.183619 0.053987 0.066003 -0.113621 0.28214 0.339856 0.011455 0.145476 -0.185034 -0.298404 0.111186 -0.033167
