437 100
plane -0.236779 0.245331 -0.090079 0.397656 0.537397 0.315093 0.17477 -0.018675 0.044075 -0.02454 -0.350466 0.052925 -0.13512 0.023784 -0.212594 -0.462997 -0.436675 0.151594 -0.231506 -0.174622 0.646227 0.02358 0.531028 0.250775 0.134429 -0.144004 0.229542 -0.201241 -0.402766 0.115028 -0.068848 0.628996 -0.118917 -0.089451 -0.077125 -0.652801 0.044025 0.097799 0.417186 0.21371 0.543633 0.258857 -0.190152 -0.113791 0.306826 -0.84857 0.374893 -0.199927 -0.350873 -0.005275 -0.423787 -0.131815 -0.16334 -0.23334 0.223347 -0.032527 -0.44523 -0.360925 0.025583 -0.105368 -0.088447 -0.532128 -0.070671 -0.204567 -0.372307 0.023272 0.119079 0.1388 0.199757 -0.52882 0.042364 -0.249064 -0.094046 0.421677 0.119385 -0.005255 0.129101 -0.369233 -0.108251 0.032491 -0.452749 -0.495621 0.534816 0.33314 0.289771 -0.144142 -0.237015 0.107797 -0.413848 -0.434882 -0.062983 0.551453 -0.32249 -0.031894 0.281669 0.019862 -0.182642 0.007698 -0.19586 -0.049726
stupid 0.229457 0.384312 -0.130944 -0.300057 -0.212316 -0.063731 -0.022496 0.289484 -0.400378 0.111449 0.229918 0.282912 0.293767 0.046028 -0.154698 0.070598 0.322201 0.008784 -0.32564 0.426522 -0.186753 0.175128 0.593517 -0.239383 0.599115 0.148648 0.377631 0.021653 -0.056041 0.308688 0.22949 0.408973 0.266295 0.144371 0.097917 -0.070059 0.099743 -0.083974 0.171171 0.192578 0.602763 -0.023991 0.557698 0.126411 0.416631 -0.138956 -0.026725 0.011857 0.353123 -0.145321 -0.49841 -0.027654 -0.266397 0.354562 0.298973 -0.018491 0.016247 -0.352763 0.390335 -0.17681 -0.14177 0.03648 -0.387871 -0.117834 -0.143988 -0.373983 6.5E-5 0.770406 -0.337637 -0.005906 0.027636 0.203751 0.059258 0.334109 0.231166 0.276389 -0.195765 -0.390989 0.374524 0.519928 0.180811 -0.50045 -0.500567 -0.347549 -0.263511 0.214509 0.129181 -0.04752 0.088085 -0.153467 -0.180144 0.065033 -0.110326 -0.354823 0.076675 -0.079351 -0.120235 -0.288569 -0.509451 0.31675
egg 0.015301 0.231288 -0.212934 0.503299 -0.146794 -0.106203 -0.216773 0.427688 -0.173421 0.166592 0.14222 -0.002158 -0.24968 -0.649044 0.114758 -0.168829 -0.07947 -0.419419 -0.036728 -0.070444 -0.028567 0.294762 0.238209 -0.003928 0.789733 -0.199344 -0.48447 -0.132317 0.176962 0.284321 -0.568112 0.670167 -0.071262 -0.112895 -0.098512 -0.298351 0.122153 0.469248 0.617983 0.099736 -0.522544 -0.104745 -0.094924 0.155776 0.383838 -0.177319 0.079148 -0.11619 0.253188 0.172986 -0.173479 -0.22154 0.008768 -0.167664 -0.159038 -0.22825 0.145468 0.100386 0.045346 -0.470736 -0.167987 -0.199691 0.049672 -0.325335 0.084584 -0.514394 -0.165666 -0.067008 -0.111811 -0.538547 0.206105 0.258912 -0.393461 0.095755 0.285997 0.055388 0.052283 -0.315839 0.121967 0.587756 -0.17114 -0.030969 -0.018142 -0.381549 -0.531782 0.072766 -0.58717 0.046508 -0.228197 -0.148076 -0.748028 -0.81642 -0.080064 -0.703613 0.170811 0.127219 0.18795 -0.279074 -0.451057 -0.004583
year 0.024864 -0.054904 -0.394743 -0.267871 0.493824 0.134647 -0.362931 0.158054 -0.184624 0.206776 -0.052136 0.366414 -0.001135 -0.308692 -0.008048 0.3487 0.070536 0.125463 -0.196094 0.217847 0.097298 -0.095587 0.264127 0.095881 -0.054309 -0.108421 0.16808 -0.177613 -0.313515 0.177111 -0.084849 0.196537 -0.677694 -0.237327 -0.026409 0.252546 0.196555 0.532287 -0.240847 -0.203292 0.42083 0.195782 -0.049055 -0.190205 -0.109594 -0.334143 -0.262192 -0.5545 0.106956 0.353976 -0.143445 -0.001964 -0.031803 0.684231 0.254298 -0.071917 -0.313908 -0.047432 0.304907 -0.279612 0.334061 -0.40686 -0.226002 0.596907 -0.279215 -0.078013 0.144141 0.104001 -0.322667 -0.16865 0.031264 -0.043405 0.102145 0.182346 -0.367433 -0.145524 -0.032583 0.418802 0.18118 -0.065539 -0.206262 0.003325 0.007605 0.090397 -0.307389 -0.207249 0.245207 -0.726227 -0.042381 -0.100587 -0.215337 -0.732387 -0.350529 -0.389443 -0.013934 -0.22684 0.161731 1.84E-4 -0.202972 0.350988
psychiatry -0.340514 0.487159 -0.507546 -0.37222 0.3574 -0.377844 -0.069152 -0.01079 0.38866 0.170012 0.004398 -0.02489 0.698008 0.091443 -0.149598 -0.311509 -0.802961 -0.040872 -0.142379 0.259952 -0.510278 0.540334 0.520417 -0.245664 -0.459406 0.733906 -0.132272 -0.161513 0.013294 0.104754 -0.051603 1.038273 -0.136321 0.381762 -0.004932 -0.42491 0.430034 0.239882 0.440826 -0.150919 -0.47635 0.558833 -0.325923 -0.150967 0.504052 0.249092 -0.127594 0.320865 -0.329602 -0.245291 -0.265033 0.452451 1.142863 0.377824 -0.609809 -0.347832 0.055764 0.529648 0.547822 -0.342966 -0.948146 0.141947 0.129072 0.363606 -0.026059 -0.100074 0.088527 0.160323 0.676041 0.171728 0.220174 -0.141645 0.2985 0.06229 0.387142 0.593642 -0.203313 -0.510266 0.107948 -0.06265 -0.154483 0.02427 -0.012644 -0.302968 -0.455272 0.203529 -0.013076 -0.003466 0.119825 0.148979 0.083785 -0.257086 -0.313177 -0.861138 -0.132204 0.01279 0.386863 0.074362 -0.17196 0.280826
asylum 0.030478 0.078992 -0.084441 0.067993 0.268533 -0.920198 -0.54167 0.625693 -0.097894 0.085714 -0.168761 0.146565 0.232441 0.005674 -0.542839 -0.294804 -0.211991 0.510102 0.009025 0.200237 0.224104 0.052144 0.234052 -0.73149 0.110716 0.270538 -0.347456 0.48818 -3.19E-4 0.01742 0.094828 0.80234 -0.001621 -0.172224 -0.165243 -0.042599 0.218407 0.504521 0.349426 0.013187 0.036853 0.022568 -0.481334 -0.137593 0.212087 -0.433262 -0.404354 0.037953 -0.149342 -0.448966 -0.073597 0.23306 0.528698 0.321799 -0.008032 0.730614 -0.530161 -0.297005 -0.170067 -0.355343 0.254281 -0.260676 0.448314 -0.18387 -0.241875 0.34927 0.048679 0.603756 -0.328524 -0.129383 0.14612 -0.040077 -0.086653 -0.281698 0.297305 0.302254 -0.40992 -0.298663 0.357619 -0.149087 0.193389 -0.234847 0.22823 -0.705797 0.546986 -0.28082 -0.152116 -0.439253 0.721192 -0.184411 -0.160664 0.069986 -0.447386 -0.863094 -0.108591 -0.056566 -0.204469 0.262307 0.238532 0.106277
manslaughter 0.100368 0.097076 -0.073154 -0.628225 0.396102 -0.006629 0.115341 0.202425 -0.458083 0.048296 0.223124 0.639287 0.09232 -0.197097 0.472858 -1.139152 0.471518 0.122151 -0.203359 0.779378 0.279415 0.428765 0.534696 -0.284624 -0.894616 -0.169289 -0.071383 -0.697688 -0.266128 0.130666 -0.03096 0.380813 -0.867639 -0.250149 -0.44916 -0.044457 -0.464917 0.128484 0.536284 -0.071569 0.462426 0.049009 -0.40922 -0.030429 -0.080868 -0.323241 -0.376396 -0.01703 -0.492772 0.260936 -0.226269 0.553067 0.878838 -0.204101 -0.123915 0.10251 -0.372001 -0.334143 0.407121 -0.63525 0.438036 0.281189 -0.028923 -0.462203 -0.038035 0.075827 -0.325732 0.907877 5.86E-4 -0.017732 -0.745598 0.325842 0.054134 -0.433269 0.157996 0.420536 -0.47459 0.022989 0.413069 -0.198837 0.506252 -0.568041 1.187129 -0.627029 -0.140095 -0.566642 -0.148904 0.02147 -0.386026 1.349526 -0.822864 0.392359 0.308989 -0.137794 0.684419 0.688281 -0.005241 -0.245774 -0.892381 0.242383
music 0.314686 -0.207283 -0.090834 0.069538 -0.046771 -0.103582 0.113116 0.033051 -0.018217 0.121296 -0.108258 -0.180285 0.132676 0.033614 0.055127 -0.357922 0.177476 -0.156026 -0.529174 0.07921 -0.489635 0.085876 0.02046 0.03749 0.131575 0.437966 0.159958 -0.345721 -0.201812 0.356039 0.058945 0.105343 0.038714 -0.382283 0.206593 0.049083 0.050934 -0.232859 0.399844 -0.170633 0.254668 0.28479 -0.268441 0.112311 -0.286988 0.112593 0.022227 -0.314529 0.485807 -0.332051 -0.303612 0.306882 -0.051592 0.149911 0.200665 0.422605 0.284596 0.107935 0.160174 -0.197013 -0.539987 -0.119346 0.640444 -0.116929 -0.048136 -0.337146 -0.033387 0.33178 0.458675 -0.292517 -0.28072 -0.015401 0.022528 0.082392 0.279902 -0.021342 -0.394666 0.019169 0.33476 -0.202981 -0.390826 -0.379681 -0.08069 -0.105752 -0.3959 -0.483622 -0.152955 0.015695 0.055529 -0.011844 -0.427814 -0.282847 -0.128029 -0.343809 -0.159481 -0.29982 0.385934 -0.075397 -0.341339 0.015271
record 0.119765 0.224663 -0.149434 0.026619 0.168738 -0.067697 -0.063156 -0.115397 -5.73E-4 -0.184265 -0.14398 0.105903 -0.00178 0.001955 0.098169 -0.034188 -0.260438 -0.007525 0.248401 0.063205 -0.176676 -0.119359 0.072271 0.155386 0.034989 0.129208 -0.110198 -0.254581 0.045839 -0.231938 0.119566 0.024607 -0.455999 -0.274706 -0.259441 -0.124994 -0.266289 0.28176 -0.145818 -0.18759 0.584392 0.238234 0.275808 0.284713 0.021332 -0.283571 -0.521977 -0.116652 0.228935 0.177842 -0.334713 0.265146 -0.262298 0.193155 0.599969 -0.311146 -0.348606 0.155047 0.019631 -0.414371 -0.106915 0.045305 0.061564 -0.029865 -0.414917 -0.467984 -0.034426 0.297579 0.160149 -0.004415 -0.028331 -0.125052 -0.106924 -0.54351 -0.105629 -0.360862 0.032808 0.055446 0.165073 -0.006358 -0.22014 0.233248 0.373432 0.143695 -0.308061 -0.596977 -0.232342 -0.152568 0.186279 0.051417 -0.571009 -0.136826 -0.342725 -0.382537 -0.278878 -0.282537 -0.413287 0.028728 -0.217749 0.267689
energy 0.393844 0.221451 -0.468597 0.409025 -0.148454 -0.525317 0.037504 -0.441573 -0.028942 -0.251406 0.377465 0.327852 0.44261 -0.182663 0.42235 -0.066633 0.090361 -0.369936 0.387812 -0.032366 -0.041243 0.124565 0.383537 -0.001651 0.442575 -0.055787 0.237644 0.424183 -0.454072 0.422799 -0.551881 -0.064779 -0.264094 0.053849 0.497661 -0.061335 0.199009 0.256405 -0.015605 -0.119349 0.605864 -0.070003 -0.290119 -0.218502 0.275887 0.135529 -0.192824 0.037699 0.14793 -0.328621 -0.198097 0.046607 0.310935 0.021644 0.211599 0.123356 -0.328052 -0.359237 0.016553 -0.206373 -0.26313 -0.17264 -0.200541 0.0217 -0.363503 -0.680933 -0.356473 -0.286502 0.206737 -0.03288 -0.438862 0.143914 -0.222293 0.172572 0.060541 0.055426 0.276816 0.134781 0.383304 0.049364 -0.316899 0.054744 0.440114 0.114279 -0.099431 -0.179833 -0.255987 0.443756 -0.117828 0.106302 -0.390409 -0.264945 -0.096801 -0.687494 -0.04601 0.034373 0.228249 -0.265901 -0.090963 -0.170913
announcement -0.312738 0.097566 -0.018534 -0.308059 0.019124 0.530022 -0.684387 -0.54672 -0.288869 0.24228 -0.420445 0.072743 -0.026047 -0.398773 0.058138 -0.227815 -0.197968 -0.196062 0.644068 0.353509 0.472637 -0.183835 0.157002 -0.601355 -0.002465 -0.056381 -0.127613 -0.253663 -0.072486 0.105105 -0.408528 0.140761 -0.547696 0.051499 0.379015 -0.094217 -0.145251 0.13318 0.140284 -0.086077 0.20566 0.060926 0.072701 -0.461187 0.337247 -0.147185 -0.206732 -0.57377 -0.074307 0.445391 -0.698004 0.314513 -0.072959 0.039445 0.796088 0.16303 0.100425 0.102513 0.574971 -0.200646 0.099968 0.171922 0.11396 -0.307198 -0.286856 -0.102267 -0.15255 0.065158 0.67018 -0.12222 0.122387 -0.406146 0.057965 0.19827 0.138157 0.09481 -0.158575 0.270856 0.214046 -0.173611 -0.175746 -0.476015 0.143718 -0.021855 -0.374635 0.022495 -0.052559 0.079786 0.018676 -0.368451 -0.037956 0.050059 -0.655138 -0.282857 0.174048 0.103002 0.452926 -0.098436 -0.12366 -0.311882
mile -0.112316 0.091928 0.007616 0.576917 0.055528 0.493938 0.770532 -0.005273 -0.081249 -0.713214 -0.056438 -0.259529 -0.448562 -0.07075 0.165803 0.202851 -0.563189 0.839564 0.096758 -0.380623 -0.275164 0.166626 0.447957 0.723817 -0.001753 -0.198706 -0.195581 0.052851 -0.385056 0.169751 -0.153745 0.685162 -0.231738 0.409352 -0.069573 -0.018997 0.040041 0.536674 0.396597 0.222545 0.84159 0.137626 -0.140828 -0.384581 -0.066261 -0.121485 -0.10695 -0.392705 0.12695 0.301192 -0.17469 -0.055105 -0.533979 0.532454 -0.279791 3.73E-4 -0.453344 -0.307673 -0.164075 -0.356078 0.30861 -0.156254 -0.348095 -5.11E-4 0.051901 -0.662779 -0.058053 0.325634 -0.3088 0.128221 0.357166 0.071781 -0.15145 0.771996 -0.368872 -0.279813 0.174104 -0.231539 0.155796 -0.160581 -0.07729 -0.369305 0.510444 -0.165397 0.363228 -0.01728 0.110906 -0.318546 0.022336 -0.036073 -0.274604 -0.192302 -0.093555 -0.476784 0.096827 0.049031 0.045167 0.305708 0.039787 0.115216
airport -0.200008 0.369892 -0.043089 0.439837 0.486444 0.082644 0.384543 -0.119361 -0.111126 -0.327721 -0.191397 -0.108044 0.18839 -0.170264 0.016551 -0.62778 -0.343271 0.291453 -0.258312 0.054407 0.451132 0.192434 0.269701 -0.362901 0.195128 0.085946 0.195906 -0.136947 -0.457774 0.315536 -0.007237 0.388319 -0.289883 -0.223965 0.296838 0.135449 0.365041 -0.092594 0.475609 -0.212638 0.431616 0.154018 -0.591562 -0.364803 0.074213 -0.30964 0.345501 -0.207752 0.104106 -0.328834 -0.464754 0.129752 0.393577 0.159416 0.2924 0.096596 -0.182692 -0.378965 0.124395 -0.29316 0.093286 -0.184731 0.040189 -0.166612 -0.150881 0.272912 -0.003501 -0.126921 0.156291 -0.531312 0.153411 -0.207367 -0.177427 0.237093 0.016332 -0.002847 0.329199 -0.651022 -0.261815 -0.161784 -0.001021 0.0443 0.785354 0.10931 0.510431 -0.121554 -0.01469 -0.231579 -0.237359 -0.351452 0.039519 0.47884 -0.619206 -0.283835 -0.154275 0.290163 0.123462 0.190093 -0.315038 -0.097479
population 0.134089 0.03126 -0.432668 0.342754 0.310657 0.039652 0.102971 0.303948 0.085708 -0.636281 -0.048655 0.755629 0.161174 -0.37426 -0.03859 -0.389696 -0.169146 0.092614 -0.119764 -0.044169 -0.377868 0.27246 0.021321 -0.016796 0.388196 -0.135873 0.024748 0.369307 -0.044995 -0.310496 -0.259658 0.485711 -0.330956 -0.157468 0.042271 0.008276 -0.079323 0.925811 0.130325 -0.139321 0.077665 -0.17148 0.05995 -0.265211 0.252807 0.064776 -0.121911 -0.207102 0.110701 -0.195869 -0.307585 0.327611 0.005378 0.091123 -0.021554 0.115227 -0.191959 -0.137316 0.258647 -0.272497 -0.204785 0.285376 0.376024 0.142981 -0.276213 -0.237581 0.035178 -0.014129 -0.170915 -0.461964 -0.012667 0.036452 0.05621 0.366661 0.018121 0.055811 0.065506 -0.163038 0.270917 -0.333852 -0.146222 -0.271046 0.299053 -0.131341 -0.077906 0.082472 -0.572917 0.329208 0.500061 0.001838 -0.507046 -0.835412 -0.236411 -0.033543 0.254088 0.0112 -0.531529 1.029646 -0.407461 0.280177
planning 0.325086 -0.109316 -0.301355 0.066695 -0.068782 -0.009656 -0.073383 -0.223658 -0.360812 0.013907 -0.113088 0.455478 0.102032 0.130484 0.109014 -0.096488 -0.010616 -0.145175 -0.316326 -0.088977 0.417774 0.262664 0.175629 -0.401718 -0.181506 -0.213225 -0.037594 -0.189001 -0.35785 0.227268 -0.09347 0.172 -0.231195 0.204823 -0.16599 0.058183 -0.002637 -0.110145 0.528327 -0.219136 0.4418 -0.02464 -0.317969 -0.012834 0.307267 -0.012242 0.034869 0.143416 0.239351 -0.104137 -0.085157 0.367803 0.333003 0.443595 0.416043 0.076345 -0.206653 -0.251403 -0.074751 -0.414471 0.182498 -0.23418 -0.004917 -0.171864 -0.124172 -0.255294 -0.016558 -0.015165 0.221707 0.140358 -0.177314 0.049601 0.358952 -0.02585 -0.170901 0.160699 -0.325629 -0.452518 0.497731 0.160087 0.188303 0.053001 0.06555 -0.024745 -0.035543 -0.039735 -0.030538 -0.244065 0.155627 -0.413415 0.011885 0.186071 -0.319862 -0.140177 0.064127 -0.076227 0.269754 0.002905 0.061456 -0.055341
canyon -0.63231 -0.02967 -0.071388 0.256334 0.474061 0.466538 0.383177 -0.305717 0.367011 -0.374557 -0.149508 0.176312 0.002812 0.004605 0.031409 -0.408632 -0.226843 -0.064553 -0.198198 -0.485622 -0.020046 0.174656 3.6E-5 0.502403 0.281624 0.093548 -0.359869 -0.033561 -0.224522 0.067707 0.318168 0.472703 -0.247328 -0.027997 0.070762 -0.125215 0.047059 0.150099 0.640973 0.478844 0.095388 -0.078004 0.223756 -0.260388 0.515799 -0.183778 0.194644 -0.445391 0.314773 -0.187084 -0.028704 -0.183547 -0.013807 0.019922 0.144815 -0.269794 -0.126525 -0.002272 0.029028 -0.026303 -0.092008 -0.086603 0.065406 -0.212173 0.014854 -0.378886 -0.00652 0.502581 0.057717 0.078167 0.039438 0.060758 0.022329 0.433078 -0.237649 0.100006 0.381611 -0.296352 0.078634 -0.287041 -0.021099 -0.283678 0.584885 -0.399357 0.820714 -0.135744 -0.241197 -0.236162 -0.257634 -0.162815 -1.086245 -0.172456 0.092903 -0.58685 0.23699 0.046218 -0.002457 0.522713 -0.186675 0.049587
delay 0.055782 0.067499 -0.50759 -0.193308 -0.015945 -0.065179 -0.061906 -0.126431 -0.450087 -0.175641 -0.414761 -0.097041 0.309359 0.051929 0.102877 -0.080634 -0.20672 -0.073438 0.129424 0.044543 0.567932 0.05166 0.256901 -0.120995 0.060721 0.146707 -0.19877 -0.097327 0.343433 -0.182681 -0.149447 0.353928 -0.306756 0.183555 -0.233848 -0.179993 -0.022459 0.247378 0.170739 -0.158955 0.515028 -0.067072 -0.111718 -0.39869 0.551122 -0.473361 -0.358127 -0.27712 0.01644 0.494863 -0.27706 0.266034 0.234557 0.36744 0.393206 0.130048 0.052895 -0.101411 0.182882 -0.007858 0.172781 -0.123617 0.053034 -0.154485 -0.095444 -0.287828 0.129138 0.056519 0.252859 0.091359 -0.701267 0.133223 0.108614 0.149634 0.268435 0.00207 -0.307351 -0.052164 0.201448 0.16448 0.060732 -0.237141 0.680032 -0.07779 0.096493 0.431281 0.236151 -0.161596 -0.174097 -0.421422 0.066694 -0.051309 -0.198936 -0.238564 0.279377 0.238452 0.355864 -0.366963 -0.044084 -0.161274
size 0.1235 0.214724 -0.240392 0.121654 0.135365 0.500078 0.135062 0.011856 -0.239547 -0.321329 0.081282 0.314541 0.084672 -0.157076 0.3808 -0.044785 -0.156477 0.332912 0.07956 -0.196678 -0.164571 -0.206711 0.028559 0.023836 0.119331 0.149027 -0.036098 -0.11958 0.155075 0.026412 -0.331379 0.234256 -0.310357 0.065942 -0.033127 -0.30181 -0.09787 0.512885 0.198626 0.009327 0.081478 0.010218 0.449475 -0.182016 -0.084192 -0.002918 0.171528 -0.196951 0.100013 -0.092446 -0.507432 -0.096282 0.00627 0.393915 -0.222119 -0.133148 -0.055663 0.025215 0.149893 -0.549575 -0.568483 0.015617 -0.301386 0.249156 -0.015176 -0.545794 0.247549 -0.10313 0.05691 -0.349594 -0.429749 0.237706 -0.17003 0.42531 0.156411 -0.05943 0.061847 -0.290804 0.382627 -0.185304 -0.419778 -0.142265 0.583778 -0.177026 -0.113648 0.044775 -0.458927 -0.124445 0.286615 -0.200336 -0.431243 -0.332061 -0.13579 0.209769 0.012867 -0.092701 0.008251 0.339639 -0.118118 -0.324318
peace -0.051614 -0.179648 -0.41553 -0.205029 -0.083544 -0.318073 -0.133866 -0.326405 -0.389678 -0.675179 -0.127893 0.937706 -0.304317 -0.014807 -0.238823 -0.468991 -0.464969 0.194721 0.176284 0.481935 0.51124 0.609439 -0.015722 -0.658805 0.1346 0.070272 0.320652 0.183905 0.083763 0.215503 0.056537 0.537792 0.011883 -0.512883 0.093396 -0.062709 -0.151321 0.725478 -0.174753 -0.315865 0.150822 -0.407969 -0.493351 -0.322711 0.154691 0.00452 -0.393597 -0.164022 0.181409 0.183157 -0.103877 0.306703 0.355541 0.190983 5.52E-4 0.686993 -0.081961 -0.014305 -0.814913 0.075901 -0.068213 0.074836 0.272752 0.401907 -0.474002 -0.489221 -0.144913 0.220668 0.349668 0.067993 -0.11761 -0.191638 0.344899 0.08914 0.079311 0.197817 -0.153949 0.2777 0.304514 0.366467 -0.123798 -0.426716 -0.50413 -0.730953 -0.032735 -0.083692 0.232519 -0.088945 -0.245204 -0.07851 -0.826031 0.125905 -0.099356 -1.10067 0.334332 0.33602 0.270635 -0.029724 0.226061 -0.343204
science 0.104082 0.112571 -0.517894 0.037977 0.048009 -0.655153 -0.221059 -0.286984 0.035584 0.081599 0.138337 0.389566 0.649105 0.074002 -0.189806 -0.084379 -0.471532 -0.050498 -0.340304 -0.339573 -0.159009 0.224876 0.460414 -0.118804 0.018684 0.513356 -0.106117 0.102706 -0.301563 0.460915 0.020339 0.293212 0.037399 0.254681 0.009559 -0.226698 -5.87E-4 0.082005 0.024714 -0.100317 0.275246 0.313144 -0.174848 0.019119 0.414419 -0.076655 -0.223896 -0.020502 -0.127016 -0.37567 0.042743 0.118613 -0.022306 0.246197 -0.292153 -0.005125 0.018636 0.182517 0.063313 -0.306856 -0.768674 0.261738 0.037036 0.261002 0.109178 -0.456948 0.15216 0.047167 0.219464 0.182254 0.081518 -0.055527 0.267786 0.138403 0.347977 0.167491 -0.232897 -0.045854 0.379569 0.272482 -0.400443 -0.086642 -0.070831 -0.105568 -0.469674 -0.324935 -0.13782 0.087694 -0.136381 -0.062376 -0.095748 0.09382 -0.098102 -0.81102 -0.080748 -0.371889 0.062472 0.17796 -0.376928 0.111914
dawn -0.292807 -0.471658 0.02095 0.08814 0.574987 0.402375 -0.283941 -0.433481 0.163663 0.192546 -0.607554 -0.143224 -0.325797 -0.149308 -0.102195 -0.034344 -0.796567 -0.007509 -0.007583 0.219622 -0.102249 0.275136 0.233168 -0.278983 0.387928 0.016384 0.18821 -0.114373 -0.407149 0.36813 0.293701 0.376033 -0.417718 -0.298292 -0.309793 -0.159391 0.109698 -0.068055 0.566865 0.404413 0.429799 -0.464433 -0.24907 0.100939 0.450724 -0.045613 0.140988 -0.266851 -0.184182 -0.07398 -0.324518 -0.158614 0.44076 0.087182 0.15636 0.17521 0.044347 -0.010834 0.098776 -0.153121 -0.133464 -0.24482 0.012272 0.013806 0.077168 -0.319951 -0.287354 0.612062 0.511546 -0.188336 -0.181808 -0.234926 0.158652 0.307677 -0.002592 -0.411513 0.162008 -0.324073 -0.240329 -0.039644 -0.204978 -0.216465 0.330593 -0.396835 -0.209796 0.053268 0.325978 -0.155886 -0.443999 0.0064 -0.176888 0.078466 -0.294387 -0.437543 0.013457 0.316078 0.258998 0.575863 -0.243592 -0.186027
brother -0.190295 -0.340147 0.130596 -0.426398 0.167963 0.130941 0.026178 0.44888 0.284125 -0.144555 0.197823 0.267741 -0.013695 -0.417304 -0.198447 -0.419854 0.002724 0.171376 -0.05039 -0.035803 -0.184888 0.287033 0.519779 0.469757 -0.135294 -0.134993 0.487264 -0.758114 -0.595823 -0.288137 -0.267816 0.817861 0.014885 -0.179644 0.582962 -0.082309 -0.192666 -0.059203 -3.82E-4 -0.266892 0.723548 -0.522254 0.17412 -0.025791 -0.003845 -0.184427 0.347032 -0.184837 0.329105 -0.106609 -0.213679 0.243484 0.465725 -0.200638 -0.012301 -0.103127 -0.598054 0.177793 0.37199 -0.736718 0.104559 -0.25757 0.113024 -0.293723 -0.250296 0.032696 0.063994 0.196488 0.498795 -0.359001 -0.002663 -0.05119 0.087418 -0.231116 0.457739 0.206546 -0.361363 0.253632 0.216151 0.113513 -0.276552 -0.097825 -0.158559 -0.055496 0.173675 -0.022659 0.077689 0.110737 0.165662 0.277761 0.199879 0.048629 -0.285676 -0.03733 0.276252 -0.324924 -0.187569 -0.301823 -0.102078 -0.371081
wine 0.332264 0.020454 -0.296635 0.345825 -0.149339 0.28499 -0.010667 0.206863 0.356884 0.084065 0.076212 -0.456677 0.102985 -0.093825 0.24408 -0.55414 -0.08718 -0.163168 0.034553 -0.188599 -0.211258 0.072009 -0.016807 0.063013 0.30185 -0.288867 0.057188 -0.085888 -0.188092 0.3521 -0.262192 0.212206 -0.561976 -0.192433 0.248523 -0.417458 0.10283 0.056658 0.493228 -0.074578 -0.275831 0.246846 -0.104844 -0.116809 -0.142892 0.151988 0.027315 -0.154499 0.460068 -0.176056 -0.323763 -0.287987 -0.014649 -0.002908 -0.0253 0.229129 -0.127285 -0.106579 -0.085708 -0.343629 -0.197024 -0.416781 -0.18259 -0.145674 0.11788 -0.449942 -0.184953 0.159006 -0.139823 -0.402119 -0.149623 0.194814 -0.509386 0.02274 0.156122 -0.097424 -0.3423 -0.398037 0.107394 0.279918 -0.428036 0.067874 -0.095455 -0.158579 -0.588378 0.147515 -0.033384 -0.115259 0.232459 0.076532 -0.938765 -0.582312 0.013234 -0.543801 -0.074141 0.083222 -0.050656 0.10417 -0.663152 0.176993
object -0.579058 0.225592 0.117943 -0.14737 0.047988 -0.111955 0.038743 0.07697 -0.247074 -0.159243 -0.231766 0.081357 0.198957 -0.058073 0.190059 0.008494 -0.164025 0.122757 0.027967 -0.093825 0.25414 0.2005 0.309214 -0.322532 0.427639 0.1075 0.050656 -0.121676 0.111874 0.23406 -0.065569 0.270954 -0.002505 0.057417 -0.037652 -0.423925 0.259701 0.029227 0.384944 -0.007734 0.248797 -0.163746 0.013603 0.027434 0.223927 -0.427222 -0.011363 -0.17481 0.177014 -0.047208 -0.294219 0.014562 -0.110185 0.160179 -0.272947 -0.15525 0.24672 -0.07622 0.094995 -0.269166 -0.171076 0.163623 -0.012062 -0.315771 0.053023 -0.487648 -0.082294 0.292176 0.190284 -0.602388 -0.05392 0.189308 -0.061936 0.136029 0.280814 0.272624 0.099927 -0.494801 0.451891 -0.093556 -0.374353 -0.488525 0.303973 0.038953 -0.20643 -0.097805 0.029192 -0.095212 0.204035 -0.047081 -0.281797 -0.023142 0.037934 -0.080675 0.327888 -0.178984 0.101162 0.022096 -0.157047 -0.358006
attitude 0.033558 0.121638 -0.059229 -0.431789 -0.308417 -0.111129 -0.321407 0.133861 0.017306 -0.079631 -0.100594 0.486211 0.028591 -0.157437 0.251863 -0.190545 -0.170296 -0.275418 0.16514 0.073029 -0.052219 0.033155 0.481743 -0.165876 0.568497 0.366986 0.260419 0.19495 -0.07294 -0.143077 0.19015 0.166285 -0.329407 -0.055501 0.267137 -0.308537 0.330452 0.27988 -0.125235 0.065724 0.175955 0.019661 0.169973 -0.232766 0.128917 -0.072127 0.121782 0.007805 0.157105 -0.193931 -0.611082 0.444687 0.196649 0.677183 -0.196685 -0.069937 -0.256954 -0.043106 0.005519 -0.522497 0.02016 0.313088 -0.059815 -0.205578 -0.063872 -0.400587 0.028305 0.178387 0.126679 -0.101819 -0.116481 0.109946 0.021382 0.577021 0.555137 0.50479 -0.307217 -0.309875 0.268764 -0.077343 -0.305802 -0.440182 -0.358521 -0.126972 0.131398 -0.182058 0.347786 0.079636 0.12117 -0.364166 -0.186465 0.378463 -0.234098 -0.401384 0.449697 -0.642975 -0.150719 -0.121982 -0.227093 -0.148946
treatment 0.401779 0.251991 -0.35552 0.051784 0.077421 -0.334193 0.097659 0.367973 0.182372 -0.208063 -0.188507 -0.220437 0.150263 -0.290728 -0.111239 -0.610394 0.074878 -0.281522 0.217188 -0.113994 0.409977 -0.066046 0.387647 0.227686 -0.048184 0.092384 -0.09669 -0.256368 0.354513 -0.004901 -0.481333 0.765064 -0.334997 -0.113493 0.114514 0.081675 -0.249681 0.3528 0.562855 -0.222491 0.132528 -0.12161 -0.014095 0.101496 0.468906 -0.24093 -0.293183 0.331687 -0.512621 -0.357324 -0.40826 0.072363 0.604121 0.223416 -0.235985 0.352975 -0.22058 -0.051053 0.075327 -0.20312 -0.033649 0.112831 -0.05316 0.141669 0.134785 -0.095292 -0.004863 -0.224321 0.227319 0.076269 -0.197471 0.332656 0.386979 0.109465 0.090354 0.381865 -0.440657 -0.121071 0.119365 -0.294626 0.097953 -0.219959 0.071651 -0.257661 -0.092263 -0.068312 0.06292 -0.294854 -0.129669 -0.24325 0.102777 -0.226535 -0.32453 -0.52025 -0.198374 -0.097999 0.520537 -0.023863 -0.229361 0.115
flight 0.254051 0.280962 -0.230659 0.227698 0.43935 0.121294 0.140511 0.161278 0.118745 -0.268945 -0.263706 0.005437 0.151125 -0.059549 -0.129215 -0.476637 -0.26857 0.343119 -0.505432 -0.186821 0.653044 0.022238 0.46703 -0.093579 -0.051028 0.272631 0.10613 -0.23251 -0.356792 0.055425 -0.171874 0.488518 -0.251868 -0.053172 -0.137766 -0.469781 0.330494 0.256418 0.526676 -0.325707 0.201527 0.260718 -0.367507 0.077247 0.142789 -0.623929 0.172197 -0.186889 -0.332845 0.163397 -0.479734 -0.091445 0.037444 0.145429 0.508738 -0.123055 -0.385364 -0.214749 0.030627 -0.337182 -0.004448 -0.472305 0.117659 -0.359994 -0.076084 0.126024 0.210563 0.041705 0.187988 -0.390665 -0.019947 -0.154268 -0.352803 0.422786 -0.006791 0.010195 -0.179671 -0.252314 -0.12874 -0.249437 -0.545209 -0.233508 0.561915 0.361818 0.18983 -0.094311 -0.108245 -0.076892 -0.762358 -0.448728 0.016751 0.651835 -0.191311 0.045723 0.005237 0.12331 0.245472 0.066126 -0.273786 0.104104
forest -0.26985 -0.225097 -0.329428 0.485403 0.138542 0.110448 0.067211 -0.454499 0.298598 -0.149731 0.027544 0.448566 0.197366 -0.207708 0.256005 -0.402183 -0.278786 -0.014063 -0.046744 -0.21435 -0.026892 0.115543 0.123515 0.186598 0.437631 -0.154973 -0.336545 0.363534 -0.258511 0.140882 -0.091195 0.610923 -0.198942 -0.080375 -0.267873 0.01875 -0.093522 0.301688 0.472281 0.213801 0.058342 -0.338695 0.212293 -0.014115 0.401312 -0.038636 -0.039329 -0.589275 0.622746 -0.229374 0.024472 -0.042143 0.248837 -0.213308 0.008448 0.00638 -0.253774 -0.151367 0.194701 0.138376 -0.010113 -0.071048 0.197123 -0.061713 0.200589 -0.619482 -0.233814 0.061019 0.233379 -0.162936 -0.156294 0.019985 -0.205926 0.25244 -0.334011 -0.1441 0.40295 -0.379318 0.35694 -0.045884 0.11066 -0.227013 0.235823 -0.313559 0.434266 -0.102505 -0.504522 0.078836 0.035665 -0.200267 -0.715412 -0.422476 0.074153 -0.584106 0.060309 -0.053783 0.247247 0.365837 0.007201 0.305494
abuse 0.263426 0.552444 -0.255083 -0.217743 -0.066543 -0.409941 -0.03959 0.172509 -0.141346 0.249076 -0.369684 0.320446 0.600052 -0.375186 0.197254 -0.29395 -0.139434 0.295908 0.183909 0.542208 -0.331284 0.258405 0.409863 -0.36434 -0.145457 -0.058137 0.176354 0.118804 0.388416 0.184149 0.194503 0.376693 -0.223662 -0.019695 -0.330394 -0.002205 -0.066854 0.147804 0.659383 0.296072 0.175172 0.131014 0.054329 -0.035457 0.088887 -0.108025 -0.133209 -0.145509 -0.314783 -0.012553 -0.094069 0.366725 1.065389 -0.147197 -0.341842 -0.03864 -0.366732 -0.197744 0.202161 -0.71273 0.088261 0.059739 0.176375 0.041505 -0.196346 -0.154578 0.131009 0.398443 0.008578 0.220072 -0.148 0.136794 0.523245 -0.338573 0.064172 0.401993 -0.08571 -0.463669 0.234828 -0.348291 0.128351 -0.767209 0.178544 -0.591502 -0.013577 0.227159 -0.062721 -0.032183 0.256393 0.133424 0.074273 -0.636372 0.124193 -0.445905 0.340891 -0.206181 0.194496 -0.093757 -0.721592 -0.206776
criterion 0.052805 -0.173619 -0.242418 -0.038879 -0.203126 -0.35553 0.101352 0.061159 -0.279432 0.092411 0.120506 0.32735 -0.057396 -0.354912 0.11886 -0.091754 0.316256 0.139637 -0.169232 -0.558201 0.645583 -0.032158 -0.129855 -0.438994 -0.135811 0.487757 -0.219074 0.099716 0.48643 0.294144 -0.171171 0.453651 -0.192137 -0.104532 0.316709 0.098674 -0.016925 0.317625 -0.260744 -0.080447 0.556725 -0.169767 0.144913 0.128375 0.215336 -0.582163 -0.337285 0.016995 0.051107 0.045211 -0.481133 0.087864 -0.069413 0.257139 0.135202 0.324932 -0.0608 0.30649 -0.087825 -0.929616 -0.260557 0.498946 -0.144562 -0.095993 0.028194 0.028357 0.24177 0.227153 -0.093446 -0.028297 -0.208864 0.009038 -0.261234 0.714114 -0.129144 0.276885 -0.222502 -0.638154 0.634116 0.248195 -0.310608 0.064994 -0.008582 -0.005502 -0.516776 0.186504 -0.064414 -0.398977 -0.059768 -0.338789 -0.086822 -0.124543 -0.285086 -0.719683 0.106809 -0.183165 0.058914 -0.10674 -0.221294 -0.032668
sea -0.36346 -0.023477 -0.378685 0.323219 0.374897 0.029709 0.251745 -0.301851 0.523042 -0.370776 -0.143437 0.225855 0.041736 -0.068245 0.365234 -0.290636 -0.505376 0.04884 -0.112277 -0.334881 8.05E-4 0.185401 0.159122 0.136429 0.740684 -0.007008 -0.119264 -0.241108 -0.269345 0.167526 0.381137 0.280053 -0.538821 -0.00176 -0.420827 -0.119238 -0.166732 0.614662 0.482317 -0.025188 0.183084 -0.181345 0.015865 0.041463 0.485116 -0.222422 0.275401 -0.132182 -0.115916 -0.09613 -0.048675 -0.254314 0.313104 -0.108079 0.093818 -0.215555 -0.095471 -0.066947 -0.049734 -0.099615 -0.227684 -0.08089 0.298289 -0.110258 0.160124 -0.664365 -0.372316 0.125602 -0.161638 -0.336253 -0.069125 -0.132379 -0.35324 0.367302 -0.488904 -0.103923 0.314693 -0.273783 0.296046 0.379872 -0.563464 -0.313909 0.268962 -0.458737 0.350397 -0.075828 -0.404583 -0.073147 -0.160591 -0.034816 -0.590449 -0.003713 0.099198 -0.460928 -0.079191 0.13226 -0.019606 0.141986 -0.365686 0.024069
dollar 0.071752 -0.020865 0.029925 0.441277 0.273906 -0.43487 0.088436 0.101562 0.016449 -0.405035 -0.118156 0.018373 -0.352873 0.051815 -0.004995 -0.135834 0.347586 -0.241767 0.425181 -0.14674 0.107449 0.157621 -0.019772 0.064431 0.227602 -0.350901 0.055235 0.706733 -0.15812 0.125067 0.455947 -0.151885 -0.299932 -0.109112 0.214135 -0.984556 -0.339653 0.20807 0.184899 0.141354 0.798514 0.072271 0.047918 -0.01414 -0.057645 -0.180732 -0.523669 0.093103 -0.347753 0.003137 -0.693867 -0.182332 0.398763 0.542198 0.257619 -0.296761 0.154685 0.427558 0.566138 0.156879 0.072516 -0.401016 0.261077 0.248081 -0.7748 -0.331431 -0.270581 0.207961 -0.294779 -0.08681 -0.644849 -0.095854 -0.315621 -0.054713 -0.190087 0.163943 -0.235754 -0.229029 0.332594 0.06867 -0.415955 -0.03609 0.133599 -0.456614 -0.076053 -0.422904 -0.609439 0.082592 -0.272918 -0.19403 -0.646345 -0.558044 -0.616409 -0.185896 -0.105858 0.135681 -0.295855 0.005313 -0.277055 -0.056789
example 0.171094 -0.00676 -0.091052 -0.444986 0.099773 -0.166446 -0.191869 -0.089376 -0.041874 -0.104091 -0.104258 0.333227 0.165775 -0.406486 0.27959 0.115068 -0.031789 -0.124274 0.218167 -0.197113 0.426627 0.405504 0.227112 -0.305538 -0.06659 0.076895 -0.009237 -0.151488 0.0822 0.453581 -0.802296 0.290903 -0.206608 -0.491204 0.197062 0.038949 0.004555 0.140275 -0.189877 -0.328897 -0.117284 -0.232259 0.348132 -0.034129 0.106426 -0.030022 -0.145481 -0.186314 -0.183215 -0.00498 -0.302115 0.032311 -0.229959 0.174459 -0.180819 0.371256 0.084284 0.133733 0.434629 -0.346496 0.048591 -0.345123 0.21345 0.161213 -0.280888 -0.243609 -0.201433 0.83501 0.043976 -0.040762 -0.333536 0.130312 0.00144 0.154916 -0.294418 0.296627 -0.085089 -0.989883 0.095018 0.105288 -0.282863 0.114878 0.141112 0.128837 -0.166404 -0.011379 0.225783 -0.184311 0.346731 -0.442485 0.070509 -0.023572 -0.337302 -0.554716 -0.360102 -0.552295 -0.022109 0.085396 -0.070909 0.451167
journal 0.009597 -0.014367 -1.016603 -0.111339 0.327955 -0.040864 -1.052671 0.238197 -0.052574 -0.417941 -0.105367 0.146552 0.733906 -0.07317 -0.006394 -0.23736 0.094865 -0.012491 0.64487 -1.21264 -0.269711 0.445973 -0.372194 -0.025884 -0.049086 0.064773 0.177207 0.810877 -0.542469 0.047259 -0.153286 1.35426 -0.477587 0.614576 -0.14021 0.005594 -0.306647 0.417161 0.205382 -0.075683 -0.571481 0.823103 -0.207083 -0.497327 0.839734 -0.744315 -0.251845 -0.568933 -0.401658 -0.046217 -0.018282 -0.227115 0.648579 0.634289 -0.416665 0.169472 1.021111 0.339871 0.247876 -0.12522 -1.099463 -0.877 -0.348512 0.390135 0.190761 0.579863 -0.319909 0.432298 0.039051 0.205425 0.399365 -0.236104 0.42205 -0.144499 0.723617 0.63029 -0.128468 -0.118779 -0.114613 -0.58462 -0.51872 0.022538 -0.738872 0.045786 -0.259177 -1.041356 -0.025101 -0.232217 0.219373 -0.137311 -0.310628 0.207647 -0.066127 -0.723038 0.334017 0.168435 0.222316 0.133854 -0.401337 0.367835
laundering 1.099694 0.9492 -0.391825 0.310483 0.39255 -0.585803 -0.078175 0.373393 -0.836503 0.808595 0.203084 0.412182 0.511446 0.106911 0.143055 -0.90967 0.44977 0.405267 0.114193 -0.041186 0.110203 0.448791 0.804858 -0.791117 0.219127 -0.012867 -0.229581 -0.541391 -0.568729 0.746872 -0.760665 0.232923 -0.254601 -0.028873 -1.108886 -0.530279 -0.055644 -0.412663 0.533133 0.201075 0.925628 0.447673 0.240462 0.056378 -0.408186 0.252055 0.025712 -0.116838 -0.078685 0.193557 -0.012265 -0.114007 1.027701 0.195616 0.24343 0.11629 -0.419915 0.090014 0.007528 -0.338531 0.267044 -0.465981 -0.550627 0.326 -0.17479 0.262549 -0.450783 0.687674 -0.324007 0.232369 -0.716356 0.53085 0.605193 -0.465955 0.304893 0.012009 0.295601 -0.359248 0.630346 -0.118651 0.47092 0.313972 0.682245 -0.392213 -0.233994 -0.415673 -0.17094 0.624951 -0.184067 0.685259 -0.867123 -0.337563 -0.006098 0.031818 -0.515066 0.249223 0.191657 -0.268557 -0.154718 -0.326251
hotel -0.412918 0.07876 -0.105023 0.466326 0.229715 0.505388 0.123624 0.204509 0.117793 -0.101763 -0.344332 -0.433652 0.216647 0.065173 0.277321 -0.689352 -0.119411 0.224076 -0.152207 0.041194 0.088983 0.122429 -0.036726 0.160227 -0.287228 -0.06104 0.312155 -0.380363 -0.26671 -0.07798 0.054552 0.149636 -0.011123 -0.309442 0.402549 -0.115118 0.22144 -0.142774 0.47434 -0.202775 0.454543 0.022653 -0.247168 -0.232519 0.039627 -0.026283 0.317513 -0.101962 0.228564 -0.469995 -0.289529 -0.412272 0.04119 0.454203 0.10178 0.165932 -0.293354 -0.005577 -0.201045 -0.281332 -0.002605 -0.382103 -0.222311 -0.271564 -0.354904 -0.019403 -0.137879 -0.067 0.254527 -0.181388 0.028872 -0.242907 -0.088467 0.094856 -0.139596 0.203985 -0.021764 -0.590685 0.032452 0.063951 -0.026386 0.130383 0.264143 0.167942 0.049584 -0.456736 0.02419 -0.419348 -0.072883 -0.335815 -0.452631 0.108802 -0.433509 -0.66893 0.059137 0.204627 0.222879 0.210925 -0.315259 0.022337
term 0.263785 -0.223203 -0.23678 -0.189622 -0.001212 0.039502 0.065963 0.170111 0.079229 0.284106 0.104462 0.507068 -0.302813 0.238787 -0.015458 -0.032712 -0.135224 -0.052342 0.48805 -0.312019 0.442795 0.154546 0.35626 -0.169881 -0.071046 0.232746 0.191812 -0.092717 0.225443 -0.035288 0.175371 0.708466 -0.315508 -0.210816 0.427846 -0.147777 -0.268963 0.236709 -0.388046 -0.131319 0.762769 -0.127389 -0.046791 0.054782 0.226699 -0.441342 -0.300098 -0.304485 -0.144427 0.043926 0.049485 0.032728 0.418115 0.569832 0.123362 0.094096 -0.200776 0.291195 0.017919 -0.446084 0.094021 0.475916 -0.324371 -0.356031 -0.107593 -0.214451 -0.052815 0.590215 -0.229105 0.097801 -0.672936 0.367622 -0.292625 0.202177 -0.12634 -0.086285 -0.036549 0.16805 -0.27083 0.227013 -0.149716 0.185931 0.542427 0.115629 0.168022 0.172045 0.363744 -0.223609 0.142293 -0.297033 -0.655045 -0.512016 -0.089588 -0.352158 0.264656 0.342549 0.006621 0.382042 -0.104621 -0.036246
listing 0.269429 -0.189058 -0.233125 0.006445 0.098647 0.468865 0.08078 -0.025077 -0.212331 -0.268008 0.076058 0.04814 0.018397 -0.374803 -0.090492 -0.213022 -0.098956 -0.013449 0.188397 -0.065911 0.097367 0.058785 -0.264431 -0.223874 -0.266299 0.196517 -0.236068 0.143095 0.12903 0.150536 -0.221086 0.147714 -0.384421 -0.413187 -0.049047 -0.359786 -0.265243 -0.15182 0.325314 -0.12158 0.351921 0.152301 0.056439 -0.087074 0.102749 -0.169289 -0.335444 -0.31056 -0.050661 0.02591 -0.04923 -0.205878 0.135809 0.099813 0.530241 0.144425 -0.14735 0.376805 0.082648 -0.545364 -0.115837 -0.074822 0.001161 -0.236933 -0.211785 -0.054774 -0.110035 0.133286 0.251586 -0.064979 -0.362297 0.021918 -0.292887 -0.085161 -0.325118 0.241244 -0.094163 -0.512243 0.215856 -0.224687 -0.210679 0.043495 0.031579 0.160297 0.028253 -0.370908 -0.146576 -0.198986 0.121609 -0.532757 -0.199133 0.067391 -0.20647 -0.383643 -0.261075 0.266026 0.13897 0.296025 -0.082792 -0.197444
chemistry 0.209387 -0.025169 -0.408253 -0.207718 0.028761 -0.363609 -0.289015 -0.248744 -0.00723 -0.25597 0.085177 0.258412 0.17815 -0.352923 -0.380346 -0.272901 -0.473001 -0.144054 -0.343873 -0.275685 -0.121531 -0.054125 0.530303 0.121386 0.101883 0.500422 -0.175948 -0.358059 0.102641 0.08779 -0.259546 0.408786 -0.150441 0.162369 0.040941 -0.157076 0.233476 -0.19444 0.268693 -0.179392 0.176898 0.32088 0.016594 0.249987 0.332308 -0.302957 -0.12157 -0.100331 -0.016265 -0.421657 0.031745 0.228432 0.28061 0.12273 -0.486289 -0.027325 0.17201 0.183569 -0.014957 -0.301256 -0.528181 0.224442 0.082348 0.354123 0.3556 -0.566194 0.026422 -0.168302 0.230093 -0.012983 0.129207 0.090546 -0.13065 0.14836 0.535422 0.340068 -0.243601 0.198088 0.298395 0.162651 -0.515028 0.238434 -0.027174 -0.309747 -0.438935 -0.418045 -0.428541 -0.174111 -0.415329 0.143393 -0.225613 -0.131895 -0.210211 -0.929893 -0.067382 -0.345889 -0.018792 0.045707 -0.126767 0.022953
seafood 0.31061 -0.085024 -0.428282 0.56373 -0.125596 0.326101 -0.143517 -0.030342 0.168288 -0.063227 0.047629 -0.443417 0.142919 -0.240401 0.082448 -0.81182 -0.036948 -0.37172 -0.088049 -0.166315 -0.316872 -0.249554 -0.06699 -0.059917 0.488057 -0.290823 -0.102129 0.055771 -0.083836 0.26543 -0.50844 0.005089 -0.428356 -0.136389 0.090041 -0.373286 -0.019579 0.373542 0.672153 -0.165614 -0.264071 0.30881 -0.245396 -0.028939 -0.112872 0.137545 0.18645 -0.071391 0.129883 -0.227502 -0.152948 -0.10824 0.030114 -0.039943 0.078575 0.070636 -0.155627 0.096168 -0.013329 -0.3218 0.036436 -0.53209 -0.337409 -0.150811 0.008768 -0.283166 -0.130119 0.086998 0.007461 -0.455024 -0.152116 0.298647 -0.326711 0.336714 -0.062439 0.009569 -0.200318 -0.415821 0.164295 0.41083 -0.394984 0.31583 -0.101677 -0.247867 -0.425024 0.181543 0.090263 -0.003687 -0.085493 0.103685 -1.072453 -0.391093 -0.074467 -0.824924 -0.073545 -0.100486 -0.045887 -0.185621 -0.658843 0.625003
CD 0.386493 -0.509074 0.103447 0.11291 -0.348211 0.393422 0.202519 0.225571 -0.279038 0.205038 0.029706 -0.164076 -0.143068 -0.187359 0.182243 -0.17092 0.343499 -0.082895 -0.150634 0.085729 -0.291804 0.197883 0.178274 0.226371 -0.191961 0.282956 -0.047186 -0.27827 -0.025691 0.266533 -0.048522 0.378846 -0.187884 -0.581793 0.207501 -0.061165 -0.381108 0.084391 0.162771 0.193856 0.105768 0.297158 -0.103058 0.301525 -0.442512 -0.480057 0.020917 -0.782207 0.26178 -0.178935 -0.581929 -0.211104 -0.019211 0.358822 0.328422 0.114147 0.124694 0.174434 0.106608 -0.166235 -0.371651 -0.307356 0.801281 -0.309611 0.023011 -0.444362 -0.169086 0.303768 0.284859 0.061809 -0.274435 0.19354 0.160683 -0.175545 -0.023533 -0.009439 -0.198272 0.078168 0.530436 -0.194461 -0.104464 -0.087999 -0.13008 0.43527 -0.627815 -0.245376 -0.325041 -0.171819 -0.104262 -0.317553 -0.516154 -0.524612 -0.365119 -0.259795 -0.454005 -0.114022 0.078731 -0.19092 -0.30426 -0.233898
mind -0.390577 0.193097 -0.075532 -0.311034 -0.296336 0.43332 -0.335916 0.139928 0.082002 -0.06799 -0.090334 0.40213 0.231679 -0.160348 0.130553 0.055521 -0.195622 -0.262383 0.40238 0.11056 -0.350661 0.227499 0.376261 -0.090755 0.40437 0.270647 0.433893 -0.098075 -0.108976 -0.179005 -0.030427 0.501841 0.124961 -0.268044 0.140498 -0.314669 0.039914 -0.076468 -0.172662 -0.184442 0.307798 -0.269698 0.305527 0.15712 0.136434 -0.516974 0.07502 -0.288642 0.173699 -0.319917 -0.057709 0.142984 -0.022019 0.739441 0.14256 0.30384 0.111953 0.04167 0.174749 -0.311467 -0.227077 0.301217 -0.127089 -0.350225 -0.071356 -0.288794 0.08811 0.239204 0.424345 -0.381227 -0.125905 0.187879 -0.010359 -0.058889 0.324381 0.122752 -0.222414 -0.272718 0.520621 0.225187 -0.225788 -0.279471 -0.109574 -0.198445 0.176714 -0.252514 -0.118572 -0.027857 -0.19395 -0.105205 -0.35911 -0.086517 -0.099815 -0.363441 0.02393 -0.42815 0.035967 -0.05926 -0.212313 -0.455055
sex 0.483737 0.216692 -0.20021 -0.017011 -0.109509 -0.324182 0.095646 0.775765 -0.181557 -0.197128 -0.242834 0.301542 0.18796 -0.47405 0.117668 -0.459899 -0.16048 0.124231 -0.056684 0.225287 -0.205456 0.393284 0.32459 0.245735 -0.167304 0.143747 0.419629 -0.204641 0.266367 -0.052308 0.224643 0.299447 -0.144435 -0.369145 -0.326374 -0.08777 -0.001095 -0.262004 0.619637 0.146356 0.449185 0.135404 -0.477544 0.03823 0.24875 -0.16704 -0.087173 0.078921 0.035952 0.058378 0.339332 0.405696 0.437087 0.017119 -0.094862 0.144526 -0.070958 -0.067989 -0.158888 -0.549331 0.207962 0.169488 0.12193 -0.018052 -0.189876 -0.443685 0.25233 0.633832 -0.187712 -0.05765 -0.267271 0.199914 -0.184736 0.028706 0.187324 0.141175 -0.275847 -0.562087 0.313209 -0.206066 0.27422 -0.401781 -0.225867 -0.298353 -0.232257 -0.156413 -0.151017 -0.141585 -0.057872 0.075497 -0.268689 -0.437886 -0.213905 -0.311572 0.444501 -0.242925 0.071051 -0.154962 -0.731955 0.060789
food 0.529831 0.183833 -0.577058 0.480612 -0.16459 -0.176628 -0.065785 0.050706 0.254131 -0.162786 -0.059902 -0.133375 0.454511 -0.302853 0.115168 -0.402502 0.032339 -0.296913 0.192878 0.003821 -0.138618 0.086923 0.115508 0.179479 0.66124 -0.270219 0.192336 0.180305 -0.106019 0.214878 -0.329323 -0.016244 -0.278322 -0.206888 0.168191 0.067696 0.076636 0.16993 0.475772 -0.120462 -0.091266 0.118609 -0.234258 0.14819 0.349939 -0.139291 0.054027 -0.028501 0.08921 -0.268512 -0.231469 -0.259734 0.206308 0.020988 0.146078 0.134053 -0.520225 -0.435045 0.051831 -0.28215 -0.30424 -0.495138 -0.117394 0.007977 -0.276174 -0.256653 0.021494 -0.190599 0.160398 -0.232391 -0.427381 -0.033238 -0.027911 0.076628 -0.104385 0.033715 -0.170172 -0.309923 0.109972 0.260022 -0.282906 0.106274 -0.09882 -0.182298 -0.337147 0.214312 -0.028034 0.072816 -0.070875 0.008872 -0.603858 -0.5943 -0.309815 -0.702531 -0.293126 -0.034596 -0.110494 -0.39185 -0.452074 0.330145
precedent -0.022439 -0.01879 -0.062544 -0.192068 0.024996 -0.613562 -0.180878 -0.419733 -0.043936 0.08589 -0.205985 0.028048 0.586722 -0.251298 0.072151 -0.322121 0.095781 -0.31927 0.081114 0.154159 0.476529 0.045514 0.076974 -0.474406 0.295465 0.284511 -0.086834 0.02998 0.381717 0.480992 0.040299 0.364315 -0.39056 -0.448528 0.010344 -0.265907 0.056195 0.154473 -0.174522 -0.085598 0.250802 -0.049867 0.184362 -0.148904 0.136709 -0.436076 -0.844214 -0.451627 0.137185 0.104046 -0.064921 0.169145 -0.062505 0.229275 0.242368 0.243547 -0.548478 0.13383 -0.071403 -0.290126 0.081356 0.361999 0.386141 -0.319467 -0.488139 -0.370913 0.149031 1.004199 -0.137487 -0.44296 -0.278605 0.14259 0.004817 0.429473 0.614382 0.293982 -0.008457 -0.523493 0.304778 0.6433 0.248651 0.167229 0.208102 -0.360031 -0.226205 -0.177705 0.095231 -0.012187 -0.161092 -0.170623 -0.105412 0.475538 -0.359378 -1.049753 0.296884 -0.322841 -0.253619 0.28654 -0.042073 0.078446
series 0.107925 0.268447 0.062 -0.228066 -0.393515 0.02595 0.030883 -0.161897 0.007016 0.160567 -0.197367 0.021396 0.447319 0.416257 0.256254 -0.236007 -0.505106 0.011116 0.055809 -0.198454 0.168156 0.057711 -0.023831 0.2012 -0.396445 0.389476 0.129478 -0.264149 0.052863 0.028959 0.334061 0.157917 -0.315221 -0.14922 -0.56342 -0.094588 -0.128515 0.176288 0.2855 0.22434 0.108562 0.196226 0.67621 -0.182006 0.309099 -0.275157 -0.261683 -0.172063 0.251389 0.416724 -0.590121 0.223677 -0.018 0.078107 0.348459 0.256089 -0.195789 0.407359 -0.18531 -0.061005 -0.250693 -0.463431 0.356302 0.225029 -0.010155 -0.269717 0.043953 0.489199 0.48873 0.225259 -0.364874 -0.048725 0.497192 0.132113 -0.059583 -0.222475 0.038943 0.196743 -0.046753 -0.037542 -0.038286 -0.10663 0.019002 0.348105 -0.552951 -0.410719 0.25003 -0.32794 -0.108353 0.0675 -0.178264 -0.305064 -0.401043 -0.339565 0.382167 -0.231621 0.321403 0.102202 -0.194151 -0.062588
kilometer -0.401544 0.076255 0.123472 0.479584 -0.045885 0.360455 0.844754 -0.042873 0.158217 -0.839928 -0.02028 -0.42586 -0.541072 0.08024 0.170865 0.058779 -0.622763 0.702267 0.00779 -0.46148 -0.329921 -0.041736 0.370247 0.278163 -0.035999 -0.656441 -0.513759 0.44488 -0.212407 0.168022 -0.359911 0.844383 -0.316395 0.32116 -0.414008 -0.21791 -0.103851 0.887017 0.181369 0.253735 1.185651 0.111109 -0.235309 -0.53148 -0.099685 -0.174434 -0.130167 -0.256111 0.521181 0.484437 -0.391775 0.08674 -0.318251 0.252301 -0.357666 0.153155 0.03316 -0.437002 -0.153542 -0.337398 0.284769 -0.23588 -0.369718 0.118885 0.238313 -0.666793 -0.202366 0.183142 -0.577439 -0.201701 0.17225 0.279457 -0.41581 1.012234 -0.194328 -0.420348 0.438694 -0.178852 -0.18153 -0.166156 -0.121724 -0.284272 0.459813 -0.154316 0.373747 -0.102215 -0.087977 -0.472201 0.164639 -0.207201 -0.204158 0.017053 -0.244186 -0.235173 0.04302 -0.05699 0.218431 0.472415 -0.212336 -0.146274
grocery 0.214541 0.05361 -0.385442 0.648916 -0.261219 0.525583 0.070323 0.312476 -0.016059 -0.002357 -0.367932 -0.468587 0.151857 -0.255982 0.519908 -0.292982 0.035463 -0.039437 0.065283 0.015623 -0.549732 0.162733 -0.115311 0.519307 0.292299 -0.462724 0.078402 0.181263 -0.128759 0.217469 -0.346715 0.288333 -0.027956 0.129484 0.357648 -0.226224 0.509291 -0.25268 0.715017 0.241578 -0.134028 0.167394 -0.649126 -0.274539 -0.081436 -0.306894 0.373461 -0.232153 0.382414 -0.535311 -0.239082 -0.304709 0.228255 0.194179 0.375566 -0.154683 -0.43752 0.029925 0.481366 -0.423439 -0.163013 -0.593144 -0.303021 -0.086375 -0.332448 0.303116 -0.098128 0.13175 0.341547 -0.320556 4.98E-4 -0.229109 0.303022 0.092628 -0.427425 -0.004526 -0.188802 -0.4316 0.087707 0.225317 0.065481 0.189842 0.258597 -0.038964 -0.454056 -0.099295 -0.117299 -0.161276 0.23495 -0.428714 -0.639149 -0.727215 -0.182699 -0.639591 0.153435 0.032948 -0.139136 0.20175 -0.672259 0.313553
wizard -0.149939 -0.325828 0.213777 -0.085907 -0.101051 -0.206068 0.372995 0.461203 0.061518 0.44514 0.303901 0.088458 -0.240558 -9.78E-4 -0.025791 -0.164541 -0.466677 0.342402 -0.340747 -0.248478 -0.072548 0.238125 0.55723 0.134854 0.213995 0.251993 -0.077724 -0.643181 -0.102427 0.069431 0.376383 -0.036688 0.197391 -0.014074 0.046308 -0.398398 0.121797 0.040296 0.081312 0.353066 0.480215 0.100763 0.379988 -0.141135 0.147592 0.08496 -0.028054 -0.076528 0.323201 -0.091534 -0.367277 -0.036792 0.129352 0.212371 -0.282422 0.28539 -0.056186 0.367469 0.381269 -0.221362 -0.464816 -0.123255 0.52044 -0.393663 -0.126896 -0.686006 0.21984 0.267322 0.230178 -0.313144 -0.106894 -0.136606 0.401967 0.045433 0.078323 0.205221 -0.310906 -0.106578 0.348197 0.061307 -0.579032 -0.453056 -0.298284 0.218376 -0.327021 -0.586587 0.083884 0.041507 -0.05923 0.301648 -0.192768 -0.100734 -0.183773 -0.196783 0.289181 -0.30481 0.28831 -0.181452 -0.461592 -0.03051
information 0.988582 -0.06588 -0.560654 0.098181 -0.076316 0.04288 0.10825 -0.233415 -0.22676 -0.090266 -0.033944 0.108278 0.394091 -0.367524 -0.399649 0.054239 -0.071359 0.18831 0.138661 -0.312 -0.101892 0.172554 0.040753 -0.351027 0.265397 -0.037241 -0.087275 0.001054 -0.295003 0.373093 -0.720497 -0.002404 -0.108884 -0.157887 0.464809 0.010481 -0.576131 -0.06689 0.082297 0.088503 0.450028 0.556276 -0.21626 0.207035 0.040757 -0.319569 -0.217494 -0.403403 -0.380363 -0.091933 -0.133776 -0.033268 -0.135317 0.309219 0.120011 0.183332 -0.301949 0.162735 -0.141664 -0.210396 0.245694 -0.164197 -0.090656 -0.221953 0.236332 -0.028978 -0.074775 -0.11075 0.29172 -0.11249 -0.223698 -0.111169 0.055433 -0.099846 -0.138541 0.420869 0.249412 -0.617116 0.650416 -0.355824 0.247059 -0.800665 -0.005434 -0.157257 0.134102 0.023123 0.021792 0.138426 0.04432 -0.108346 0.12063 -0.047594 -0.019208 -0.838201 -0.067969 -0.637313 0.388355 -0.098606 -0.233787 -0.522587
Israel -0.115732 0.163565 0.173337 -0.46886 0.209871 -0.395813 0.082665 -0.437921 -0.352865 -0.491869 -0.392507 0.641466 -0.127886 0.029172 -0.389963 -0.330244 -0.201898 -0.001323 0.3026 0.129388 0.201933 0.337283 0.124354 -0.613355 0.091462 0.308538 0.287516 0.145229 -0.394718 0.038798 0.05602 0.352361 0.123826 0.026754 -0.219071 0.07164 -0.192578 0.315768 -0.09588 -0.417837 0.381016 -0.055981 -0.471731 -0.383861 0.137308 -0.469777 0.108695 -0.152301 0.110126 0.00737 -0.139658 -0.001754 0.268509 -0.277799 0.233937 0.30194 -0.064306 0.363429 -0.534494 -0.026779 -0.004061 -0.166102 0.185036 -0.016209 -0.557576 -0.088287 0.306087 0.105285 0.193965 -0.530338 -0.071434 0.007645 0.335495 0.252357 -0.081653 0.127519 -0.095856 0.106915 0.267909 0.088958 -0.021354 -0.396382 -0.227656 -0.626749 -0.005638 0.453046 0.102836 0.321942 -0.116688 -0.160499 -0.317826 -0.393446 -0.618835 -0.417539 0.118692 0.19066 0.042736 0.052578 -0.402953 -0.301916
brandy 0.121477 0.12416 -0.144938 0.328752 -0.321958 0.340021 -0.117698 0.319322 0.361466 0.130467 0.261088 -0.508847 -0.48015 0.012193 0.235739 -0.688649 -0.196111 -0.25586 0.096888 -0.38089 -0.004294 0.161197 0.144056 -0.047279 0.640449 -0.332276 -0.166943 -0.423387 -0.01394 0.226865 -0.016536 0.31016 -0.356155 -0.061629 0.138289 -0.544125 0.027165 0.172671 0.473189 0.054393 -0.155973 -0.001642 0.117382 0.071436 0.041355 -0.142529 0.117672 -0.339181 0.311831 -0.089336 -0.421796 -0.049858 0.081837 -0.359146 -0.455598 0.053965 -0.038787 0.08638 0.075368 -0.503873 0.057858 -0.796264 -0.270907 -0.194319 0.003637 -0.509562 -0.214062 0.161664 -0.094105 -0.35973 -0.039146 0.546303 -0.519596 0.005436 0.249483 -0.104071 -0.246661 -0.422363 0.059121 0.35635 -0.261814 0.104688 -0.083297 -0.500964 -0.185618 0.23888 0.16073 -0.264683 -0.040375 0.474058 -0.883722 -0.810867 0.110338 -0.710408 0.158899 0.123939 -0.035792 -0.268944 -0.605478 0.13145
interview -0.144657 0.264967 -0.592915 -0.744325 0.024125 0.299823 -0.779348 0.717292 -0.083659 0.287401 -0.623906 0.268973 0.531795 0.245978 0.212632 -0.789868 -0.116839 0.39017 0.608504 0.236046 0.347238 0.583028 0.352633 -0.416739 -0.31459 0.155177 0.131798 -0.447074 -0.391186 0.298448 -0.099167 0.4891 -0.033862 -0.338772 0.271434 0.051102 0.226817 -0.173479 0.263749 0.142494 0.304847 -0.09711 -0.153224 -0.263119 0.263409 -0.174372 -0.334203 -0.469745 -0.530641 0.638396 -0.36809 0.568021 -0.339117 0.069998 0.345906 0.259613 0.743691 0.165267 -0.123519 -0.422643 -0.194419 -0.368672 0.063951 -0.744501 0.038837 0.339798 -0.35816 -0.065353 0.522569 -0.248887 0.040834 0.206622 -0.456048 -0.043681 0.559455 0.047458 0.566619 0.286442 -0.269161 -0.206059 0.0507 -0.437759 -0.29099 0.286148 -0.043982 -0.904798 0.105077 -0.233882 0.194083 -0.14526 -0.356324 0.206042 -0.580425 -0.454262 0.151896 0.199189 0.396279 0.221484 -0.043824 -0.315637
prominence 0.376475 0.09263 -0.109475 0.147208 0.210674 -0.313309 -0.135542 -0.210822 0.236025 0.027207 -0.566494 0.519106 0.090714 0.272169 -0.087496 -0.056516 -0.322778 -0.310177 0.514906 0.078335 0.044826 -0.119416 0.2368 -0.202717 0.411008 -0.117806 0.365859 -0.094318 -0.343978 0.201304 0.450527 -0.07703 -0.046089 -0.380939 0.659974 -0.113679 0.449491 0.132436 -0.204239 -0.211631 0.240258 -0.237162 -0.441696 0.287655 -0.209348 -0.605293 -0.435802 -0.604701 -0.120373 0.130063 -0.499532 0.338634 0.266236 -0.067917 -0.204332 -0.165313 -0.251695 0.090254 0.082188 -0.396066 0.016451 0.147821 0.396634 -0.265714 -0.012358 -0.344868 0.011096 0.487336 0.421549 -0.113923 -0.048219 -0.486104 -0.023487 -0.085225 0.242143 0.023337 -0.581312 0.018259 0.312984 -0.391633 -0.370238 -0.083615 0.144998 0.126551 0.251685 -0.836894 -0.212909 -0.147295 0.420438 0.008061 -0.140069 -0.398451 0.023025 0.016558 0.081518 -0.392523 0.322399 -0.087155 -0.167707 -0.008833
bed -0.399491 0.171297 -0.145741 -0.020684 0.184955 0.630588 0.112649 0.648683 0.26705 -0.255787 -0.095683 -0.099008 0.047597 0.038839 0.309235 -0.202452 0.118898 -0.12476 0.194475 -0.328722 -0.219979 0.561486 0.540167 0.399457 0.143159 -0.192855 0.266721 -0.536584 -0.27116 0.063537 -0.200363 0.66793 -0.105371 -0.16863 -0.092098 -0.065826 -0.063143 -0.142447 0.425987 0.227379 0.198573 -0.385483 -0.04417 0.268715 0.44194 -0.345977 0.158251 -0.09655 0.018792 -0.161287 -0.152878 -0.468792 0.130557 0.14365 -0.076287 -0.005297 -0.202484 -0.260201 -0.058767 -0.327456 -0.269708 -0.211185 -0.06356 -0.278287 -0.036354 -0.382915 -0.107984 -0.143985 0.292464 -0.310917 0.036748 0.030686 0.027117 -0.060961 0.133155 0.106604 -0.118797 -0.289073 0.130993 0.341434 0.027985 -0.042498 0.155317 -0.45638 0.010673 -0.260024 -0.339071 -0.396802 -0.335643 0.055715 -0.561056 -0.139792 -0.162526 -0.465015 0.221897 0.124249 0.014122 -0.017952 -0.280371 -0.039799
furnace -0.427742 0.247672 -0.304963 0.243736 0.028212 -0.231502 0.31195 -0.484661 0.087639 -0.077691 0.098456 -0.12609 0.073491 -0.630526 0.397503 -0.022849 -0.14863 -0.021118 -0.03505 -0.373611 0.021562 0.322475 0.423793 0.524496 0.079556 -0.084698 -0.029488 -0.245295 0.024735 0.335163 -0.265042 0.453234 -0.208479 0.30901 0.082749 -0.231713 -0.061181 0.059111 0.507463 0.272904 0.478146 -0.047437 -0.067868 -0.066523 0.334002 -0.630522 -0.020545 -0.476636 0.489919 -0.371832 -0.346509 -0.327454 -0.181423 -0.011242 -0.100142 0.02842 -0.203369 -0.045376 0.15046 0.201859 -0.495783 -0.095883 0.143185 -0.339068 -0.101767 -0.270032 -0.084854 -0.27712 -0.016222 -0.315638 -0.18791 0.33671 0.173108 0.235647 0.067329 0.041352 0.160652 -0.247854 0.013705 0.176027 -0.053309 0.008113 0.58137 0.157125 0.146131 0.022608 -0.222728 0.219167 -0.537801 0.151637 -0.534487 -0.503948 -0.098537 -0.915601 -0.073141 0.199705 -0.01258 -0.042097 -0.319148 -0.05942
evidence 0.192433 0.026497 -0.036864 -0.093545 -0.131797 -0.253881 -0.146604 -0.041023 0.177911 0.171 -0.525684 0.290574 0.449709 -0.258644 -0.044789 -0.348511 -0.17109 -0.136387 0.063523 -0.328428 0.35637 0.23243 -0.005279 -0.598873 0.297622 -0.196275 -0.229016 -0.279737 -0.266889 0.174326 -0.106464 0.112232 -0.427671 0.066174 0.051862 0.090415 -0.206379 -0.237419 0.258829 -0.098788 0.080031 0.241251 0.320089 0.228442 0.077877 -0.533156 -0.488767 -0.367156 -0.562299 -0.212379 -0.282346 -0.02987 0.21045 0.145993 -0.024326 0.1661 -0.078752 0.187648 -0.121517 -0.308897 0.063061 0.471663 -0.204339 -0.102698 0.080277 -0.465826 -0.431282 0.24183 0.04523 -0.137493 -0.439902 -0.043447 0.377466 -0.112914 0.354191 0.156296 0.051463 -0.154418 0.529578 -0.18931 0.014167 -0.37199 0.405151 -0.439971 -0.120258 0.013536 -0.651545 -0.253477 0.24623 0.037774 0.022089 0.023013 -0.01367 -0.702553 0.020506 -0.266296 -0.074909 -0.236349 -0.489018 -0.619315
sprint -0.169035 0.306528 -0.254273 0.160469 0.114641 -0.203386 -0.022607 -0.341819 -0.093729 -0.040133 0.278878 0.171885 -0.42405 0.408496 0.053631 -0.051992 -0.507474 0.327385 -0.052756 -0.299107 0.297201 -0.227669 0.581998 0.327511 0.222989 0.021476 0.069298 -0.190317 0.042773 0.065469 0.063521 0.745775 -0.621412 0.087975 0.012346 -0.22611 0.16363 0.013821 0.086874 -0.152772 0.509807 0.227757 -0.276603 -0.267726 -0.020892 -0.127444 -0.412984 0.432632 0.276362 0.397807 -0.660494 0.111091 0.134175 -0.386345 0.183224 0.155224 0.216388 -0.046279 0.200471 -0.73636 0.202482 -0.403804 0.296775 0.051432 0.305374 -0.610884 -0.489667 0.239566 0.051868 0.075127 0.36847 -0.636771 -0.25262 -0.062011 0.278245 -0.010994 -0.015898 0.05704 0.406171 0.182028 0.21874 0.057671 0.547513 0.21979 0.313698 -0.993222 0.201233 -0.518435 -0.516505 -0.309541 -0.526509 0.012474 0.179393 -0.326814 0.046324 -0.380925 -0.28966 -0.084021 -0.229929 0.01279
emergency 0.042568 0.039435 -0.34979 0.320813 0.290142 -0.069062 -0.454595 0.262089 0.150655 0.085108 -0.135515 -0.197292 0.544042 -0.158512 -0.015091 -0.342863 -0.167929 0.014469 0.180491 0.222633 0.659927 0.456471 0.086134 -0.139554 -0.059772 0.259808 -0.238784 -0.111035 0.05321 0.216504 -0.17716 0.493509 0.062541 -0.126796 -0.209053 -0.139687 0.273194 0.213717 0.466987 -0.053732 0.39704 -0.133278 -0.403136 0.241135 0.59028 -0.028358 -0.12481 0.12175 -0.01709 -0.037748 -0.656619 -0.002539 0.160541 -0.128476 0.586614 0.141325 -0.297705 -0.526661 -0.055306 0.371957 8.39E-4 0.019269 -0.237918 0.002633 -0.234338 0.172863 0.376313 -0.261031 0.537594 -0.110515 -0.039594 0.164038 0.191994 0.241263 0.04723 0.106423 0.269569 -0.54252 0.328196 -0.046863 0.161648 -0.049089 0.524059 -0.135908 0.043399 0.200107 -0.007933 -0.283813 0.184674 -0.205905 -0.183193 -0.3182 -0.86386 -0.211281 -0.39724 0.312029 0.621829 -0.325705 0.314846 0.009336
Jackson -0.186982 0.04672 0.219668 0.064872 0.19144 -0.188786 0.171984 0.057512 0.271016 -0.39217 0.126298 0.104569 0.205931 -0.413039 -0.099297 -0.183338 -0.261311 0.11566 -0.478576 0.19283 -0.131486 0.107354 0.031648 0.383751 -0.188669 -0.043992 0.051252 -0.718255 -0.167461 -0.068698 0.077508 0.675672 -0.402228 -0.226878 0.170604 0.205529 -0.059516 -0.852498 0.179892 -0.386818 0.379536 -0.033788 0.061326 0.038679 0.181867 -0.147907 -0.172725 -0.16938 0.030695 0.186588 -0.107669 -0.127064 0.138506 -0.152722 0.212475 -0.185499 0.033209 0.431782 0.238424 -0.527542 0.062687 0.046205 0.243911 -0.27746 -0.297226 -0.011886 0.107403 0.095571 0.435153 -0.005568 -0.348037 -0.214653 0.202286 -0.022873 0.007318 -0.019085 -0.021077 0.349152 0.255077 0.063879 0.049819 -0.280165 0.109258 -0.048383 -0.097082 -0.156073 -0.140315 -0.20009 0.133033 -0.045249 -0.213353 -0.500374 -0.455251 0.16729 -0.129383 -0.446567 0.340021 -0.324034 -0.211238 -0.325009
institution -0.03741 -0.264185 0.080121 0.140524 0.431381 -0.114475 -0.334647 0.176098 -0.088687 0.427859 -0.227657 0.020253 0.434431 -0.314827 0.072004 -0.180975 0.121179 -0.101263 -0.15008 -0.392834 0.213018 0.493368 0.24256 -0.504746 0.05976 0.133873 -0.164468 0.116607 0.072308 0.302263 -0.084741 0.249762 0.212914 -0.144349 0.289685 -0.318909 0.070246 0.122869 0.198779 -0.306222 0.373128 -0.005941 -0.164382 -0.057443 0.036171 -0.022299 -0.272898 -0.116883 0.227822 0.147111 -0.13225 0.432258 0.249201 0.302881 -0.222258 0.099042 -0.251635 0.428539 -0.11097 -0.413726 -0.038251 0.714886 -0.225268 0.176139 -0.401965 -0.089785 0.30671 -0.03143 0.199847 -0.1727 0.26434 -0.151354 0.104717 0.447969 0.112125 0.260026 -0.112691 -0.485737 0.275968 0.013751 -0.219083 -0.291325 0.026783 0.174272 0.001379 -0.538418 0.139155 0.209392 -3.04E-4 -0.247406 -0.485568 -0.417564 -0.236378 -0.370365 -0.011086 -0.102363 0.178433 0.329451 -0.588305 0.309999
bird -0.355587 -0.18335 -0.544396 0.23089 0.085461 0.060791 0.11677 0.28474 0.456324 -0.397158 -0.159831 0.387864 -0.048897 -0.405981 -0.076465 -0.608428 -0.303368 0.228458 -0.254478 -0.18393 0.058914 -0.037639 0.015954 0.1562 0.359985 0.009833 0.070994 -0.064121 0.015545 0.195988 -0.270354 0.486967 -0.181602 -0.063427 -0.792609 -0.250581 0.037447 0.549166 0.503617 -0.046423 -0.350204 -0.221877 0.264623 -0.076115 0.504083 -0.355124 -0.046457 0.083759 -0.071483 -0.093363 -0.38089 -0.468241 -0.019478 -0.189761 0.261889 -0.265047 0.078418 0.230643 0.139759 -0.003977 -0.168562 -0.050131 0.134252 -0.031176 0.079929 -0.465613 -0.107234 0.261734 0.006139 -0.544945 0.056562 0.025091 0.048728 0.069849 -0.179452 -0.099106 0.177113 -0.4998 0.028117 0.290472 -0.23407 -0.497215 -0.250031 -0.1216 -0.272876 -0.059812 -0.520183 0.086512 0.132405 -0.35525 -0.378641 -0.364979 -0.199288 -0.29088 -0.051569 -0.277417 0.2047 0.059435 -0.499875 0.288393
Brazil 0.069975 0.105746 0.018341 -0.174156 0.448132 -0.153135 -0.168936 -0.127914 0.007276 -0.451755 0.121195 0.499292 0.427918 -0.084093 -0.274888 -0.189155 0.008763 -0.174931 0.103634 -0.085044 0.191231 -0.333234 -0.048479 -0.096817 0.201322 -0.149832 -0.018476 0.21681 -0.575549 0.459922 -0.305674 0.670968 -0.114142 -0.129756 0.008006 -0.297716 -0.011441 0.131933 -0.148998 -0.147131 0.238672 -0.155249 -0.095999 -0.626687 -0.524019 -0.141556 -0.283173 0.073141 0.238891 -0.198148 -0.380693 0.080698 0.362052 0.04728 0.570791 0.481442 -0.217147 -0.160057 -0.001284 0.136186 0.520361 -0.51943 0.312739 -0.143291 0.156736 -0.710649 0.092893 0.128792 0.330235 -0.198541 -0.028659 0.13875 -0.439467 0.107921 -0.062378 -0.056956 0.135173 0.212588 -0.168241 0.377158 -0.015094 0.185833 0.152809 -0.008172 0.092312 0.045432 -0.13114 -0.278032 0.142387 0.011817 -0.146649 -0.523274 -0.370302 0.04786 -0.134092 -0.200457 -0.205935 -0.124812 -0.583275 -0.046688
warning 0.133124 -0.090824 -0.420227 -0.398118 0.113062 0.117444 -0.220865 -0.388288 0.34019 -0.104371 -0.384921 -0.050134 -0.07038 -0.326315 -0.106565 -0.205687 -0.15064 -0.023861 -0.002952 0.145428 0.452448 0.15053 0.168816 -0.183719 0.361731 0.191802 -0.276615 -0.07066 -0.097252 0.102985 0.056254 -0.123131 -0.116693 0.075303 -0.254502 -0.154404 0.115384 0.262956 0.302189 0.10772 -0.178311 0.252352 0.259916 0.181929 0.236248 -0.128273 -0.537426 -0.289749 -0.318157 -0.045052 -0.668672 -0.151759 0.012964 -0.03462 0.739144 0.253642 -0.283121 -0.330077 0.170312 -0.175021 0.420638 -0.021395 -0.047851 -0.215386 -0.39006 -0.309485 -0.313775 0.409213 0.366566 -0.313098 -0.299041 -0.020883 0.287474 0.140824 0.00624 -0.150941 0.155707 -0.288626 0.454766 -0.136898 -0.13548 -0.384905 0.161134 -0.009084 -0.244021 0.2315 -0.06968 -0.142164 0.164434 -0.513773 0.057652 0.180705 -0.411816 -0.363408 0.159052 0.054014 0.013831 -0.004124 -0.245562 -0.081464
implement 0.44864 -0.513092 -0.541629 -0.059272 0.119599 -0.257823 -0.227257 -0.097974 -0.209871 -0.507173 -0.059975 0.297052 0.097327 0.040325 -0.116859 -0.050656 0.114706 -0.265086 0.024223 -0.417832 0.370401 -0.20502 0.03673 -0.604181 0.071482 0.429121 0.128545 0.263471 0.045228 -0.080579 -0.250955 0.077581 -0.147921 0.072167 -0.234566 -0.126714 0.274524 0.366006 -0.104691 0.194944 0.478873 0.24672 -0.367542 0.141403 0.234103 0.046942 -0.19272 -0.329153 0.392417 0.161895 -0.273387 0.474088 0.48294 0.112223 0.269861 -0.107157 -0.321358 -0.357043 0.145905 -0.354245 -0.095185 -0.106381 -0.49205 0.361374 0.045572 -0.406066 0.226383 -0.13076 0.199567 0.034861 -0.32126 0.612883 0.557243 0.092998 0.147993 0.400675 -0.322175 -0.132981 0.527992 0.3639 0.168773 -0.103346 0.251721 0.192879 0.179678 -0.268376 0.427143 -0.140401 0.16896 -0.366092 -0.528596 0.142163 -0.123871 -0.229708 -0.102986 0.374638 0.688837 0.215167 -0.036415 -0.302859
train 0.113202 -0.002913 -0.22187 0.195563 0.252081 0.43368 0.14625 -0.041684 -0.259436 -0.271836 -0.122787 0.170681 -0.233626 0.024272 0.040431 -0.577161 -0.297673 0.218592 -0.342515 -0.152203 0.344246 0.24216 0.334459 0.179215 0.012757 0.234916 0.183919 0.060317 -0.244953 0.357084 0.273666 0.205759 0.118117 0.072679 0.026515 -0.070206 0.238982 0.004737 0.265926 0.132775 0.432462 0.219969 -0.355993 -0.007521 0.366755 -0.465046 0.389623 0.012256 -0.045903 -0.155455 -0.534534 0.124861 0.117813 -0.17009 0.046733 0.146575 -0.446528 -0.586018 0.108883 -0.157469 -0.024519 -0.432075 0.273705 0.086479 -0.248492 -0.167739 0.202074 0.085025 0.319163 -0.226565 0.062851 0.045084 0.036578 0.347136 0.026087 -0.191207 0.089515 -0.344441 0.046941 -0.013269 0.004917 -0.296241 0.455077 0.520954 0.345093 -0.095574 0.182908 -0.199379 -0.379297 -0.371859 -0.09198 0.505593 -0.213036 -0.435 0.067098 0.251875 -0.035976 0.27931 -0.458745 -0.121825
area -0.240985 0.116653 -0.110281 0.455834 0.233696 0.505854 0.183683 -0.155039 -0.006671 -0.127598 -0.271619 0.39381 0.285558 -0.09571 0.039153 -0.600627 -0.195482 0.129659 0.035923 -0.274321 0.17562 0.111904 0.024736 0.149656 0.297613 -0.137574 -0.221972 0.002814 -0.321947 -0.024766 -0.06665 0.141651 -0.093485 -0.046642 0.101232 0.092926 0.245709 0.068954 0.336449 -0.12342 0.187529 -0.141486 0.052294 -0.427034 0.231035 -0.237681 0.01256 -0.377268 0.133593 -0.407284 -0.263709 0.160427 0.149723 0.434957 -0.164373 0.203751 -0.025679 0.013705 0.180118 -0.014487 0.134395 0.164733 0.039628 -0.111223 0.057939 0.092384 -0.140273 0.046081 0.361369 -0.214204 0.109465 0.210362 0.252174 0.405007 -0.123167 0.242743 0.516721 -0.517084 0.013829 -0.26566 0.127706 -0.16301 0.292332 -0.067882 0.482309 -0.228788 -0.207167 -0.49543 0.025879 0.099092 -0.480633 -0.20616 -0.330261 -0.280868 0.080631 -0.014755 0.159176 0.460433 -0.05841 0.086503
image -0.240963 -0.076032 -0.076881 -0.198736 -0.028756 0.020834 -0.123377 0.390014 -0.093922 0.223877 -0.058433 0.301193 0.113533 -0.192675 0.34382 -0.27523 -0.10028 -0.141337 0.011104 -0.171052 -0.150912 0.054309 0.321833 -0.407392 0.3279 0.0949 0.154387 -0.178012 -0.342697 0.231175 -0.029589 0.268769 -0.026411 -0.367102 0.273802 -0.160243 -0.13594 0.222256 0.121003 0.239024 -0.013925 0.134274 0.291938 -0.213135 -0.126348 -0.183621 -0.071767 -0.172478 0.133598 -0.246323 -0.711034 0.137659 -0.06367 -0.042116 -0.198892 0.065103 -0.207251 0.124305 -0.021323 -0.288091 -0.4252 0.395972 0.223573 -0.283228 -0.080443 -0.574252 -0.050767 0.229081 0.331613 -0.313404 -0.174801 -0.141684 0.185907 -0.033148 0.181497 0.380358 0.034452 -0.179949 0.279208 -0.394036 -0.375911 -0.276002 -0.002694 0.18282 0.021224 -0.165817 -0.050614 -0.020405 0.15578 -0.306631 -0.325784 0.001513 -0.148629 -0.129575 0.201975 -0.589899 0.328813 0.111978 -0.103369 -0.187368
murder -0.093922 -0.024915 -0.09048 -0.509819 0.446618 0.132497 0.174699 0.381345 -0.442911 0.136619 0.169079 0.657825 -0.020287 -0.188103 0.146689 -0.947484 -0.110072 0.489284 -0.26002 0.598588 0.127343 0.48066 0.470114 -0.419085 -0.310554 -0.289133 0.097903 -0.656331 -0.053007 0.318526 0.007033 0.194708 -0.646097 -0.207322 -0.096112 0.105048 -0.512866 -0.246334 0.472191 -0.284508 0.377491 0.1428 -0.200432 -0.210374 0.171375 -0.257339 -0.352665 -0.001901 -0.2378 0.123032 -0.088432 0.479239 0.774519 -0.327032 -0.021699 0.427517 -0.36515 0.115664 0.242313 -0.778805 0.125001 -0.068362 0.165033 -0.144627 -0.056039 -0.162763 -0.32125 0.83685 -0.038135 -0.106034 -0.213996 0.205084 0.389939 -0.374698 0.366871 0.084676 -0.164884 -0.321269 0.215162 -0.318415 0.326609 -0.204755 0.66575 -0.578861 0.003576 -0.47781 -0.107974 0.149053 -0.260126 1.023346 -0.557291 -0.047135 0.053256 -0.193503 0.64238 0.49173 -0.149134 -0.141213 -0.681589 -0.122623
journey 0.059879 -0.158563 0.003891 0.108409 0.189843 0.447434 -0.039287 0.06814 0.104172 -0.23819 -0.394092 0.311042 -0.158671 0.115041 0.119364 0.016691 -0.279307 0.279511 -0.219745 -0.38262 0.158682 -0.186226 0.78414 -0.010794 0.072314 0.052564 0.236971 -0.120098 -0.220047 0.002124 -0.08151 0.51778 -0.570311 0.133529 -0.271855 -0.16634 0.10125 0.319863 0.290399 -0.034048 0.080433 -0.312854 -0.214395 -0.082402 0.385604 -0.35396 0.185267 -0.256438 0.038136 0.045093 -0.272662 0.541415 -0.167713 0.587244 0.145279 0.260654 -0.472124 0.101636 0.124049 -0.503293 0.099152 -0.346087 0.371238 -0.087124 0.216916 -0.51326 0.292649 0.349511 0.173529 0.001487 0.173504 -0.116433 -0.111461 0.381475 -0.053094 0.21616 -0.11239 0.08018 -0.232514 -0.428348 -0.296061 -0.369895 0.256066 0.009358 0.395889 -0.175109 0.182129 0.242331 -0.367255 -0.419174 -0.475731 0.378262 -0.153184 -0.323686 0.225664 -0.140149 0.348455 0.199317 -0.203581 0.087332
minister -0.383586 -0.212752 -0.272599 0.085991 0.046022 -0.583173 -0.07721 -0.432561 0.248045 0.175169 0.564665 0.491435 0.114892 0.042808 -0.477728 -1.100396 0.090859 0.239633 0.646127 -0.43594 -0.054983 0.599741 0.926989 -0.773703 -0.068521 0.06895 0.578329 -0.069356 0.111758 0.466652 0.002418 0.026128 0.214217 0.214771 0.616084 0.120107 0.114551 0.317168 0.391651 -0.223626 1.051793 -0.132629 0.104556 -0.019903 0.584088 0.190439 0.012799 -0.501242 -0.263565 -0.133132 -0.427656 0.421527 0.548097 -0.433242 0.689378 0.209133 -0.190275 0.277458 0.576502 -0.190338 0.190437 -0.528846 0.220812 0.060499 -0.562702 0.1912 0.667693 0.309753 0.280045 -0.667864 0.13733 -0.318829 -0.370305 -0.272143 0.41187 0.179009 -0.444617 0.015051 0.204967 -0.024147 -0.158748 0.711906 -0.080196 0.276184 -0.088363 0.424486 0.165109 0.151467 0.435916 0.168369 -0.145515 -0.10272 -0.628482 -0.429115 0.229309 0.433613 0.029048 0.311852 0.009011 0.002628
planet -0.415564 -0.166809 -0.337787 0.380866 0.328999 0.055182 0.138543 -0.041276 -0.056565 -0.504683 -0.00679 0.78165 0.337188 -0.165827 -0.075463 -0.007993 0.167435 0.206211 -0.538509 -0.140868 -0.193753 -0.079271 0.617949 -0.008806 0.584103 -0.104193 0.260917 0.156247 -0.394386 0.433338 -0.22195 0.442789 -0.525821 -0.125312 0.043275 -0.013576 -0.106435 0.482947 0.062847 0.182589 0.380499 -0.299164 0.170483 -0.089442 0.530315 -0.19029 -0.14072 -0.250225 0.266896 -0.050625 -0.370229 -0.42434 -0.168154 0.03187 0.210237 -0.031815 0.063378 0.210337 0.136221 -0.121199 -0.20717 0.351222 0.323396 0.012551 0.201811 -0.73463 0.379391 0.070193 -0.196037 -0.468302 -0.200333 0.104191 -0.155376 0.302061 -0.043629 0.086511 0.544561 -0.13924 0.319816 0.350454 -0.476183 -0.689436 0.206222 0.051341 -0.10977 -0.329413 -0.615757 0.198202 -0.461822 0.033483 -0.547579 -0.025649 0.268463 -0.328128 0.102403 -0.280992 0.130468 0.117339 -0.176402 0.205887
article 0.080345 0.132468 -0.230762 -0.422756 -0.672194 -0.121826 -0.516573 0.219301 -0.493706 0.448699 0.445168 0.869448 0.145322 -0.086954 -0.425627 -0.373052 0.336602 0.190304 0.667699 0.155165 0.091187 0.205669 -0.123093 -0.369046 0.151095 0.720941 0.594343 0.45301 -0.836607 0.231553 0.028797 0.418457 -0.684802 -0.132676 -0.097833 -0.16529 -0.394973 -0.045938 0.18089 0.295235 -0.53387 0.418682 -0.282439 -0.754932 0.374964 -1.204006 0.499738 -0.740625 0.001294 1.031227 -0.349265 -0.21481 -0.208929 0.692634 -0.146496 0.201615 0.496315 0.076134 0.939556 -1.54953 -0.301505 -0.111027 -0.937843 -0.30403 0.265971 -0.371336 -1.016443 0.029657 0.0569 -0.007202 -0.169895 0.002363 -0.120457 0.716239 0.900637 0.171402 0.787871 -0.07252 0.103884 -0.503792 -0.985539 -0.449053 -0.764354 0.114431 -0.478366 -0.826233 0.568103 -0.295121 0.296967 0.487779 0.066467 0.442174 -0.848322 -0.424312 -0.511886 0.22652 0.598601 0.66197 -0.413606 0.244601
anxiety 0.400927 0.54862 -0.69789 -0.242405 0.1224 -0.103806 -0.305869 0.440732 0.352259 -0.563808 -0.571446 -0.283856 0.385835 -0.277947 0.122473 -0.405403 0.0382 -0.065699 0.065126 0.175828 0.013662 0.457771 0.318658 0.135002 0.621349 0.266111 0.292499 -0.319802 0.198118 0.244616 0.202072 0.049946 0.077849 -0.133346 0.253038 -0.147515 -0.13054 0.396017 0.138212 -0.143981 0.080292 -0.344878 0.511618 -0.191746 0.217299 -0.209307 -0.183624 0.127083 -0.229063 -0.015694 -0.424069 0.278946 0.587702 0.511627 -0.009118 -0.251656 -0.23332 0.075741 0.064543 -0.280873 0.052871 0.047538 0.052113 -0.150512 -0.193569 -0.214363 0.153942 -0.03874 0.234971 0.304524 -0.29415 -0.099133 0.240507 0.370306 0.171317 0.31518 0.110706 -0.058028 0.310738 -0.275871 -0.371368 -0.225641 0.035356 -0.459673 0.082052 0.377852 -0.036118 0.11311 0.02563 -0.265032 0.102427 -0.488662 0.225002 -0.407769 0.406991 -0.380915 0.092335 -0.260521 -0.804051 -0.214473
month -0.112713 -0.087284 -0.350582 -0.347567 0.566333 0.169001 -0.372948 0.138007 -0.325631 0.276915 -0.273868 0.163665 -0.037857 -0.342414 -0.00215 0.379403 0.146564 0.158558 0.048267 0.246604 0.230371 0.024916 0.152454 -0.068264 -0.139441 -0.355555 0.141853 -0.266151 -0.48986 0.160206 0.089439 0.173449 -0.725478 -0.0614 -0.052566 0.289952 0.375916 0.592936 -0.070839 -0.10686 0.393696 0.108521 -0.12747 -0.242149 -0.273348 -0.262937 -0.355433 -0.57813 0.004034 0.386117 -0.082478 0.044519 0.020963 0.582577 0.294429 0.139203 -0.356855 0.01843 0.206679 -0.339401 0.36035 -0.587319 -0.376218 0.223923 -0.333019 -0.01359 0.09585 0.075963 -0.106331 -0.223092 0.02357 0.183812 0.069825 0.078663 -0.312218 -0.137262 0.074843 0.369228 0.276276 -0.11955 -0.054797 0.070236 -0.058174 0.015962 -0.320721 -0.027952 0.228996 -0.753962 -0.160183 -0.117387 -0.014705 -0.645897 -0.557932 -0.483469 0.065774 -0.152029 0.161746 -0.054532 -0.266036 0.337141
carnivore -0.529482 -0.315051 -0.079136 0.070888 0.169551 -0.260072 0.003697 0.18341 0.130342 -0.293443 0.276448 0.37331 0.076608 -0.368996 0.206133 -0.30719 -0.026651 0.100958 -0.391801 -0.319564 -0.193619 0.084594 0.048714 0.02681 0.462618 -0.199759 0.01138 0.005137 -0.015328 0.13544 -0.253944 0.592438 -0.11987 -0.147965 -0.052033 -0.609176 0.253247 0.411089 0.516402 0.111492 0.088084 -0.507021 0.312605 -0.406436 0.101347 -0.261411 -0.330632 0.05982 0.159327 -0.004236 -0.236308 -0.2366 0.119221 -0.228658 -0.093216 -0.200732 0.213317 0.478811 0.00229 -0.461589 -0.262173 -0.142522 0.052223 -0.184002 0.223024 -0.58199 -0.042352 0.279866 -0.116637 -0.547582 0.242771 -0.092429 -0.063863 0.20535 -0.088874 0.129205 -0.121483 -0.295007 0.491579 0.342579 -0.320535 -0.180589 -0.183931 0.008593 -0.486439 -0.119217 -0.338783 0.297731 -0.057439 -0.208405 -0.362446 -0.398353 0.267902 -0.527926 0.166554 -0.005797 -0.132023 0.244234 -0.469546 0.615274
party -0.469046 0.077203 -0.022674 0.058669 -0.134119 -0.078259 0.034333 -0.099826 -0.382901 -0.071537 -0.190411 -0.058896 -0.080197 0.236251 -0.231238 -0.12143 0.263753 -0.359521 0.157245 -0.148217 0.108124 0.431544 0.277679 -0.241835 0.128829 -0.016682 0.177047 -0.264607 -0.127052 -0.04319 0.004878 0.517714 0.036307 -0.142623 0.373229 0.44986 0.127635 0.299855 0.306028 -0.290712 0.702763 0.103356 -0.185787 -0.292911 0.197359 -0.291089 0.05309 -0.184071 0.414913 -0.131506 -0.459491 0.28877 0.199186 -0.322309 0.12539 0.196509 -0.185642 0.363287 -0.020045 -0.317887 0.431764 0.198324 -0.250829 -0.152698 -0.234603 0.107988 0.108645 0.228486 -0.039501 0.012313 0.045821 -0.303097 -0.09459 -0.119558 0.390264 -0.413875 -0.184013 -0.177835 0.492318 0.260312 -0.445798 0.118213 0.014237 0.030447 -0.31759 -0.036943 0.022346 -0.262686 0.357466 -0.405578 -0.421192 -0.272623 0.136833 -0.397349 0.477202 -0.130204 0.09264 0.37848 0.003174 -0.252702
production 0.250459 0.206378 -0.114773 -0.006766 -0.156302 -0.105793 0.291776 -0.374118 -0.255725 -0.015765 -0.078249 0.19358 0.213509 -0.236177 0.419225 -0.161275 -0.091334 -0.282628 -0.095445 0.017928 -0.112778 -0.046865 -0.132249 0.349737 -0.13776 -0.092448 0.126036 0.330221 -0.140066 0.309785 -0.437397 0.105332 -0.67671 0.157105 0.08521 -0.108008 -0.119093 0.205733 0.064984 -0.076267 0.064895 0.167556 -0.266686 -0.268252 0.121343 -0.279349 0.097587 -0.294019 0.217066 -0.14341 -0.467589 0.443948 0.287655 0.236719 0.067622 0.048445 -0.167931 -0.226697 0.294521 -0.051781 -0.660964 -0.228937 0.278142 -0.117511 0.011454 -0.252662 -0.198105 -0.152587 0.244611 -0.196524 -0.586475 0.160679 0.00824 0.193986 -0.042311 0.04328 -0.355512 0.383205 -0.072262 0.264295 -0.490339 0.205381 0.324737 -0.111556 -0.260006 -0.172065 -0.310589 0.228162 -0.02167 0.055212 -0.379814 -0.293203 -0.363879 -0.369668 -0.233796 0.182721 0.288503 -0.196507 -0.10587 -0.025157
importance 0.376233 0.181611 -0.383127 0.487038 -0.223514 0.027964 -0.15565 -0.008813 -0.086023 -0.45275 -0.09716 0.643526 0.601902 0.437419 0.087804 -0.434905 -0.418053 -0.123619 0.347711 -0.210382 -0.141398 0.116849 -0.059347 -0.608929 0.365499 0.058909 -0.102224 0.144232 -0.07465 0.147041 0.08896 0.08921 -0.395112 -0.124137 0.053406 -0.116225 0.05578 0.377355 -0.294427 -0.038052 0.051033 -0.076622 0.401973 -0.070992 0.085705 -0.212808 -0.030406 -0.111077 0.019784 -0.196476 -0.460026 0.258488 0.491491 0.335697 -0.042342 0.22357 -0.021213 0.369642 0.0668 -0.41288 -0.330638 0.365086 -0.294086 0.415582 0.200731 -0.484802 0.34178 -0.263472 0.740596 -0.079668 -0.469275 -0.095588 0.130193 0.308721 0.023232 0.383222 -0.078494 -0.314221 0.355511 -0.572388 -0.395613 -0.217378 0.15705 -0.404082 -0.124461 0.129425 0.004993 -0.09428 0.347292 0.181712 -0.158514 0.09512 -0.197079 -0.070822 0.52896 -0.43726 0.102867 -0.29963 -0.063349 -0.306317
inmate -0.362983 -0.222538 0.024908 0.028273 0.16521 -0.497254 0.259984 0.443627 -0.166961 0.283753 0.120233 0.426794 0.234959 -0.577189 -0.228358 -0.354729 0.130534 0.4094 -0.077373 0.394711 0.162799 0.546007 0.243417 0.013709 -0.098584 -0.014258 -0.268716 -0.540812 -0.050969 -0.328274 -0.091037 0.595533 -0.140091 0.349957 0.038486 -0.135814 0.019243 0.005612 0.432751 0.031295 0.389062 -0.133872 -0.302415 0.410162 0.218236 -0.296281 -0.415991 0.118897 -0.14408 0.181173 -0.174722 0.044363 0.486283 -0.085035 -0.141554 -0.01917 -0.344126 0.230035 0.255783 -0.52505 -0.095654 0.248172 0.408111 -0.504486 -0.454691 0.101425 -0.289781 0.330436 0.157146 -0.342559 0.016041 0.188759 -0.003237 -0.215818 0.017257 0.162257 0.467344 -0.407593 0.224194 -0.096049 0.116689 -0.252148 0.415692 -0.243696 0.077774 -0.086865 -0.004814 -0.032028 -0.040139 0.12653 -0.295235 -0.376038 -0.343718 -0.254717 -0.0383 0.37155 0.374549 0.453396 -0.285609 0.353324
Harvard 0.116653 0.189264 -0.246579 -0.151844 0.479947 -0.242966 -0.096531 -0.029574 -0.218601 0.054398 0.25007 -0.073094 0.267493 0.149139 -0.538708 0.156173 -0.614431 0.042055 -0.261639 0.010375 -0.319956 0.37255 0.813715 0.083019 -0.231532 0.611425 -0.071495 0.029542 -0.2003 0.351846 0.333878 0.949936 -0.20303 0.800451 0.069464 -0.360581 0.044056 -0.247452 -0.085069 -0.181539 -0.338909 0.522659 -0.232609 0.132832 0.30426 0.166705 -0.086404 0.114387 -0.289166 0.050459 0.047248 0.181757 0.270855 -0.079277 -0.309744 -0.571881 0.100523 0.61058 0.265655 -0.181437 -0.324825 0.072327 -0.3261 0.449357 -0.279502 -0.093653 0.028847 0.236216 0.693907 0.289076 0.715198 -0.12742 0.172996 -0.127797 0.543545 0.289521 -0.081263 0.214238 0.255373 0.144133 -0.484664 0.055985 0.186454 0.131927 -0.303659 -0.084131 0.177324 -0.123675 0.517526 0.009882 -0.075951 -0.350662 -0.717519 -0.565833 -0.06475 -0.115278 0.183246 0.365011 -0.639114 0.169792
psychology 0.019895 0.22984 -0.382333 -0.129394 0.091587 -0.349529 -0.240373 -0.091579 -0.055197 0.233135 0.151834 0.123899 0.536197 -0.022097 -0.359452 -0.185544 -0.757258 0.026882 -0.111927 0.034718 -0.521593 0.349975 0.68162 -0.090668 -0.066073 0.755113 -0.22689 0.220088 -0.048224 0.241964 0.060871 0.561815 -0.13617 0.341759 0.215517 -0.580136 0.405034 -0.014824 0.347632 -0.043362 -0.216721 0.301341 -0.202661 -0.122046 0.111824 0.027968 -0.10532 0.021654 -0.132789 -0.317242 0.003855 0.488892 0.554331 0.600757 -0.518802 -0.319337 0.037474 0.404773 0.422405 -0.412135 -0.49621 0.08166 0.119903 0.613233 0.003045 -0.407561 -0.048378 0.235566 0.431835 0.256993 0.192279 -0.093613 0.143726 -0.048236 0.595113 0.525992 -0.08744 -0.161156 0.181272 0.041698 -0.323884 0.114944 -0.036627 -0.182559 -0.37018 -0.268926 -0.275038 0.17819 0.081456 0.186502 0.121873 -0.184016 -0.114618 -0.822003 0.159233 -0.388321 -0.012661 0.335018 -0.377621 0.140668
medal 0.20672 0.65541 -0.194994 0.328484 0.058205 -0.556477 -0.454427 -0.054312 -0.067582 0.008448 0.486587 -0.050487 -0.108827 6.18E-4 0.30385 -0.211256 -0.428673 0.687405 0.287329 -0.143551 0.273316 -0.195649 0.459573 -0.019699 0.432456 0.043608 0.106064 -0.204454 -0.231763 0.106115 -0.128223 1.042094 -0.795475 0.165269 0.44102 -0.527415 -0.293064 -0.072794 -0.26007 -0.509152 0.161235 0.244738 0.093833 0.01286 -0.285105 -0.635036 -0.536392 0.278331 0.414316 0.241069 -0.514798 -0.33065 -0.010239 -0.353215 0.069412 0.528641 0.239708 -0.018574 0.053932 -0.908535 0.416583 -0.277678 0.270222 -0.095798 0.10378 -0.543446 -0.778546 0.248388 -0.04512 -0.380054 0.506066 -1.150212 -0.599595 -0.544551 0.499183 0.077527 -0.132215 -0.094726 0.338835 0.024029 -0.397573 0.555814 0.452261 0.108267 0.153332 -0.928595 -0.001238 -0.848743 -0.543163 -0.219339 -0.817692 0.12276 -0.11084 -0.280713 0.031803 0.076741 -0.255804 0.103121 -0.161902 -0.217943
company 0.210604 -0.249423 -0.028339 0.101281 0.063372 -0.037014 -0.105841 -0.293249 -0.490012 -0.100118 0.027582 0.126631 0.095765 -0.268568 0.066496 -0.210865 0.096043 -0.261825 0.001321 -0.312646 0.022042 -0.030235 -0.097257 0.003557 -0.274353 -0.265126 -0.036086 -0.079301 -0.263735 0.121287 -0.295462 0.267525 -0.297175 -0.024595 0.353655 -0.392923 0.00782 -0.176354 0.212607 -0.031717 0.44131 0.530301 0.165183 -0.258565 0.085559 -0.252698 -0.131476 -0.210851 0.038707 0.016494 -0.148934 0.194163 0.188236 0.20571 0.321646 0.069134 -0.172334 0.113376 0.19284 0.166274 -0.191995 -0.12463 -0.015387 0.037694 -0.189597 0.22382 0.064683 -0.332641 0.22951 -0.296518 -0.249925 -0.223132 -0.256076 -0.162118 -0.064321 0.200174 -0.016788 -0.25787 -0.092487 0.273694 -0.268652 -0.474139 0.361246 0.297373 -0.175762 -0.443588 -0.284489 0.366212 0.205566 -0.570832 -0.428327 -0.265555 -0.442667 -0.330414 0.058739 0.036685 0.194395 0.100573 -0.359166 -0.061847
live 0.183408 -0.058317 -0.168691 -0.067532 0.308049 0.333806 0.217216 0.336376 0.036478 -0.527936 -0.437609 0.345133 0.613103 0.229854 0.052075 -0.288436 0.031664 0.156217 -0.327317 0.197075 -0.529383 0.070431 0.389582 0.00362 0.214432 0.125117 0.22333 -0.221855 -0.050827 -0.122495 0.100666 0.301026 0.097472 -0.454124 -0.284776 0.087779 -0.141892 0.039568 0.289644 -0.067909 0.195058 -0.237816 -0.430832 0.048349 0.152388 -0.260345 0.00246 -0.034862 0.086672 -0.017344 -0.180522 0.198419 -0.374863 -0.015956 0.109143 0.493692 0.276814 0.01844 -0.008673 0.027657 -0.087415 -0.161325 0.233204 -0.186495 0.027403 -0.419639 -0.078825 -0.069978 0.441316 -0.150883 -0.209108 0.072902 -0.234379 0.039559 -0.363912 0.140501 -0.233621 0.156808 0.266463 0.276102 0.212968 -0.507241 -0.048696 0.041462 -0.105221 -0.374534 -0.062804 -0.093709 0.105439 0.167088 -0.186314 -0.295145 -0.119916 -0.557183 0.088525 0.127276 0.029495 0.707353 -0.175064 -0.268048
holy -0.224945 0.139754 -0.133591 0.445255 0.465198 -0.124527 0.852988 -0.176577 -0.025824 0.105401 -0.503047 0.657034 -0.182487 -0.105109 -0.217265 -0.485543 -0.529225 0.13452 -0.037895 0.040144 -0.13526 0.258716 0.323522 -0.435626 0.202708 -0.255541 0.002707 0.300574 -0.132455 -0.072432 0.58713 0.342638 -0.196425 0.192608 0.045306 0.041135 -0.466538 0.557823 0.10032 -0.283707 0.294162 -0.36196 -0.214557 -0.24451 0.231753 -0.241337 0.072354 -0.243923 1.450021 -0.303875 -0.168812 -0.626631 0.249184 0.045211 -0.091273 0.506762 0.289152 0.546657 0.188761 -0.218158 -0.324815 -0.757539 -0.195024 -0.135502 -0.075745 -0.264866 0.247304 0.467809 0.062847 0.296886 -0.261775 0.115776 0.09322 -0.134497 -0.333511 0.106412 -0.391874 -0.637066 0.158021 -0.640744 0.413916 -0.330696 -0.54384 -0.853808 -0.404595 0.332815 0.167216 -0.087776 0.014129 0.002506 -0.01149 -0.60741 -0.283035 -0.540963 0.225062 0.088145 0.133325 0.473679 -0.391631 0.083024
ticket 0.326014 0.29968 -0.342932 0.03362 -0.249616 0.340834 0.212581 0.446041 -0.312396 -0.017577 -0.259915 -0.378161 -0.221672 -0.03479 0.023504 -0.179045 -0.124734 0.279429 -0.163548 0.428807 0.257611 -0.194979 0.230867 0.154467 0.166269 -0.01209 0.020019 0.078377 -0.086214 0.07645 -0.097859 0.225388 -0.342984 -0.308914 0.32526 0.004813 0.1312 0.015016 0.295488 -0.153635 0.45743 0.410594 -0.383334 -0.088013 0.086929 -0.549601 0.187406 -0.321924 0.095811 0.044308 -0.207331 -0.094084 -0.218951 0.458175 0.485481 -0.121368 -0.173487 -0.140519 -0.029528 -0.254566 0.110948 -0.327536 0.214255 0.105827 -0.565408 0.11157 -0.098781 0.335072 0.239345 0.03552 -0.19513 -0.282566 -0.515433 -0.150424 -0.164751 0.083547 -0.065348 -0.281985 0.444881 0.192525 -0.340923 0.346493 0.230382 0.442426 -0.225787 -0.006397 -0.138956 -0.46648 0.02115 -0.418019 -0.59825 -0.2243 -0.163293 -0.250834 0.059621 -0.276696 -0.403228 0.075886 -0.061686 -0.156529
victory 0.479615 0.395477 0.315143 -0.274005 0.028847 -0.28641 -0.254757 -0.341958 -0.182741 0.085664 -0.176124 0.173834 -0.052579 0.566242 -0.034661 -0.392139 -0.080259 0.238909 0.441593 0.171265 0.293922 -0.146416 0.421715 -0.046972 0.138707 -0.011805 -0.012802 -0.507113 -0.38372 -0.428699 0.147309 0.733146 -0.286645 0.021718 0.208482 -0.100844 0.169816 0.664678 -0.057189 0.250246 0.010736 -0.257838 0.385421 -0.430402 -0.042747 -0.15526 -0.475194 -0.12712 0.126147 0.506993 -1.079275 0.257184 -0.068771 -0.297176 0.244253 0.252892 -0.098431 0.352799 0.034106 -0.333958 0.24321 0.039142 -0.218867 0.04232 -0.620632 -0.317169 -0.333605 0.010982 0.187057 0.370882 0.646571 -0.093711 -0.246659 -0.35498 0.421704 -0.070824 0.009951 -5.71E-4 0.061746 0.044129 0.163 0.478046 0.527054 0.019363 0.417303 -0.262939 0.168123 -0.399221 -0.599008 -0.27188 -0.478259 -0.148244 -0.003172 -0.552742 0.307197 -0.459666 0.129516 0.364689 -8.0E-4 0.128102
football 0.203312 0.16775 -0.026596 0.125927 -0.051478 -0.155394 0.003998 -0.172498 0.259856 0.408037 0.125938 0.265234 0.378825 -0.225955 -0.182108 -0.406347 -0.438658 0.112071 6.0E-5 0.139304 -0.014713 -0.077397 0.392472 -0.116738 0.074304 0.564247 0.20588 -0.248332 -0.166485 -0.127925 0.324207 0.550304 -0.225398 0.325647 -0.067859 -0.563655 0.242309 0.073567 0.373203 -0.292459 0.40651 0.003131 -0.093037 -0.083295 -0.444041 0.099089 0.132659 -0.05253 0.645432 -0.211832 -0.368308 0.340326 0.018133 0.046743 0.250996 0.105944 0.309764 -0.011731 0.271234 -0.174804 0.104507 0.37441 0.483991 -0.065887 -0.181738 -0.135702 0.29244 0.029702 0.347197 -0.068667 -0.234023 -0.248242 -0.228246 1.82E-4 -0.098347 -0.273867 -0.263439 -0.169916 0.319837 -8.38E-4 -0.082351 -0.198152 -0.227096 0.262194 -0.288828 -0.579215 -0.100553 -0.44968 -0.056082 0.283272 -0.450477 -0.29031 0.291286 -0.467695 -0.281935 -0.451836 -0.345526 -0.018771 -0.450279 -0.140129
seepage 0.056622 0.29427 -0.237468 0.313137 0.258417 -0.114268 0.411131 -0.293449 0.215613 -0.326694 -0.384235 0.206357 0.373059 -0.243582 0.080028 -0.285904 -0.173366 -0.165428 0.040146 -0.318025 -0.02346 0.203947 0.336924 0.1471 0.529986 -0.143051 -0.27384 0.186483 0.34276 0.415361 -0.161545 0.211417 -0.423003 0.101113 -0.105457 0.234492 -0.004196 0.112695 0.689885 0.11809 0.057896 -0.081553 0.315823 -0.200451 0.360229 -0.494882 0.073049 -0.359999 0.141543 -0.277066 -0.217726 -0.241192 0.409363 0.047163 -0.12846 -0.223034 -0.26633 -0.192635 0.065049 -0.057375 -0.277984 0.072872 0.138764 0.145982 0.054034 -0.120036 -0.237867 0.019148 0.058048 -0.242851 -0.223809 0.229659 0.176879 0.128096 -0.085787 0.169503 0.252404 -0.048449 0.205604 -0.025242 -0.416189 -0.208942 0.204917 -0.305028 0.346415 0.309631 -0.229877 -0.013252 -0.250839 -0.020303 -0.399805 -0.244102 -0.10281 -0.575824 0.013931 -0.02555 0.319439 -0.227358 -0.362673 0.059192
rook -0.008453 0.077581 0.004888 -0.107099 -0.136598 0.066738 0.053199 0.217825 0.014845 0.12117 0.223986 0.005559 -0.177362 -0.146751 0.055386 -0.298574 0.106836 0.072595 -0.202834 -0.085935 -0.00664 0.248049 0.292366 0.030733 0.188419 0.127272 -0.100213 -0.009015 -0.253031 0.162165 -0.005391 0.391199 0.035209 -0.12978 0.036841 -0.186395 0.11184 0.356372 0.274135 0.084822 0.161917 -0.153676 0.127507 0.064704 0.301229 -0.173327 -0.08363 -0.006644 0.265816 0.025972 -0.401449 -0.300759 -0.248721 0.073125 -0.063052 -0.020922 0.122982 0.35879 -0.006 -0.237095 -0.014452 -0.079396 0.189353 -0.145907 -0.1808 -0.593495 -0.064152 0.117757 -0.085006 -0.157458 0.021135 0.152906 -0.140888 0.160403 0.225272 -0.050541 -0.067604 -0.523586 0.14279 0.364396 -0.155664 -0.360475 -0.068577 -0.126201 -0.154223 0.006411 0.062023 -0.29973 -0.085161 -0.061319 -0.533845 -0.24178 -0.038096 -0.209608 0.109661 -0.150108 -0.038925 0.0091 -0.256872 -0.022969
stroke -0.094727 0.071611 -0.51702 -0.437201 0.438789 0.037119 -0.017813 0.219665 0.036098 -0.526399 -0.027652 -0.363665 -0.008317 0.081265 0.115384 -0.374391 0.063717 0.139362 0.324941 0.115551 0.288381 0.510238 0.545416 0.739832 -0.554571 0.237275 0.13839 -0.254392 0.009954 -0.112075 -0.26741 0.748867 -0.250904 0.06619 -0.061106 -0.089495 0.082597 0.595182 0.307421 -0.211702 0.198931 -0.459332 0.427499 0.03872 0.171508 -0.563144 -0.271406 0.149256 -0.380861 0.115144 -0.807221 -0.09581 0.508246 0.068805 0.046215 -0.366042 -0.161372 0.254457 0.036271 -0.422014 0.3101 0.205708 0.157126 0.297691 0.185304 -0.787746 -0.308968 0.220708 0.116046 -0.19534 0.128039 -0.260037 0.67587 -0.009694 -0.080763 -0.094592 0.033701 -0.166929 0.141517 0.102074 -0.206701 -0.296387 0.138729 0.097135 -0.07771 -0.146515 0.11184 -0.090651 -0.289309 0.118417 0.279731 -0.298341 0.362143 -0.227627 -0.266208 -0.007557 0.165035 -0.081444 -0.676772 0.023019
environment 0.125317 -0.231028 -0.764678 0.141461 0.056001 -0.180953 -0.317631 -0.121078 0.126121 -0.197192 0.085462 0.509066 0.510747 -0.042921 0.236234 -0.368245 0.088828 -0.01867 -0.018798 -0.07608 -0.003692 0.142499 0.434004 -0.041579 0.490223 0.117893 -0.067263 0.272617 -0.040174 0.520127 -0.137333 -0.066843 -0.082681 -0.097668 0.192499 0.082073 0.266697 0.471688 -0.012912 -0.074886 0.583831 -0.009026 0.104388 -0.088593 0.383507 0.217037 -0.043096 -0.174844 -0.051068 -0.468767 -0.191886 0.254434 0.459457 0.566545 0.31484 0.059868 -0.25449 0.172088 0.135483 -0.222301 -0.054934 0.346223 0.067696 -0.143772 0.041642 -0.313807 -0.062371 -0.299361 0.286563 -0.101564 -0.175632 -0.071814 -0.14228 0.356581 0.023367 0.589789 0.21699 -0.22983 0.20653 0.318155 0.02244 -0.169075 0.053881 -0.113122 0.003571 -0.314806 0.02058 0.028133 -0.139543 -0.205664 -0.45258 -0.206459 -0.137147 -0.579271 0.136198 -0.34335 -0.004496 0.280645 0.179892 0.159901
coffee 0.362917 0.12711 -0.263161 0.30044 -0.28799 0.5648 0.019128 0.151252 0.186896 0.033779 0.068013 -0.572788 -0.132303 -0.209217 0.229825 -0.467796 0.103553 -0.16583 0.161006 0.16013 -0.368319 0.134085 0.101481 0.187667 0.41267 -0.381283 0.162924 -0.161016 -0.222118 0.167831 -0.276032 0.142593 -0.337682 -0.146333 0.226201 -0.200599 0.32244 -0.106459 0.678253 -0.01464 -0.265238 0.108033 -0.153041 -0.058197 -0.0305 0.031598 0.172172 -0.262811 0.103813 -0.284979 -0.381244 -0.251369 0.054768 0.077386 -0.033485 0.15837 -0.009076 0.004774 -0.108264 -0.267536 -0.23902 -0.643286 -0.349161 -0.251837 -0.009601 -0.18808 -0.178149 -0.015815 0.121241 -0.427292 -0.232123 0.124507 -0.434449 -0.041155 0.125996 -0.149842 -0.291039 -0.567701 0.093427 0.248407 -0.255195 0.098883 -0.003328 -0.236005 -0.411678 0.150792 -0.055457 -0.190661 -0.022644 -0.021132 -0.744661 -0.666369 0.019584 -0.849541 0.082819 0.07519 -0.065564 0.186122 -0.625244 0.166202
baby -0.199555 -0.331377 -0.220222 0.140101 -0.042502 0.042447 0.111713 0.720332 -0.097301 -0.371665 0.114264 0.203202 0.030686 -0.595954 0.190555 -0.292685 -0.138358 0.033391 -0.186107 -0.041468 -0.171723 0.325267 0.465447 0.554398 0.157701 -0.272251 0.349765 -0.400076 0.014024 -0.183192 -0.361388 0.714639 -0.181359 -0.197164 -0.041409 -0.137174 -0.115511 0.044198 0.429594 0.253056 -0.171276 -0.5036 0.092955 0.19692 0.331841 -0.463425 0.011345 -0.16714 -0.01663 -0.037087 -0.206148 -0.37168 0.391194 -0.158074 0.111569 0.094075 -0.303578 -0.140114 0.281876 -0.308523 0.068675 -0.193715 -0.112884 -0.183394 -0.258072 -0.471239 0.034723 -0.122996 0.110319 -0.42723 -0.163886 -0.472049 -0.108787 -0.052103 0.199608 0.296907 -0.388387 -0.26047 0.1445 0.154031 -0.221827 -0.262425 -0.246381 -0.118073 -0.300523 0.00293 -0.288353 -0.073384 -0.203153 -0.270266 -0.172215 -0.506744 -0.342211 -0.261034 0.470014 0.12865 0.007515 -0.330592 -0.229235 0.065117
personnel 0.674186 0.181005 -0.199453 0.077522 0.346544 0.06974 -0.342908 -0.036311 -0.060533 0.115762 0.023928 0.178113 0.455491 -0.080962 0.039105 -0.028732 -0.373514 0.552265 -0.283589 -2.34E-4 0.199473 -0.002592 -0.230941 -0.044997 0.088701 0.354549 -0.07449 0.053257 -0.167188 -0.042004 -0.251477 0.354132 0.081067 0.327971 0.057808 -0.110201 0.059614 0.355464 -0.220931 -0.023394 0.881475 0.440869 -0.37442 0.283673 0.046503 -0.484136 -0.046674 0.216749 -0.214255 -0.556127 -0.340842 0.156078 0.522618 -0.459044 -0.013636 -0.167964 -0.602112 -0.340687 0.044263 -0.239098 -0.23869 -0.380114 0.117675 0.156257 -0.268231 0.584254 0.007019 -0.196184 0.404321 -0.566844 -0.126376 0.13547 0.481838 0.248394 -0.37311 -0.26325 -0.044532 -0.344286 0.607029 0.129905 0.028775 -0.477731 0.069259 -0.286955 0.293516 0.009207 -0.29925 -0.099386 -0.117783 -0.151178 -0.086647 0.065626 -0.49566 -0.116352 -0.301179 -0.017252 0.144399 0.212492 -0.184401 -0.104889
family -0.175056 -0.152706 -0.066131 0.149977 0.215196 0.242613 -0.065632 0.432822 -0.052751 -0.180325 -0.016956 0.263368 0.268146 -0.060951 0.052926 -0.303967 -0.050118 0.195434 -0.126334 0.098182 -0.093519 0.176353 0.341389 0.264841 -0.022767 -0.008203 0.125571 -0.466437 -0.22114 -0.365828 -0.117599 0.513379 -0.047094 -0.126709 0.155823 -0.08462 -0.110516 -0.193253 0.26893 -0.287387 0.2937 -0.232016 0.113726 -0.013609 0.189281 -0.195077 0.263184 -0.232658 0.269547 -0.381519 0.162561 0.237348 0.211983 0.052372 0.092408 0.056197 -0.57853 0.253797 0.109275 -0.4186 0.213853 -0.183081 -0.075205 -0.224996 -0.364973 0.009675 0.233484 -0.092951 0.40815 -0.191251 -0.150607 -0.088023 -0.218069 0.011158 -0.095639 0.162949 -0.260633 -0.198751 0.192335 -0.055209 -0.081614 -0.302319 -0.071631 -0.190411 -0.15474 -0.153103 -0.048949 0.089559 0.263082 -0.3984 -0.321221 -0.063353 -0.15378 -0.29305 0.412915 -0.100343 0.057289 -0.023175 -0.271722 -0.178511
hypertension 0.45081 0.422234 -1.05638 -0.228851 0.279618 -0.308538 0.229558 0.643306 0.30012 -1.077039 -0.413859 -0.425539 0.074247 -0.654074 0.157082 -0.933899 0.273886 -0.488287 0.140982 0.013858 0.273354 0.247777 0.202918 0.532932 -0.145485 0.01807 -0.005335 -0.407478 0.524333 0.412741 -0.365805 0.724513 -0.187595 -0.180016 0.360973 -0.15759 -0.057255 0.739334 0.310352 -0.236252 0.167679 -0.314323 0.416244 0.208579 0.192157 -0.440426 0.153049 0.686884 -0.305185 -0.210576 -0.472642 -0.01328 0.833054 -0.064434 -0.153711 -0.560853 0.364515 -0.020681 0.171498 -0.63058 0.188458 -0.145246 0.029661 0.204007 0.440391 -0.318612 0.12759 -0.250936 -0.042372 0.322306 -0.082327 -0.016398 0.450448 0.281932 0.278937 0.363124 -0.195281 -0.109358 0.553733 -0.033228 -0.05198 -0.091167 -0.140355 -0.004254 0.007618 0.048208 -0.273036 -0.05689 -0.319439 -0.03349 0.214336 -0.79514 -0.211363 -0.213551 -0.339798 -0.398138 0.166565 0.15453 -1.024467 0.003861
president 0.065656 -0.064447 -0.109794 -0.212655 0.100297 0.293222 -0.161752 -0.063864 2.97E-4 0.115355 0.041735 0.495609 0.089835 -0.093449 -0.438487 -0.199999 -0.193404 -0.272266 0.166415 0.183274 0.410758 -0.146017 0.291134 -0.378582 -0.182218 -0.073631 0.378944 -0.058463 -0.391964 0.148875 -0.155213 0.864298 -0.189337 -0.054724 0.674967 -0.069362 0.126163 0.543029 3.91E-4 0.003827 0.325142 0.359063 0.0592 -0.164603 -0.093583 0.457769 -0.012781 -0.136255 -0.105783 0.105758 -0.554511 0.323115 0.523195 -0.134798 1.24E-4 0.02683 -0.072295 0.021666 0.159552 -0.110153 -0.297252 0.017016 0.144636 -0.0617 -0.304238 0.317983 0.214994 0.262368 0.32737 -0.005637 -0.238052 -0.381762 -0.294955 -0.215544 0.327432 0.554025 -0.498781 -0.032268 0.214064 0.366004 -0.352465 0.045981 0.025345 0.126034 -0.269068 0.336912 0.223007 -0.186912 0.573641 -0.097328 -0.408473 0.155229 -0.092536 -0.039806 0.196128 0.089696 0.032838 0.30657 -0.033713 0.095165
atmosphere -0.504594 0.293169 -0.288166 0.269469 0.20137 -0.027142 -0.109251 -0.232344 0.137244 -0.095958 -0.318991 0.205372 0.279279 -0.033591 0.284252 -0.253745 -0.27746 -0.354523 -0.185992 0.154065 -0.050489 -0.116003 0.394045 -0.148474 0.58501 0.020265 0.114279 -0.341538 0.024497 0.252922 -0.087222 -0.015735 -0.63635 0.080884 -0.027616 0.081651 0.305821 0.277652 0.231751 -0.18329 0.517248 -0.276157 0.133309 -0.326087 0.281933 0.042325 0.024003 -0.504615 0.458141 -0.205911 -0.451726 -0.024716 0.100825 0.250205 -0.240256 0.024631 0.070382 0.087821 -0.309331 -0.125422 -0.451062 0.366945 0.275162 -0.035158 -0.015575 -0.532757 -0.140245 -0.027167 0.070652 -0.16527 -0.118075 -0.05695 -0.507975 0.806566 0.387929 0.438294 0.351011 -0.01633 0.061328 -0.03907 -0.259531 -0.246478 0.206338 -0.333019 0.238626 -0.475129 0.06021 0.011346 -0.262667 0.03428 -0.522429 -0.193607 -0.171043 -0.474087 0.099025 -0.467434 0.146114 0.11146 -0.152196 -0.252292
practice 0.15749 0.170497 -0.276729 -0.17596 0.159633 0.080388 -0.103033 -0.135619 0.155713 0.224592 -0.180677 0.231658 0.202964 -0.110427 -0.099672 -0.291925 -0.205512 -0.156168 0.430819 -0.199631 0.120422 0.012604 0.124783 0.054173 -0.084117 0.36259 0.20333 -0.013446 -0.008112 -0.138395 0.009179 0.423815 -0.300245 0.098543 -0.191774 -0.396602 0.250538 -0.105084 0.407786 -0.110057 0.423971 -0.123957 -0.148041 0.308859 0.210807 -0.140156 -0.193828 -0.066903 0.173536 -0.136018 -0.163246 0.252685 0.371441 0.2904 0.01636 0.117578 0.288413 0.325666 0.12425 -0.239756 -0.132108 0.188252 -0.242947 -0.145376 0.10034 -0.06405 0.0956 -0.111474 0.313071 0.065432 -0.258929 0.073604 -0.001946 0.242247 0.200225 -0.107309 -0.227038 -0.300032 -0.062857 -0.051396 0.165334 -0.350539 0.192541 -0.175582 -0.095366 -0.338386 0.324186 -0.236058 -0.086015 -0.301548 -0.144966 -0.162096 -0.137573 -0.481533 -0.025549 -0.370925 0.156436 0.050476 -0.270678 0.143237
movie -0.052251 -0.106427 0.022515 -0.002001 -0.447749 -0.299088 0.227886 0.146996 -0.057748 0.054181 -0.342762 -0.111541 0.241352 0.098513 0.018707 -0.294105 -0.068711 -0.001203 -0.382007 0.310063 -0.063176 0.056638 -0.005801 0.115601 -0.139515 0.197964 0.21293 -0.352945 -0.138177 0.081705 0.127605 0.258595 -0.31295 -0.403458 0.259834 0.012057 -0.323406 -0.257392 0.144499 0.179398 0.303293 0.202635 -0.009425 -0.149112 0.053997 -0.136801 0.090283 -0.36606 0.410882 -0.018901 -0.305799 -0.078859 -0.265807 0.424637 0.136414 0.097694 0.128096 0.154533 0.053194 -0.262982 -0.526845 -0.341787 0.686885 -0.085291 -0.287527 -0.259571 0.111378 0.703458 0.282292 -0.280643 -0.317567 -0.244472 0.36515 0.345279 0.14718 0.077405 -0.276654 0.059499 -0.014468 0.175236 -0.385652 -0.395116 -0.049719 0.186668 -0.424476 -0.700624 0.028642 0.023985 -0.21915 -0.152865 -0.538341 -0.252698 -0.260664 -0.39046 0.0214 -0.035233 0.224095 0.082703 -0.099476 -0.054827
popcorn 0.19653 0.454295 -0.303996 0.273703 -0.259844 0.269792 0.00978 0.156588 0.249981 0.005608 0.020527 -0.724334 -0.050576 -0.049274 0.377759 -0.38271 -0.031344 -0.340719 -0.314504 0.279197 -0.150571 -0.056161 0.240993 0.253615 0.529985 -0.419246 0.059531 -0.42073 0.107998 0.230576 -0.236889 0.254501 -0.213476 -0.222199 -0.013902 -0.300378 -0.142964 0.023223 0.310128 0.22258 -0.218911 0.156769 0.214931 0.230223 0.21141 -0.28266 0.020276 -0.129988 0.30988 -0.205863 -0.361758 -0.584652 0.082006 -0.207535 -0.139125 -0.11739 0.157256 0.124579 0.002849 -0.122899 -0.365276 -0.4616 -0.195194 -0.196711 -0.108112 -0.123368 0.070935 0.170801 0.155579 -0.648785 -0.401049 0.263115 -0.16133 -0.022401 0.187686 0.098082 -0.354372 -0.092658 0.10883 0.399752 -0.452397 0.031771 -0.138374 -0.062234 -0.566738 0.08084 -0.132531 -0.112879 -0.314159 0.044709 -0.486495 -0.782875 -0.193218 -0.684396 -0.106906 0.044857 0.215543 -0.057678 -0.599877 0.086022
recommendation 0.130005 -0.172686 -0.28644 -0.22241 -0.064743 0.477996 -0.18282 -0.127582 -0.08566 -0.074714 0.006351 0.141179 -0.002896 -0.173422 -0.015847 0.075894 0.206144 -0.320091 0.25732 -0.05075 0.675332 -0.034078 0.124485 -0.308998 -0.084394 0.120466 -0.521015 -0.216998 -0.127233 -0.049594 -0.038392 0.403104 -0.686438 0.070322 0.184874 -0.246525 0.012602 0.402908 -0.005598 -0.044495 0.065506 0.368766 -0.009242 0.202535 0.240276 -0.408841 -0.275229 -0.417257 -0.199865 0.124589 -0.220697 -0.10336 0.112714 0.325822 0.601516 -0.009646 -0.385754 0.242329 0.216745 -0.714531 -0.022498 0.1531 -0.01503 -0.38155 -0.200695 0.045166 0.102528 -0.071935 0.362131 -0.346494 -0.074441 0.269686 -0.019216 0.220005 0.236122 0.299751 -0.49164 -0.232911 0.736326 0.138155 0.060911 -0.181608 -0.04698 0.160373 -0.471146 -0.100602 -0.165946 -0.054573 0.277145 -0.330225 -0.00518 0.202553 -0.30334 -0.326232 -0.056447 -0.008957 0.194839 0.003992 -0.055249 -0.177608
focus 0.532438 0.153976 -0.018153 0.325071 0.082341 0.260899 -0.071762 -0.190157 -0.36075 -0.035362 -0.237176 0.334624 0.284147 0.230035 -0.295952 0.004443 0.146669 -0.357837 -0.090561 -0.154009 -0.414863 -0.054333 0.27922 -0.343115 0.125757 0.287461 0.36407 0.178793 -0.263651 0.204262 -0.293999 0.19911 -0.348174 0.018096 0.177545 -0.284012 0.160117 0.273325 -0.012743 0.062763 0.13388 0.12195 -0.241975 -0.126724 0.357866 -0.102131 0.075311 0.073249 -0.115881 0.07927 -0.423431 0.443264 0.140929 0.337689 0.265178 -0.023928 -0.141295 -0.094978 0.276457 -0.416683 0.151504 -0.002153 0.119049 -0.1332 0.346678 -0.525618 0.312337 -0.270636 0.601108 0.100428 -0.680159 -0.146055 0.405887 0.163642 0.098581 0.344882 0.186009 -0.32764 0.495975 -0.125037 -0.142691 -0.168806 -0.088586 0.118331 -0.180495 -0.209355 -0.217011 0.225617 -0.196016 -0.253013 -0.223388 0.120909 -0.141926 -0.060078 0.470882 -0.229273 -0.047203 0.306034 0.023246 -0.461548
